{"learner":{"attributes":{"scikit_learn":"{\"_estimator_type\": \"regressor\"}"},"feature_names":["height","mainPosition","positionGroup","foot","transferAge","isLoan","wasLoan","marketvalue_closest","foreign_transfer","from_competition_competition_area","from_competition_competition_level","fromTeam_marketValue","to_competition_competition_area","to_competition_competition_level","toTeam_marketValue","team_market_value_relation","percentage_played_before","was_joker","clean_sheets_before","scorer_before_new","value_age_product","value_per_age"],"feature_types":["float","c","c","c","float","i","i","float","int","c","float","float","c","float","float","float","float","c","float","float","float","float"],"gradient_booster":{"model":{"gbtree_model_param":{"num_parallel_tree":"1","num_trees":"254"},"iteration_indptr":[0,1,2,3,4,5,6,7,8,9,10,11,12,13,14,15,16,17,18,19,20,21,22,23,24,25,26,27,28,29,30,31,32,33,34,35,36,37,38,39,40,41,42,43,44,45,46,47,48,49,50,51,52,53,54,55,56,57,58,59,60,61,62,63,64,65,66,67,68,69,70,71,72,73,74,75,76,77,78,79,80,81,82,83,84,85,86,87,88,89,90,91,92,93,94,95,96,97,98,99,100,101,102,103,104,105,106,107,108,109,110,111,112,113,114,115,116,117,118,119,120,121,122,123,124,125,126,127,128,129,130,131,132,133,134,135,136,137,138,139,140,141,142,143,144,145,146,147,148,149,150,151,152,153,154,155,156,157,158,159,160,161,162,163,164,165,166,167,168,169,170,171,172,173,174,175,176,177,178,179,180,181,182,183,184,185,186,187,188,189,190,191,192,193,194,195,196,197,198,199,200,201,202,203,204,205,206,207,208,209,210,211,212,213,214,215,216,217,218,219,220,221,222,223,224,225,226,227,228,229,230,231,232,233,234,235,236,237,238,239,240,241,242,243,244,245,246,247,248,249,250,251,252,253,254],"tree_info":[0,0,0,0,0,0,0,0,0,0,0,0,0,0,0,0,0,0,0,0,0,0,0,0,0,0,0,0,0,0,0,0,0,0,0,0,0,0,0,0,0,0,0,0,0,0,0,0,0,0,0,0,0,0,0,0,0,0,0,0,0,0,0,0,0,0,0,0,0,0,0,0,0,0,0,0,0,0,0,0,0,0,0,0,0,0,0,0,0,0,0,0,0,0,0,0,0,0,0,0,0,0,0,0,0,0,0,0,0,0,0,0,0,0,0,0,0,0,0,0,0,0,0,0,0,0,0,0,0,0,0,0,0,0,0,0,0,0,0,0,0,0,0,0,0,0,0,0,0,0,0,0,0,0,0,0,0,0,0,0,0,0,0,0,0,0,0,0,0,0,0,0,0,0,0,0,0,0,0,0,0,0,0,0,0,0,0,0,0,0,0,0,0,0,0,0,0,0,0,0,0,0,0,0,0,0,0,0,0,0,0,0,0,0,0,0,0,0,0,0,0,0,0,0,0,0,0,0,0,0,0,0,0,0,0,0,0,0,0,0,0,0,0,0,0,0,0,0,0,0,0,0,0,0],"trees":[{"base_weights":[8.362153E-2,-1.0773744E1,5.686878E0,-1.499692E0,-1.5357564E1,1.0680579E1,1.142377E0,5.4543395E0,-4.763928E0,-2.410652E1,-1.2292428E1,8.148655E0,1.9296108E1,-5.8115906E-1,9.542231E0,4.3229866E0,1.9701113E1,-1.4467643E1,-2.4914649E0,-2.0179836E1,-3.243888E1,-1.0009836E1,-2.3040745E1,1.1432171E1,4.3515644E0,2.162677E1,1.3991229E1,2.8920503E0,-4.7943745E0,1.422237E1,3.1781085E0,7.126186E0,-7.870706E-1,2.1536354E1,4.4870296E0,-7.4255357E0,-2.1020134E1,-5.03412E-1,-1.140265E1,-2.1591608E1,-9.6383E0,-3.4154686E1,-1.8903063E1,-1.1817568E1,-2.394521E0,-2.9877085E1,-1.7082205E1,1.3816143E1,7.6040273E0,5.969691E0,-3.7449427E0,1.9244469E1,2.5443398E1,1.5896455E1,4.3898244E0,1.3423005E1,1.4557347E0,-1.3610425E1,-9.4144446E-1,1.9651033E1,9.633957E0,5.6798663E0,-1.0987132E1,4.5327875E-1,1.3759753E-1,-3.8176572E-1,1.2430089E-1,2.0104976E-1,8.881912E-1,4.5791766E-1,-4.4558105E-1,-7.7973056E-1,-1.14269964E-1,-1.0410069E0,-5.541995E-1,-1.05718784E-1,1.9519266E-1,-6.593529E-1,-4.4882417E-2,-8.0678815E-1,-1.1549287E0,2.4007738E-1,-7.593784E-1,-1.1179421E0,-1.4842292E0,-2.4003386E-1,-9.556634E-1,-1.7983478E-1,-5.636327E-1,2.3301952E-1,-3.0835187E-1,3.01194E-2,-1.2301537E0,-4.0895337E-1,-8.603047E-1,7.5784254E-1,4.783473E-1,2.9534113E-2,4.1038132E-1,1.1522969E0,2.2347946E-1,-6.855579E-1,-2.4720486E-2,6.112475E-1,8.6004037E-1,1.3598504E0,9.469943E-1,4.968371E-1,7.76446E-1,2.366116E-1,-3.8102388E-1,6.70331E-1,2.2092994E-1,-7.555219E-2,3.1291288E-1,-3.3329183E-1,-8.702558E-1,1.230022E-1,-3.013416E-1,8.939766E-1,6.336562E-1,4.6312904E-1,-1.5749441E-2,3.962475E-1,-6.1306E-2,-2.9598408E-5,-8.817988E-1],"categories":[0,1,2,3,4,7,8,13,14,15,18,19,23,24,28,29,31,32,33,34,35,36,37,38,39,42,43,44,45,47,0,4,5,8,10,16,17,18,19,20,26,30,31,33,34,35,37,38,40,41,42,0,15,16,18,19,20,31,33,34,35,38,43,3,7,9,15,16,19,20,25,27,31,32,33,34,35,37,38,40,42,43,44,3,6,7,8,10,15,16,17,19,21,22,26,27,31,32,33,34,36,37,38,39,40,43,44,6,15,16,19,20,23,26,31,33,34,35,37,40,43,30,33,35,41,43,45,47,0,1,5,11,12,20,21,24,25,26,27,28,29,30,31,39,41,45,46,0,1,2,3,4,5,6,7,8,9,11,12,13,14,15,16,17,18,19,20,21,27,28,29,30,31,32,33,34,36,37,38,39,40,41,42,43,44,45,1,2,4,7,10,13,14,16,17,19,20,21,22,23,25,26,30,31,32,33,34,37,40,42,43,44,0,1,3,5,7,9,10,11,13,14,15,16,17,18,19,20,21,23,27,28,29,31,32,33,34,35,36,37,39,40,41,42,43,44,1,9,28,29,39,44,46,1,6,11,12,14,24,28,32,44,45,4,16,17,19,20,30,31,33,34,35,37,41,42,8,19,40,42,1,2,3,4,6,7,8,9,12,13,14,21,23,25,28,30,32,36,37,39,40,41,42,44,0,1,2,3,4,5,6,7,8,9,10,11,12,13,14,15,16,17,18,19,20,21,22,23,24,25,26,27,28,29,30,31,32,35,38,45,47,0,1,2,3,4,5,6,7,8,9,10,11,12,13,14,15,16,17,18,19,20,21,22,23,24,25,26,27,28,29,30,31,32,33,34,36,37,38,39,40,41,42,43,44,45,46,2,3,4,5,6,7,8,9,10,11,12,13,14,15,16,17,18,19,20,21,22,23,26,27,28,29,30,31,32,33,34,36,37,38,39,40,41,43,44,45,0,3,6,7,15,16,19,20,28,31,34,35,36,40,43,0,1,3,5,9,11,12,18,21,23,24,25,26,27,28,29,35,36,40,41,42,45,46,1,2,5,6,8,10,15,16,17,21,23,24,25,26,28,29,33,34,35,36,38,40,41,43,45,46],"categories_nodes":[3,9,10,11,12,18,24,26,27,29,31,34,39,40,41,42,43,45,49,52,54,57,60,61],"categories_segments":[0,30,51,63,83,107,121,128,147,186,212,246,247,253,263,276,280,304,341,387,427,428,442,465],"categories_sizes":[30,21,12,20,24,14,7,19,39,26,34,1,6,10,13,4,24,37,46,40,1,14,23,26],"default_left":[1,0,0,1,1,1,1,1,1,1,1,1,1,0,1,0,0,0,1,0,1,1,1,0,1,0,1,1,1,1,0,1,0,0,1,0,0,1,0,1,1,1,1,1,1,1,0,0,0,1,0,0,1,0,0,0,1,1,0,0,1,1,0,0,0,0,0,0,0,0,0,0,0,0,0,0,0,0,0,0,0,0,0,0,0,0,0,0,0,0,0,0,0,0,0,0,0,0,0,0,0,0,0,0,0,0,0,0,0,0,0,0,0,0,0,0,0,0,0,0,0,0,0,0,0,0,0],"id":0,"left_children":[1,3,5,7,9,11,13,15,17,19,21,23,25,27,29,31,33,35,37,39,41,43,45,47,49,51,53,55,57,59,61,63,65,67,69,71,73,75,77,79,81,83,85,87,89,91,93,95,97,99,101,103,105,107,109,111,113,115,117,119,121,123,125,-1,-1,-1,-1,-1,-1,-1,-1,-1,-1,-1,-1,-1,-1,-1,-1,-1,-1,-1,-1,-1,-1,-1,-1,-1,-1,-1,-1,-1,-1,-1,-1,-1,-1,-1,-1,-1,-1,-1,-1,-1,-1,-1,-1,-1,-1,-1,-1,-1,-1,-1,-1,-1,-1,-1,-1,-1,-1,-1,-1,-1,-1,-1,-1],"loss_changes":[2.5099328E6,5.9688675E5,6.174958E5,1.0570507E5,2.5050575E5,2.8200312E5,2.063838E5,2.3533906E4,6.966145E4,7.62785E4,1.6981588E5,1.24775125E5,3.4813625E4,1.7319872E5,7.2044734E4,1.987383E4,2.5063281E3,2.6877117E4,4.5542418E4,2.3736938E4,1.46251875E4,7.91115E4,4.697525E4,4.8506562E4,6.1152367E4,1.6001E4,1.6313875E4,9.802343E4,1.8158027E5,3.3821938E4,3.698505E4,1.34190625E4,1.671258E4,1.2416406E2,2.5365317E3,1.5914262E4,8.86275E3,2.3827877E4,2.3612762E4,1.376E4,2.994945E4,6.185375E3,5.2979688E3,7.2691E4,4.7698164E4,9.838344E3,1.828336E4,3.1159812E4,3.6325188E4,3.7654062E4,3.219843E4,9.041969E3,8.627281E3,7.8570156E3,3.4724077E3,1.9117938E4,1.19577805E5,6.818941E4,9.690026E4,4.459672E3,1.4079992E4,2.6303307E4,1.8666363E4,0E0,0E0,0E0,0E0,0E0,0E0,0E0,0E0,0E0,0E0,0E0,0E0,0E0,0E0,0E0,0E0,0E0,0E0,0E0,0E0,0E0,0E0,0E0,0E0,0E0,0E0,0E0,0E0,0E0,0E0,0E0,0E0,0E0,0E0,0E0,0E0,0E0,0E0,0E0,0E0,0E0,0E0,0E0,0E0,0E0,0E0,0E0,0E0,0E0,0E0,0E0,0E0,0E0,0E0,0E0,0E0,0E0,0E0,0E0,0E0,0E0,0E0,0E0,0E0],"parents":[2147483647,0,0,1,1,2,2,3,3,4,4,5,5,6,6,7,7,8,8,9,9,10,10,11,11,12,12,13,13,14,14,15,15,16,16,17,17,18,18,19,19,20,20,21,21,22,22,23,23,24,24,25,25,26,26,27,27,28,28,29,29,30,30,31,31,32,32,33,33,34,34,35,35,36,36,37,37,38,38,39,39,40,40,41,41,42,42,43,43,44,44,45,45,46,46,47,47,48,48,49,49,50,50,51,51,52,52,53,53,54,54,55,55,56,56,57,57,58,58,59,59,60,60,61,61,62,62],"right_children":[2,4,6,8,10,12,14,16,18,20,22,24,26,28,30,32,34,36,38,40,42,44,46,48,50,52,54,56,58,60,62,64,66,68,70,72,74,76,78,80,82,84,86,88,90,92,94,96,98,100,102,104,106,108,110,112,114,116,118,120,122,124,126,-1,-1,-1,-1,-1,-1,-1,-1,-1,-1,-1,-1,-1,-1,-1,-1,-1,-1,-1,-1,-1,-1,-1,-1,-1,-1,-1,-1,-1,-1,-1,-1,-1,-1,-1,-1,-1,-1,-1,-1,-1,-1,-1,-1,-1,-1,-1,-1,-1,-1,-1,-1,-1,-1,-1,-1,-1,-1,-1,-1,-1,-1,-1,-1],"split_conditions":[2.3E1,1.43E0,1.47E0,NaN,2E1,7.621E1,8.562E1,8.405E1,1.05E6,NaN,NaN,NaN,NaN,9.9E0,2.41E0,4.2E-1,6E0,2E0,NaN,1E0,7.5E6,6.343E1,2E-1,7.3E-1,NaN,9.256E1,NaN,NaN,8.1E6,NaN,8.58E0,NaN,2.1E1,2.3809524E3,NaN,2E1,1.285E1,5.014E1,1.92E7,NaN,NaN,NaN,NaN,NaN,2.01E0,NaN,1.9325E1,3.575E0,4.163E1,NaN,3.4E6,2.6E1,NaN,2.8E1,NaN,3.9E0,5.6E6,NaN,5.345E1,2E0,NaN,NaN,1.0805E2,4.5327875E-1,1.3759753E-1,-3.8176572E-1,1.2430089E-1,2.0104976E-1,8.881912E-1,4.5791766E-1,-4.4558105E-1,-7.7973056E-1,-1.14269964E-1,-1.0410069E0,-5.541995E-1,-1.05718784E-1,1.9519266E-1,-6.593529E-1,-4.4882417E-2,-8.0678815E-1,-1.1549287E0,2.4007738E-1,-7.593784E-1,-1.1179421E0,-1.4842292E0,-2.4003386E-1,-9.556634E-1,-1.7983478E-1,-5.636327E-1,2.3301952E-1,-3.0835187E-1,3.01194E-2,-1.2301537E0,-4.0895337E-1,-8.603047E-1,7.5784254E-1,4.783473E-1,2.9534113E-2,4.1038132E-1,1.1522969E0,2.2347946E-1,-6.855579E-1,-2.4720486E-2,6.112475E-1,8.6004037E-1,1.3598504E0,9.469943E-1,4.968371E-1,7.76446E-1,2.366116E-1,-3.8102388E-1,6.70331E-1,2.2092994E-1,-7.555219E-2,3.1291288E-1,-3.3329183E-1,-8.702558E-1,1.230022E-1,-3.013416E-1,8.939766E-1,6.336562E-1,4.6312904E-1,-1.5749441E-2,3.962475E-1,-6.1306E-2,-2.9598408E-5,-8.817988E-1],"split_indices":[4,15,15,9,4,16,16,16,20,12,12,12,12,14,15,15,19,14,12,5,20,16,7,15,9,16,9,12,20,12,15,12,4,21,3,4,11,16,20,12,12,12,12,12,15,9,14,14,16,12,20,4,12,4,3,14,20,12,14,19,9,9,14,0,0,0,0,0,0,0,0,0,0,0,0,0,0,0,0,0,0,0,0,0,0,0,0,0,0,0,0,0,0,0,0,0,0,0,0,0,0,0,0,0,0,0,0,0,0,0,0,0,0,0,0,0,0,0,0,0,0,0,0,0,0,0,0],"split_type":[0,0,0,1,0,0,0,0,0,1,1,1,1,0,0,0,0,0,1,0,0,0,0,0,1,0,1,1,0,1,0,1,0,0,1,0,0,0,0,1,1,1,1,1,0,1,0,0,0,1,0,0,1,0,1,0,0,1,0,0,1,1,0,0,0,0,0,0,0,0,0,0,0,0,0,0,0,0,0,0,0,0,0,0,0,0,0,0,0,0,0,0,0,0,0,0,0,0,0,0,0,0,0,0,0,0,0,0,0,0,0,0,0,0,0,0,0,0,0,0,0,0,0,0,0,0,0],"sum_hessian":[4.1247E4,1.4039E4,2.7208E4,4.646E3,9.393E3,1.296E4,1.4248E4,1.483E3,3.163E3,2.428E3,6.965E3,1.0024E4,2.936E3,1.1826E4,2.422E3,1.38E3,1.03E2,5.95E2,2.568E3,1.662E3,7.66E2,5.753E3,1.212E3,5.37E3,4.654E3,2.029E3,9.07E2,6.483E3,5.343E3,1.392E3,1.03E3,8.9E2,4.9E2,9E1,1.3E1,2.92E2,3.03E2,2.104E3,4.64E2,1.461E3,2.01E2,6.73E2,9.3E1,4.647E3,1.106E3,5.55E2,6.57E2,3.301E3,2.069E3,3.88E3,7.74E2,1.268E3,7.61E2,7.54E2,1.53E2,7.73E2,5.71E3,1.621E3,3.722E3,6.3E2,7.62E2,8.78E2,1.52E2,4.19E2,4.71E2,1.49E2,3.41E2,4E0,8.6E1,1E1,3E0,7.7E1,2.15E2,1.76E2,1.27E2,1.509E3,5.95E2,3.12E2,1.52E2,1.201E3,2.6E2,7.5E1,1.26E2,2.08E2,4.65E2,2.8E1,6.5E1,1.046E3,3.601E3,4.32E2,6.74E2,1E1,5.45E2,2.54E2,4.03E2,9.32E2,2.369E3,5.62E2,1.507E3,6.8E1,3.812E3,1.44E2,6.3E2,4.34E2,8.34E2,1.34E2,6.27E2,3.73E2,3.81E2,1.41E2,1.2E1,5.49E2,2.24E2,3.737E3,1.973E3,9.73E2,6.48E2,2.311E3,1.411E3,3.74E2,2.56E2,6.44E2,1.18E2,5.57E2,3.21E2,7.8E1,7.4E1],"tree_param":{"num_deleted":"0","num_feature":"22","num_nodes":"127","size_leaf_vector":"1"}},{"base_weights":[1.1287433E-1,6.342081E0,-5.8657866E0,1.11427355E1,1.3296956E0,8.328829E-3,-1.1447799E1,1.6122295E1,8.528936E0,-5.400612E0,3.3840156E0,1.7766966E0,-1.8064892E1,-1.6042408E1,-6.5214324E0,1.9436525E1,1.0397054E1,9.060012E0,-9.152451E0,-1.3061106E0,-1.8184267E1,7.7452893E0,4.8152763E-1,-5.2097464E0,5.374421E0,-2.2551674E1,-8.746638E0,-1.2394941E1,-2.665933E1,8.769038E-1,-9.610764E0,1.6367231E1,2.1620382E1,-1.459241E0,1.2552448E1,1.1307142E1,5.2416387E0,-1.5957832E0,-1.8204649E1,-9.742284E0,1.0154041E0,-1.07094E1,-2.4953098E1,5.3090425E0,1.19730625E1,1.0263572E1,-6.950806E-1,4.840864E0,-1.2380638E1,9.01655E0,3.24793E-1,-8.806713E0,-2.5546467E1,-1.1425092E1,4.6929674E0,-9.38624E0,-2.0628178E1,-2.1933878E1,-3.6386284E1,1.1253722E1,-7.3046035E-1,-7.7215405E0,-2.1100603E1,3.7713665E-1,7.69586E-1,9.9947745E-1,7.083129E-1,1.46244E-1,-8.737518E-1,6.2308E-1,3.2181564E-1,1.771448E-1,5.022509E-1,-7.6427534E-2,2.975242E-1,-6.025046E-1,9.647837E-2,-8.824575E-1,-2.0296653E-1,-6.6963834E-1,-1.7331664E-1,4.8335502E-1,-3.7542988E-2,-8.7387705E-1,-2.9656616E-1,-1.1048807E0,7.989213E-3,7.6555866E-1,1.7334689E-1,9.0987366E-1,4.146279E-1,6.8096435E-1,2.788635E-1,-1.6399316E-1,9.1190636E-2,4.1782972E-1,-1.1812835E-2,-3.488524E-1,-8.19367E-1,6.3828486E-1,2.2538921E-1,-3.9859697E-1,1.529133E-1,1.4990123E-1,-5.7257307E-1,-1.1826164E0,-6.125053E-1,2.5819486E-1,-5.672473E-1,4.2852494E-1,-2.8585905E-1,-1.2543347E-1,-5.145228E-1,-3.1155828E-1,-9.209959E-1,-1.0046421E0,-5.4780185E-1,-1.4942123E0,-1.817958E-1,2.5517258E-1,9.533721E-1,1.0730342E-1,-1.326206E-1,-2.6354745E-1,-7.649722E-1,-6.1821604E-1,-1.179802E0],"categories":[0,2,5,7,8,10,11,12,13,0,2,5,7,8,10,11,12,13,0,2,3,4,5,6,7,8,9,10,11,12,13,3,6,7,8,15,16,17,19,20,21,26,27,28,31,32,34,35,37,38,40,43,44,0,1,2,3,7,8,13,15,16,18,19,20,28,30,31,32,33,35,36,38,39,40,42,43,44,3,4,7,8,9,13,14,15,16,19,20,25,26,31,32,33,34,37,38,39,40,42,43,44,46,0,2,7,8,16,18,19,20,21,28,30,31,33,34,35,36,37,38,40,42,43,44,2,6,7,8,9,12,14,15,16,17,18,19,20,21,28,30,31,34,36,39,40,42,43,44,2,6,8,15,16,18,19,21,26,27,29,31,32,33,35,36,37,39,40,42,43,1,2,7,12,18,20,28,30,35,40,42,43,0,1,2,3,4,6,7,8,10,13,14,15,16,18,19,20,21,26,27,28,30,31,32,33,34,35,36,37,38,39,40,41,42,43,44,1,2,4,6,7,9,11,15,16,18,19,20,27,30,31,32,33,34,35,36,37,42,43,44,45,5,13,5,7,13,1,2,3,4,5,6,7,8,9,12,13,14,15,16,17,18,19,20,21,22,23,25,28,29,30,31,32,33,34,36,37,38,39,40,41,42,43,44,45,0,1,2,4,5,9,10,11,12,13,14,18,19,20,21,22,23,24,25,26,28,29,30,33,36,39,40,41,42,45,46,0,1,2,3,5,6,7,8,9,12,13,14,15,16,17,18,19,20,21,22,23,24,27,28,29,30,31,32,33,34,35,36,37,38,39,40,41,42,43,44,45,0,1,2,3,4,6,7,8,9,11,12,13,0,1,7,8,15,18,19,21,28,30,31,33,34,35,37,38,40,42,43,44,1,2,3,6,8,13,14,15,16,17,18,19,20,21,22,25,28,31,32,33,34,36,37,39,40,41,42,43,44,0,1,2,3,4,5,7,8,9,10,11,12,13,14,15,16,17,18,19,20,21,22,23,24,25,26,28,29,30,31,33,34,35,36,37,38,39,40,42,43,44,45,6,19,40,1,3,4,6,9,12,13,14,15,22,29,32,39,41,1,3,4,5,6,9,12,13,14,15,22,24,26,27,29,32,39,41,45,9,19,30,34,40,43],"categories_nodes":[1,2,3,7,9,10,13,14,17,18,23,25,27,28,29,34,40,44,48,49,53,54,55,56,62],"categories_segments":[0,9,18,31,53,78,103,125,149,170,182,217,242,244,247,286,317,358,370,390,419,461,464,478,497],"categories_sizes":[9,9,13,22,25,25,22,24,21,12,35,25,2,3,39,31,41,12,20,29,42,3,14,19,6],"default_left":[0,0,0,1,1,0,1,1,0,1,1,1,1,1,1,1,1,1,1,0,0,1,0,1,0,1,0,0,1,1,0,1,0,0,1,1,1,0,1,0,1,1,1,0,1,0,0,0,1,1,0,0,1,1,1,1,1,0,0,0,0,1,1,0,0,0,0,0,0,0,0,0,0,0,0,0,0,0,0,0,0,0,0,0,0,0,0,0,0,0,0,0,0,0,0,0,0,0,0,0,0,0,0,0,0,0,0,0,0,0,0,0,0,0,0,0,0,0,0,0,0,0,0,0,0,0,0],"id":1,"left_children":[1,3,5,7,9,11,13,15,17,19,21,23,25,27,29,31,33,35,37,39,41,43,45,47,49,51,53,55,57,59,61,63,65,67,69,71,73,75,77,79,81,83,85,87,89,91,93,95,97,99,101,103,105,107,109,111,113,115,117,119,121,123,125,-1,-1,-1,-1,-1,-1,-1,-1,-1,-1,-1,-1,-1,-1,-1,-1,-1,-1,-1,-1,-1,-1,-1,-1,-1,-1,-1,-1,-1,-1,-1,-1,-1,-1,-1,-1,-1,-1,-1,-1,-1,-1,-1,-1,-1,-1,-1,-1,-1,-1,-1,-1,-1,-1,-1,-1,-1,-1,-1,-1,-1,-1,-1,-1],"loss_changes":[1.5280526E6,4.8343E5,6.8649044E5,1.3286675E5,1.3608392E5,3.2632894E5,2.4243812E5,6.588375E4,6.37135E4,1.20354625E5,9.5405875E4,2.3392356E5,3.7028625E4,2.1327038E5,1.186502E5,1.31266875E4,3.342639E4,5.5862875E4,1.3447434E4,3.431183E4,2.6860797E4,3.0688188E4,5.22069E4,2.2834252E5,1.12935984E5,2.3991531E4,1.1218016E4,1.0158E5,6.0990688E4,2.5621031E4,7.862541E4,1.6919719E4,1.41739375E4,2.140048E4,1.3885203E4,3.16915E4,3.6917016E4,6.2365273E3,3.7352598E3,1.3700895E4,2.935401E4,9.25833E3,1.7420531E4,2.625579E4,1.8617031E4,1.0183379E4,4.0253883E4,3.731437E4,5.37815E4,8.271578E4,9.1081305E4,8.126413E3,1.7020094E4,1.2323988E4,4.1350386E3,6.3740875E4,2.9947E4,2.1946125E4,7.698375E3,1.1779551E4,1.1551387E4,4.173933E4,2.186439E4,0E0,0E0,0E0,0E0,0E0,0E0,0E0,0E0,0E0,0E0,0E0,0E0,0E0,0E0,0E0,0E0,0E0,0E0,0E0,0E0,0E0,0E0,0E0,0E0,0E0,0E0,0E0,0E0,0E0,0E0,0E0,0E0,0E0,0E0,0E0,0E0,0E0,0E0,0E0,0E0,0E0,0E0,0E0,0E0,0E0,0E0,0E0,0E0,0E0,0E0,0E0,0E0,0E0,0E0,0E0,0E0,0E0,0E0,0E0,0E0,0E0,0E0,0E0,0E0],"parents":[2147483647,0,0,1,1,2,2,3,3,4,4,5,5,6,6,7,7,8,8,9,9,10,10,11,11,12,12,13,13,14,14,15,15,16,16,17,17,18,18,19,19,20,20,21,21,22,22,23,23,24,24,25,25,26,26,27,27,28,28,29,29,30,30,31,31,32,32,33,33,34,34,35,35,36,36,37,37,38,38,39,39,40,40,41,41,42,42,43,43,44,44,45,45,46,46,47,47,48,48,49,49,50,50,51,51,52,52,53,53,54,54,55,55,56,56,57,57,58,58,59,59,60,60,61,61,62,62],"right_children":[2,4,6,8,10,12,14,16,18,20,22,24,26,28,30,32,34,36,38,40,42,44,46,48,50,52,54,56,58,60,62,64,66,68,70,72,74,76,78,80,82,84,86,88,90,92,94,96,98,100,102,104,106,108,110,112,114,116,118,120,122,124,126,-1,-1,-1,-1,-1,-1,-1,-1,-1,-1,-1,-1,-1,-1,-1,-1,-1,-1,-1,-1,-1,-1,-1,-1,-1,-1,-1,-1,-1,-1,-1,-1,-1,-1,-1,-1,-1,-1,-1,-1,-1,-1,-1,-1,-1,-1,-1,-1,-1,-1,-1,-1,-1,-1,-1,-1,-1,-1,-1,-1,-1,-1,-1,-1],"split_conditions":[2.08E0,NaN,NaN,NaN,1.25E-1,1E0,1.75E-1,NaN,1E0,NaN,NaN,7.5E-2,2E0,NaN,NaN,2E0,1.5E-1,NaN,NaN,3.5E-2,6.525E0,5E0,4.85E0,NaN,1.635E1,NaN,9E0,NaN,NaN,NaN,1E0,1E-1,7.585E0,1.235E1,NaN,7.5E-2,2.25E-1,7.6923076E3,5E0,3E0,NaN,5E-2,4E0,3.16E0,NaN,2.85E0,5.25E-1,2.575E0,NaN,NaN,4E-1,5.95E0,1.2E4,NaN,NaN,NaN,NaN,2E0,2.785E1,8.25E-1,9.475E0,7.12E0,NaN,3.7713665E-1,7.69586E-1,9.9947745E-1,7.083129E-1,1.46244E-1,-8.737518E-1,6.2308E-1,3.2181564E-1,1.771448E-1,5.022509E-1,-7.6427534E-2,2.975242E-1,-6.025046E-1,9.647837E-2,-8.824575E-1,-2.0296653E-1,-6.6963834E-1,-1.7331664E-1,4.8335502E-1,-3.7542988E-2,-8.7387705E-1,-2.9656616E-1,-1.1048807E0,7.989213E-3,7.6555866E-1,1.7334689E-1,9.0987366E-1,4.146279E-1,6.8096435E-1,2.788635E-1,-1.6399316E-1,9.1190636E-2,4.1782972E-1,-1.1812835E-2,-3.488524E-1,-8.19367E-1,6.3828486E-1,2.2538921E-1,-3.9859697E-1,1.529133E-1,1.4990123E-1,-5.7257307E-1,-1.1826164E0,-6.125053E-1,2.5819486E-1,-5.672473E-1,4.2852494E-1,-2.8585905E-1,-1.2543347E-1,-5.145228E-1,-3.1155828E-1,-9.209959E-1,-1.0046421E0,-5.4780185E-1,-1.4942123E0,-1.817958E-1,2.5517258E-1,9.533721E-1,1.0730342E-1,-1.326206E-1,-2.6354745E-1,-7.649722E-1,-6.1821604E-1,-1.179802E0],"split_indices":[15,1,1,1,7,6,7,12,6,12,12,7,18,12,12,18,7,12,12,7,14,18,14,12,14,12,18,1,1,12,6,7,14,14,12,7,7,21,18,18,12,7,18,14,1,14,7,14,12,12,7,14,21,12,12,12,12,13,11,7,14,15,12,0,0,0,0,0,0,0,0,0,0,0,0,0,0,0,0,0,0,0,0,0,0,0,0,0,0,0,0,0,0,0,0,0,0,0,0,0,0,0,0,0,0,0,0,0,0,0,0,0,0,0,0,0,0,0,0,0,0,0,0,0,0,0,0],"split_type":[0,1,1,1,0,0,0,1,0,1,1,0,0,1,1,0,0,1,1,0,0,0,0,1,0,1,0,1,1,1,0,0,0,0,1,0,0,0,0,0,1,0,0,0,1,0,0,0,1,1,0,0,0,1,1,1,1,0,0,0,0,0,1,0,0,0,0,0,0,0,0,0,0,0,0,0,0,0,0,0,0,0,0,0,0,0,0,0,0,0,0,0,0,0,0,0,0,0,0,0,0,0,0,0,0,0,0,0,0,0,0,0,0,0,0,0,0,0,0,0,0,0,0,0,0,0,0],"sum_hessian":[4.102E4,2.0089E4,2.0931E4,1.0258E4,9.831E3,1.0201E4,1.073E4,3.522E3,6.736E3,2.297E3,7.534E3,9.296E3,9.05E2,5.546E3,5.184E3,2.223E3,1.299E3,6.542E3,1.94E2,1.744E3,5.53E2,3.007E3,4.527E3,3.159E3,6.137E3,6.06E2,2.99E2,4.136E3,1.41E3,1.528E3,3.656E3,9.42E2,1.281E3,2E2,1.099E3,4.112E3,2.43E3,1.09E2,8.5E1,3.73E2,1.371E3,2.69E2,2.84E2,1.915E3,1.092E3,4.82E2,4.045E3,1.316E3,1.843E3,3.563E3,2.574E3,1.12E2,4.94E2,2.5E2,4.9E1,3.037E3,1.099E3,9.6E2,4.5E2,2.01E2,1.327E3,3.147E3,5.09E2,2.66E2,6.76E2,7.13E2,5.68E2,1.63E2,3.7E1,6.69E2,4.3E2,5.77E2,3.535E3,5.57E2,1.873E3,2.2E1,8.7E1,6.4E1,2.1E1,1.61E2,2.12E2,2.03E2,1.168E3,5.7E1,2.12E2,2.59E2,2.5E1,1.27E2,1.788E3,1.44E2,9.48E2,1.56E2,3.26E2,1.89E3,2.155E3,6.33E2,6.83E2,1.257E3,5.86E2,1.193E3,2.37E3,6.5E2,1.924E3,3.4E1,7.8E1,3.57E2,1.37E2,3.1E1,2.19E2,3.3E1,1.6E1,1.059E3,1.978E3,1.61E2,9.38E2,7.04E2,2.56E2,4.41E2,9E0,1.49E2,5.2E1,5.7E2,7.57E2,2.85E3,2.97E2,3.05E2,2.04E2],"tree_param":{"num_deleted":"0","num_feature":"22","num_nodes":"127","size_leaf_vector":"1"}},{"base_weights":[-1.10420324E-1,-1.0259924E1,5.147251E0,-1.5424311E0,-1.4701797E1,1.0731368E1,-5.043177E-1,4.7143464E0,-5.363972E0,-1.9714737E1,-1.0111303E1,1.4248676E1,5.7678366E0,4.96782E0,-5.0511913E0,1.136041E1,3.9472625E-1,-1.1549908E0,-1.1249647E1,-1.574333E1,-2.6464008E1,-7.9448624E0,-2.1446598E1,1.884776E1,1.1718906E1,6.8756323E0,-1.4677554E1,7.6134334E0,1.5037974E0,-2.6536312E0,-1.4489951E1,7.712955E0,1.6217413E1,1.8231715E0,-1.7587488E1,-6.835668E0,2.2726178E0,-1.5966964E1,-6.87508E0,-1.7855307E1,-3.7519362E0,-2.9393818E1,-2.1777645E1,-3.516344E0,-1.272975E1,-2.5765015E1,-1.252959E1,2.2124777E1,1.5826929E1,1.2227099E1,-8.51953E0,-3.4017692E0,8.336415E0,-2.3748793E1,-8.620129E0,5.1676626E0,1.2719614E1,4.2848206E-1,8.607917E0,3.0446637E0,-5.0046196E0,-1.7729914E1,-5.7090753E-1,-1.2909612E-1,4.734194E-1,6.9577795E-1,-8.081393E-2,-2.4703863E-1,1.5403786E-1,-8.481993E-1,1.7436038E-1,-5.8518473E-2,-6.134697E-1,4.1368324E-1,3.5029776E-2,-7.1146667E-1,-2.649059E-1,1.4141461E-1,-3.4714636E-1,-5.160345E-1,-8.9503396E-1,3.1828588E-1,-4.4904712E-1,-1.0504656E0,-1.3973761E0,-5.5370694E-1,-1.0727106E0,1.7623036E-3,-3.1984717E-1,-1.05732046E-1,-5.82414E-1,-7.492145E-1,-1.2757581E0,-6.676024E-1,6.977622E-2,9.905422E-1,7.3750776E-1,9.61831E-1,5.5782425E-1,6.0365343E-1,3.868412E-1,-1.3438334E-2,-6.584277E-1,8.650669E-2,-5.364534E-1,5.424884E-1,2.286692E-1,-5.393588E-1,-1.2344068E0,1.8133116E-1,-5.279112E-1,3.8242623E-1,1.0973788E-1,8.944365E-1,4.470692E-1,-2.0714763E-1,8.1617266E-2,7.8714603E-1,1.7681485E-1,5.5163807E-1,6.303044E-2,-1.5741332E-1,-7.33038E-1,-3.9858666E-1,-1.0758706E0,3.993997E-1,-4.4213256E-1],"categories":[0,2,5,7,8,10,11,12,13,0,2,3,5,7,8,10,11,12,13,3,6,7,8,15,16,18,19,20,21,31,32,33,34,35,37,39,40,43,44,0,3,4,6,7,8,10,13,14,15,16,17,18,19,21,23,28,31,32,34,35,36,38,39,42,43,45,0,3,4,5,8,13,14,18,19,20,23,24,26,29,31,33,34,35,36,37,43,44,0,4,5,8,10,13,16,17,18,19,20,23,25,26,30,31,33,34,35,37,38,39,41,42,43,44,15,16,18,19,20,21,31,33,35,38,43,0,2,3,4,5,6,7,8,9,10,11,12,13,3,5,7,9,13,15,16,17,19,20,21,25,31,32,33,34,37,39,40,43,44,5,0,15,16,35,43,0,2,5,8,10,11,12,13,2,3,4,6,7,8,9,13,14,15,16,17,18,19,20,21,23,28,31,32,33,34,36,37,38,39,40,42,43,44,1,2,16,28,30,32,38,39,40,42,0,2,3,5,8,10,13,2,6,7,11,12,14,24,28,32,36,40,45,4,13,16,19,30,31,33,35,38,4,8,19,20,30,33,34,39,43,44,0,3,6,8,14,23,25,28,32,34,36,37,40,41,42,1,2,3,4,5,6,7,8,9,11,12,13,14,17,24,27,28,29,30,32,34,36,37,39,40,41,42,44,0,2,3,5,6,7,13,3,6,7,8,9,10,15,16,18,19,20,21,22,23,25,26,27,28,29,31,32,33,34,35,37,38,39,40,42,43,44,45,0,1,2,3,5,6,7,8,9,12,13,14,15,16,17,18,19,20,21,23,26,28,30,31,32,33,34,35,36,37,39,40,41,42,43,44,45,2,12,14,28,7,8,15,16,18,21,31,33,34,35,40,43,44,0,2,3,4,5,6,7,8,9,10,11,12,13,6,15,20,31,32,34,40,43,44,3,4,6,9,1,2,3,4,5,6,7,8,9,11,12,13,14,15,16,17,18,19,20,21,22,23,24,25,26,27,28,30,31,32,33,34,36,37,38,39,40,42,43,44,45,0,1,2,3,4,6,8,9,10,11,13,0,1,2,3,4,5,6,7,8,9,11,12,13,14,15,16,17,18,19,20,21,22,23,26,27,28,29,30,31,32,33,34,35,36,37,38,39,40,41,42,43,44,45,46,0,1,6,8,12,15,18,19,20,24,28,30,31,34,35,38,39,40,43,44,45,2,9,12,14,33,40],"categories_nodes":[2,3,5,7,8,9,10,11,13,14,16,21,29,35,39,40,41,42,43,44,45,47,48,50,51,52,53,54,56,58,59,61,62],"categories_segments":[0,9,19,39,66,88,114,125,138,159,160,165,173,203,213,220,232,241,251,266,294,301,333,370,374,387,400,409,413,454,465,509,530],"categories_sizes":[9,10,20,27,22,26,11,13,21,1,5,8,30,10,7,12,9,10,15,28,7,32,37,4,13,13,9,4,41,11,44,21,6],"default_left":[1,0,1,0,1,1,0,1,1,1,1,1,0,1,1,0,1,1,1,0,1,1,1,0,0,1,0,1,0,1,1,1,0,1,0,1,0,1,0,0,1,1,1,1,1,1,0,1,1,0,1,1,1,1,1,0,1,1,1,1,0,1,1,0,0,0,0,0,0,0,0,0,0,0,0,0,0,0,0,0,0,0,0,0,0,0,0,0,0,0,0,0,0,0,0,0,0,0,0,0,0,0,0,0,0,0,0,0,0,0,0,0,0,0,0,0,0,0,0,0,0,0,0,0,0,0,0],"id":2,"left_children":[1,3,5,7,9,11,13,15,17,19,21,23,25,27,29,31,33,35,37,39,41,43,45,47,49,51,53,55,57,59,61,63,65,67,69,71,73,75,77,79,81,83,85,87,89,91,93,95,97,99,101,103,105,107,109,111,113,115,117,119,121,123,125,-1,-1,-1,-1,-1,-1,-1,-1,-1,-1,-1,-1,-1,-1,-1,-1,-1,-1,-1,-1,-1,-1,-1,-1,-1,-1,-1,-1,-1,-1,-1,-1,-1,-1,-1,-1,-1,-1,-1,-1,-1,-1,-1,-1,-1,-1,-1,-1,-1,-1,-1,-1,-1,-1,-1,-1,-1,-1,-1,-1,-1,-1,-1,-1],"loss_changes":[2.1909702E6,5.424044E5,8.536141E5,1.1334348E5,2.1254662E5,2.3708862E5,3.34702E5,5.1583645E4,7.280391E4,1.16643625E5,1.1834409E5,9.1465125E4,1.2848805E5,5.5882703E4,1.6605317E5,1.1893375E4,2.8271396E4,3.359207E4,2.4728297E4,7.0605625E4,1.918325E4,8.6299734E4,2.8229281E4,2.6087688E4,5.3471875E4,8.0676734E4,1.4988957E4,4.2863844E4,2.0216318E4,7.864936E4,6.699059E4,1.8270934E4,5.639328E3,1.6198301E4,6.506383E3,2.9054482E4,1.2003012E4,8.441266E3,1.1636309E4,5.0540375E4,3.6903305E4,1.2911375E4,2.30935E4,3.3333625E4,3.3175094E4,1.8750312E4,1.5123148E4,1.009775E4,2.2240906E4,3.5413812E4,8.1670723E3,3.6874223E4,6.3610094E4,5.9792734E3,1.096145E4,2.459368E4,1.6158109E4,2.0440684E4,1.5561939E4,2.690424E4,6.0145594E4,8.302884E4,3.1550287E4,0E0,0E0,0E0,0E0,0E0,0E0,0E0,0E0,0E0,0E0,0E0,0E0,0E0,0E0,0E0,0E0,0E0,0E0,0E0,0E0,0E0,0E0,0E0,0E0,0E0,0E0,0E0,0E0,0E0,0E0,0E0,0E0,0E0,0E0,0E0,0E0,0E0,0E0,0E0,0E0,0E0,0E0,0E0,0E0,0E0,0E0,0E0,0E0,0E0,0E0,0E0,0E0,0E0,0E0,0E0,0E0,0E0,0E0,0E0,0E0,0E0,0E0,0E0,0E0],"parents":[2147483647,0,0,1,1,2,2,3,3,4,4,5,5,6,6,7,7,8,8,9,9,10,10,11,11,12,12,13,13,14,14,15,15,16,16,17,17,18,18,19,19,20,20,21,21,22,22,23,23,24,24,25,25,26,26,27,27,28,28,29,29,30,30,31,31,32,32,33,33,34,34,35,35,36,36,37,37,38,38,39,39,40,40,41,41,42,42,43,43,44,44,45,45,46,46,47,47,48,48,49,49,50,50,51,51,52,52,53,53,54,54,55,55,56,56,57,57,58,58,59,59,60,60,61,61,62,62],"right_children":[2,4,6,8,10,12,14,16,18,20,22,24,26,28,30,32,34,36,38,40,42,44,46,48,50,52,54,56,58,60,62,64,66,68,70,72,74,76,78,80,82,84,86,88,90,92,94,96,98,100,102,104,106,108,110,112,114,116,118,120,122,124,126,-1,-1,-1,-1,-1,-1,-1,-1,-1,-1,-1,-1,-1,-1,-1,-1,-1,-1,-1,-1,-1,-1,-1,-1,-1,-1,-1,-1,-1,-1,-1,-1,-1,-1,-1,-1,-1,-1,-1,-1,-1,-1,-1,-1,-1,-1,-1,-1,-1,-1,-1,-1,-1,-1,-1,-1,-1,-1,-1,-1,-1,-1,-1,-1],"split_conditions":[2.3E1,1.52E0,NaN,NaN,2.1E1,NaN,1.39E0,NaN,NaN,NaN,NaN,NaN,1E0,NaN,NaN,1E0,NaN,3.3E6,1E0,1E0,1.5E6,NaN,1.6666666E4,1.28E0,1E0,3.625E6,9.45E6,5E0,3E0,NaN,1.485E7,2.1E1,6.6E-1,1.05E6,1.5765E2,NaN,8E-2,8.1E6,1E-1,NaN,NaN,NaN,NaN,NaN,NaN,NaN,2E0,NaN,NaN,1.35E0,NaN,NaN,NaN,NaN,NaN,4.2E-1,NaN,9.375E3,NaN,NaN,1E0,NaN,NaN,-1.2909612E-1,4.734194E-1,6.9577795E-1,-8.081393E-2,-2.4703863E-1,1.5403786E-1,-8.481993E-1,1.7436038E-1,-5.8518473E-2,-6.134697E-1,4.1368324E-1,3.5029776E-2,-7.1146667E-1,-2.649059E-1,1.4141461E-1,-3.4714636E-1,-5.160345E-1,-8.9503396E-1,3.1828588E-1,-4.4904712E-1,-1.0504656E0,-1.3973761E0,-5.5370694E-1,-1.0727106E0,1.7623036E-3,-3.1984717E-1,-1.05732046E-1,-5.82414E-1,-7.492145E-1,-1.2757581E0,-6.676024E-1,6.977622E-2,9.905422E-1,7.3750776E-1,9.61831E-1,5.5782425E-1,6.0365343E-1,3.868412E-1,-1.3438334E-2,-6.584277E-1,8.650669E-2,-5.364534E-1,5.424884E-1,2.286692E-1,-5.393588E-1,-1.2344068E0,1.8133116E-1,-5.279112E-1,3.8242623E-1,1.0973788E-1,8.944365E-1,4.470692E-1,-2.0714763E-1,8.1617266E-2,7.8714603E-1,1.7681485E-1,5.5163807E-1,6.303044E-2,-1.5741332E-1,-7.33038E-1,-3.9858666E-1,-1.0758706E0,3.993997E-1,-4.4213256E-1],"split_indices":[4,15,1,1,4,12,15,12,12,12,12,1,6,12,1,5,12,20,18,5,20,1,21,15,6,20,20,18,13,12,20,4,15,20,11,12,15,20,15,1,12,12,12,12,12,1,13,12,12,15,12,12,1,12,1,15,12,21,1,12,6,12,12,0,0,0,0,0,0,0,0,0,0,0,0,0,0,0,0,0,0,0,0,0,0,0,0,0,0,0,0,0,0,0,0,0,0,0,0,0,0,0,0,0,0,0,0,0,0,0,0,0,0,0,0,0,0,0,0,0,0,0,0,0,0,0,0],"split_type":[0,0,1,1,0,1,0,1,1,1,1,1,0,1,1,0,1,0,0,0,0,1,0,0,0,0,0,0,0,1,0,0,0,0,0,1,0,0,0,1,1,1,1,1,1,1,0,1,1,0,1,1,1,1,1,0,1,0,1,1,0,1,1,0,0,0,0,0,0,0,0,0,0,0,0,0,0,0,0,0,0,0,0,0,0,0,0,0,0,0,0,0,0,0,0,0,0,0,0,0,0,0,0,0,0,0,0,0,0,0,0,0,0,0,0,0,0,0,0,0,0,0,0,0,0,0,0],"sum_hessian":[4.1048E4,1.4006E4,2.7042E4,4.73E3,9.276E3,1.36E4,1.3442E4,1.793E3,2.937E3,4.426E3,4.85E3,7.954E3,5.646E3,6.1E3,7.342E3,7.03E2,1.09E3,1.716E3,1.221E3,2.797E3,1.629E3,4.079E3,7.71E2,2.811E3,5.143E3,5.359E3,2.87E2,3.455E3,2.645E3,5.86E3,1.482E3,4.09E2,2.94E2,1.014E3,7.6E1,6.44E2,1.072E3,5.81E2,6.4E2,2.376E3,4.21E2,9.86E2,6.43E2,2.123E3,1.956E3,5.13E2,2.58E2,1.333E3,1.478E3,5.019E3,1.24E2,6.66E2,4.693E3,1.09E2,1.78E2,2.343E3,1.112E3,2.302E3,3.43E2,1.711E3,4.149E3,1.201E3,2.81E2,1.1E2,2.99E2,2.79E2,1.5E1,2.01E2,8.13E2,6.6E1,1E1,3.95E2,2.49E2,1.56E2,9.16E2,4.91E2,9E1,9E1,5.5E2,1.097E3,1.279E3,1.63E2,2.58E2,6.14E2,3.72E2,2.46E2,3.97E2,1.176E3,9.47E2,2.81E2,1.675E3,2.38E2,2.75E2,2.01E2,5.7E1,8.08E2,5.25E2,2.88E2,1.19E3,2.471E3,2.548E3,6.3E1,6.1E1,4.29E2,2.37E2,1.611E3,3.082E3,4.9E1,6E1,4.5E1,1.33E2,8.46E2,1.497E3,1.57E2,9.55E2,5.1E2,1.792E3,9.1E1,2.52E2,2.05E2,1.506E3,3.832E3,3.17E2,6.43E2,5.58E2,1.4E2,1.41E2],"tree_param":{"num_deleted":"0","num_feature":"22","num_nodes":"127","size_leaf_vector":"1"}},{"base_weights":[-5.6494918E-2,5.747518E0,-5.6333227E0,1.0199514E1,1.1298306E0,-1.3893738E-1,-1.0880544E1,1.2456598E1,5.6311083E0,-5.4987464E0,3.4522183E0,1.5110099E0,-1.6593002E1,-1.6653992E1,-6.6521897E0,1.660994E1,1.0267222E1,3.063994E0,1.1355756E1,-1.8811353E0,-2.1175987E1,8.36636E0,1.1004558E0,-5.67949E0,4.8608193E0,-6.9126267E0,-2.1887178E1,-1.3212796E1,-2.6363424E1,-4.9150233E0,-2.014781E1,1.83523E1,7.694688E0,4.2690116E-1,1.1176813E1,7.539066E0,-1.1339452E0,1.695607E1,7.225369E0,-6.458058E0,2.0194507E0,-4.696546E0,-2.4534264E1,5.715211E0,1.3194747E1,5.6497507E0,-9.885604E-1,3.4011405E0,-1.2556877E1,9.006235E0,5.902462E-1,-2.01044E0,-1.43297615E1,-1.6275443E0,-2.3117317E1,-1.02427E1,-2.1070852E1,-2.2512177E1,-3.5717422E1,8.474663E-1,-8.059079E0,-1.263987E1,-2.7391056E1,8.669458E-1,6.0412586E-1,-1.6984172E-1,4.0629542E-1,4.6297354E-1,-1.9572915E-1,5.3971386E-1,2.7581903E-1,4.2494044E-1,1.0553226E-1,-2.910912E-1,1.6316308E-1,9.248778E-1,5.7663196E-1,1.084294E-1,3.9609975E-1,4.2332843E-2,-4.814534E-1,3.579715E-1,-1.15464605E-1,-4.1334328E-1,1.159146E-1,-8.0186564E-1,-1.2740206E0,2.731688E-1,-2.7273762E-1,9.2937964E-1,4.573687E-1,7.847923E-2,4.656716E-1,-2.7464032E-1,7.77269E-2,4.2820233E-1,5.396813E-2,-3.962413E-1,-9.331372E-1,5.653352E-1,2.0769085E-1,-4.220885E-1,1.3354395E-1,3.0993477E-1,-3.3419463E-1,1.641014E-1,-6.799632E-1,-6.594266E-1,2.4067608E-1,-8.558454E-1,-1.3651669E0,9.226819E-1,-4.4306567E-1,-4.1516882E-1,-9.792863E-1,1.7458661E-1,-9.4084495E-1,-1.1553701E0,-1.6593412E0,2.3988995E-1,-1.4777401E-1,-6.6224813E-1,-1.5968773E-1,-6.36458E-1,-1.6952044E-1,-5.528322E-1,-1.1623168E0],"categories":[0,2,5,7,8,10,11,12,13,0,2,5,7,8,10,11,12,13,0,19,28,31,32,33,35,37,38,40,43,44,47,0,2,3,4,5,6,7,8,9,10,11,12,13,0,2,3,7,8,15,16,18,19,20,28,31,32,33,35,36,38,39,40,42,43,44,1,3,4,7,8,9,13,14,15,16,18,19,20,22,25,26,31,32,33,34,36,37,38,39,40,42,43,44,46,1,8,19,22,36,42,43,45,47,0,2,5,7,13,16,18,19,20,28,30,31,33,34,35,36,37,38,39,42,43,44,3,4,15,16,19,20,21,23,26,28,32,34,37,39,40,44,6,7,8,9,13,16,17,18,19,20,21,25,26,27,29,30,31,34,35,37,39,40,42,43,45,2,5,6,7,9,10,13,16,17,18,19,20,21,25,26,27,29,32,33,36,37,40,42,43,45,0,1,2,3,4,6,7,8,10,13,14,15,16,18,19,20,21,23,26,28,30,31,32,33,34,35,36,37,38,39,40,41,42,43,44,3,4,1,2,3,4,6,7,8,9,11,12,14,15,16,18,19,20,21,27,29,30,31,32,33,34,35,36,37,39,40,42,43,44,45,46,5,12,13,5,13,4,7,9,15,16,19,20,30,33,34,37,40,42,43,0,6,8,10,14,16,18,19,20,22,23,24,26,28,30,31,32,33,34,35,36,37,38,39,40,43,44,45,47,0,1,3,4,5,6,7,8,11,13,14,15,16,18,19,20,21,23,26,27,28,30,31,32,33,34,35,36,37,38,39,40,41,42,43,44,45,2,3,4,5,6,7,8,9,10,12,13,14,16,17,18,19,20,21,22,24,25,26,27,28,29,30,31,32,33,34,36,37,38,39,40,42,43,44,45,46,1,5,6,13,14,17,22,23,27,30,41,45,3,19,20,31,35,36,42,43,1,10,16,17,24,35,39,42,43,0,1,2,3,4,6,7,8,9,11,12,13,0,1,2,3,4,5,6,7,8,9,10,11,12,13,14,15,16,17,18,19,20,21,23,26,27,28,29,30,31,32,33,34,35,36,37,38,39,40,41,42,43,44,45,15,16,19,21,30,31,33,34,35,37,38,40,42,44,2,3,7,8,14,15,16,18,19,21,25,28,31,32,33,34,36,37,39,40,42,43,44,0,1,2,3,4,5,7,10,12,14,19,28,30,40,8,20,34,43,1,3,4,6,8,9,10,11,12,14,15,17,21,22,23,24,26,27,29,32,40,41,45,46,0,1,2,3,4,5,6,7,8,10,11,28,30,31,33,35,37,41,47,0,2,5,18,19,20,28,33,35,38,4,6,7,8,12,13,15,16,17,18,19,20,25,28,30,31,33,34,36,37,38,39,40,41,42,43,44,2,9,12,19,28,30,32,37,38,40,42,43,47],"categories_nodes":[1,2,3,7,9,10,12,13,15,17,18,23,25,26,27,28,30,31,33,37,39,42,43,44,47,48,49,51,54,55,57,58,59,62],"categories_segments":[0,9,18,31,44,66,95,104,126,142,167,192,227,229,263,266,268,282,311,348,388,400,408,417,429,472,486,509,523,527,551,570,580,607],"categories_sizes":[9,9,13,13,22,29,9,22,16,25,25,35,2,34,3,2,14,29,37,40,12,8,9,12,43,14,23,14,4,24,19,10,27,13],"default_left":[0,0,0,1,1,0,1,1,1,1,1,1,1,1,0,1,1,1,1,1,0,1,0,1,0,1,1,0,1,0,1,1,1,1,0,0,1,1,0,1,0,0,1,1,1,0,0,1,1,1,0,1,0,1,1,1,0,1,1,1,0,1,1,0,0,0,0,0,0,0,0,0,0,0,0,0,0,0,0,0,0,0,0,0,0,0,0,0,0,0,0,0,0,0,0,0,0,0,0,0,0,0,0,0,0,0,0,0,0,0,0,0,0,0,0,0,0,0,0,0,0,0,0,0,0,0,0],"id":3,"left_children":[1,3,5,7,9,11,13,15,17,19,21,23,25,27,29,31,33,35,37,39,41,43,45,47,49,51,53,55,57,59,61,63,65,67,69,71,73,75,77,79,81,83,85,87,89,91,93,95,97,99,101,103,105,107,109,111,113,115,117,119,121,123,125,-1,-1,-1,-1,-1,-1,-1,-1,-1,-1,-1,-1,-1,-1,-1,-1,-1,-1,-1,-1,-1,-1,-1,-1,-1,-1,-1,-1,-1,-1,-1,-1,-1,-1,-1,-1,-1,-1,-1,-1,-1,-1,-1,-1,-1,-1,-1,-1,-1,-1,-1,-1,-1,-1,-1,-1,-1,-1,-1,-1,-1,-1,-1,-1],"loss_changes":[1.3358912E6,4.156945E5,6.068006E5,1.0579625E5,1.5300273E5,2.7941544E5,2.6224425E5,6.17455E4,4.9983164E4,1.460436E5,8.499169E4,2.2544517E5,4.7286844E4,1.5017675E5,1.4537269E5,3.6066875E4,4.0448438E4,4.445944E4,2.3766938E4,3.757813E4,2.6125078E4,3.0082672E4,4.738878E4,1.8601444E5,1.129817E5,1.2165717E4,1.4840156E4,7.749594E4,3.8610562E4,1.0005044E5,3.673125E4,1.92335E4,1.13356E4,2.284079E4,3.8783438E4,1.6644984E4,3.857061E4,5.4045625E3,7.0658516E3,3.9716688E4,3.8089168E4,3.8371367E3,9.942422E3,2.0362926E4,1.4116906E4,3.404628E4,5.7895848E4,1.903121E4,4.793428E4,6.204E4,9.452908E4,1.3043209E4,6.5084277E3,4.952775E3,8.1283125E3,5.982672E4,3.0108594E4,1.8163844E4,6.8976875E3,4.4879848E4,1.2186028E5,9.02707E3,4.6895938E3,0E0,0E0,0E0,0E0,0E0,0E0,0E0,0E0,0E0,0E0,0E0,0E0,0E0,0E0,0E0,0E0,0E0,0E0,0E0,0E0,0E0,0E0,0E0,0E0,0E0,0E0,0E0,0E0,0E0,0E0,0E0,0E0,0E0,0E0,0E0,0E0,0E0,0E0,0E0,0E0,0E0,0E0,0E0,0E0,0E0,0E0,0E0,0E0,0E0,0E0,0E0,0E0,0E0,0E0,0E0,0E0,0E0,0E0,0E0,0E0,0E0,0E0,0E0,0E0],"parents":[2147483647,0,0,1,1,2,2,3,3,4,4,5,5,6,6,7,7,8,8,9,9,10,10,11,11,12,12,13,13,14,14,15,15,16,16,17,17,18,18,19,19,20,20,21,21,22,22,23,23,24,24,25,25,26,26,27,27,28,28,29,29,30,30,31,31,32,32,33,33,34,34,35,35,36,36,37,37,38,38,39,39,40,40,41,41,42,42,43,43,44,44,45,45,46,46,47,47,48,48,49,49,50,50,51,51,52,52,53,53,54,54,55,55,56,56,57,57,58,58,59,59,60,60,61,61,62,62],"right_children":[2,4,6,8,10,12,14,16,18,20,22,24,26,28,30,32,34,36,38,40,42,44,46,48,50,52,54,56,58,60,62,64,66,68,70,72,74,76,78,80,82,84,86,88,90,92,94,96,98,100,102,104,106,108,110,112,114,116,118,120,122,124,126,-1,-1,-1,-1,-1,-1,-1,-1,-1,-1,-1,-1,-1,-1,-1,-1,-1,-1,-1,-1,-1,-1,-1,-1,-1,-1,-1,-1,-1,-1,-1,-1,-1,-1,-1,-1,-1,-1,-1,-1,-1,-1,-1,-1,-1,-1,-1,-1,-1,-1,-1,-1,-1,-1,-1,-1,-1,-1,-1,-1,-1,-1,-1,-1],"split_conditions":[2.12E0,NaN,NaN,NaN,3.4E6,1E0,2.4E6,NaN,5E0,NaN,NaN,1.15E6,NaN,NaN,1E0,NaN,1.1E6,NaN,NaN,1.2E6,5.4E0,5E0,9.475E0,NaN,1.165E1,NaN,NaN,NaN,NaN,8.25E0,NaN,NaN,4.05E6,NaN,1.635E1,9.4E-1,9.5E6,NaN,7E0,NaN,2.325E0,7E0,NaN,NaN,NaN,7.8E6,1.4E7,NaN,NaN,NaN,6.4E6,NaN,7.85E0,1.05E6,NaN,NaN,1.01E0,NaN,NaN,NaN,9E6,5E0,NaN,8.669458E-1,6.0412586E-1,-1.6984172E-1,4.0629542E-1,4.6297354E-1,-1.9572915E-1,5.3971386E-1,2.7581903E-1,4.2494044E-1,1.0553226E-1,-2.910912E-1,1.6316308E-1,9.248778E-1,5.7663196E-1,1.084294E-1,3.9609975E-1,4.2332843E-2,-4.814534E-1,3.579715E-1,-1.15464605E-1,-4.1334328E-1,1.159146E-1,-8.0186564E-1,-1.2740206E0,2.731688E-1,-2.7273762E-1,9.2937964E-1,4.573687E-1,7.847923E-2,4.656716E-1,-2.7464032E-1,7.77269E-2,4.2820233E-1,5.396813E-2,-3.962413E-1,-9.331372E-1,5.653352E-1,2.0769085E-1,-4.220885E-1,1.3354395E-1,3.0993477E-1,-3.3419463E-1,1.641014E-1,-6.799632E-1,-6.594266E-1,2.4067608E-1,-8.558454E-1,-1.3651669E0,9.226819E-1,-4.4306567E-1,-4.1516882E-1,-9.792863E-1,1.7458661E-1,-9.4084495E-1,-1.1553701E0,-1.6593412E0,2.3988995E-1,-1.4777401E-1,-6.6224813E-1,-1.5968773E-1,-6.36458E-1,-1.6952044E-1,-5.528322E-1,-1.1623168E0],"split_indices":[15,1,1,9,20,6,20,1,18,12,12,20,9,12,6,12,20,12,12,20,14,18,14,12,14,1,12,1,1,14,12,9,20,12,14,15,20,12,18,12,14,18,12,9,1,20,20,12,12,12,20,12,14,20,12,12,14,9,12,12,20,19,9,0,0,0,0,0,0,0,0,0,0,0,0,0,0,0,0,0,0,0,0,0,0,0,0,0,0,0,0,0,0,0,0,0,0,0,0,0,0,0,0,0,0,0,0,0,0,0,0,0,0,0,0,0,0,0,0,0,0,0,0,0,0,0,0],"split_type":[0,1,1,1,0,0,0,1,0,1,1,0,1,1,0,1,0,1,1,0,0,0,0,1,0,1,1,1,1,0,1,1,0,1,0,0,0,1,0,1,0,0,1,1,1,0,0,1,1,1,0,1,0,0,1,1,0,1,1,1,0,0,1,0,0,0,0,0,0,0,0,0,0,0,0,0,0,0,0,0,0,0,0,0,0,0,0,0,0,0,0,0,0,0,0,0,0,0,0,0,0,0,0,0,0,0,0,0,0,0,0,0,0,0,0,0,0,0,0,0,0,0,0,0,0,0,0],"sum_hessian":[4.1262E4,2.0219E4,2.1043E4,1.0291E4,9.928E3,1.0282E4,1.0761E4,6.882E3,3.409E3,2.574E3,7.354E3,9.349E3,9.33E2,4.543E3,6.218E3,2.364E3,4.518E3,2.359E3,1.05E3,2.096E3,4.78E2,2.376E3,4.978E3,2.97E3,6.379E3,3.34E2,5.99E2,3.363E3,1.18E3,5.515E3,7.03E2,1.973E3,3.91E2,3.83E2,4.135E3,1.14E3,1.219E3,4.39E2,6.11E2,9.63E2,1.133E3,8.3E1,3.95E2,1.541E3,8.35E2,1.564E3,3.414E3,1.281E3,1.689E3,3.234E3,3.145E3,2.05E2,1.29E2,3.5E1,5.64E2,2.449E3,9.14E2,8.48E2,3.32E2,1.948E3,3.567E3,3.52E2,3.51E2,1.018E3,9.55E2,6.4E1,3.27E2,1.22E2,2.61E2,2.748E3,1.387E3,7.07E2,4.33E2,5.6E2,6.59E2,1.25E2,3.14E2,2.25E2,3.86E2,4.07E2,5.56E2,4.7E2,6.63E2,4.7E1,3.6E1,2.48E2,1.47E2,1.424E3,1.17E2,1.25E2,7.1E2,9.63E2,6.01E2,1.138E3,2.276E3,2.81E2,1E3,1.347E3,3.42E2,1.407E3,1.827E3,6.18E2,2.527E3,8E1,1.25E2,1.5E1,1.14E2,1E1,2.5E1,4.9E2,7.4E1,4.9E1,2.4E3,2.12E2,7.02E2,2.3E1,8.25E2,1.56E2,1.76E2,9.14E2,1.034E3,1.173E3,2.394E3,2.54E2,9.8E1,3.7E1,3.14E2],"tree_param":{"num_deleted":"0","num_feature":"22","num_nodes":"127","size_leaf_vector":"1"}},{"base_weights":[-4.7438566E-2,-9.643004E0,4.9854755E0,-1.5090513E1,-5.283731E0,8.933085E0,-8.130707E-1,-1.8546106E1,-3.4570987E0,-2.9622989E0,-1.6052032E1,9.70386E0,-1.1532762E1,-3.7339602E0,3.6525402E0,-1.5353493E1,-2.596985E1,2.2211075E0,-1.1176984E1,6.93209E-1,-8.432521E0,-2.193969E1,-7.835197E0,7.7121E0,1.5066903E1,-1.362286E1,3.1552126E0,-2.0011963E-1,-7.4951315E0,1.0791129E1,1.9104414E0,-1.8837143E1,-1.196324E1,-2.8439018E1,-1.970156E1,9.874546E0,-2.3553367E0,-1.4999326E0,-1.5224845E1,-1.0340437E0,8.601932E0,-1.2680836E1,-4.305348E0,-2.4538698E1,-9.461076E0,3.6009997E-1,-1.1069667E1,1.0892106E1,4.3493996E0,1.7500826E1,1.0046849E1,-6.2886324E0,-1.7717836E1,-1.2107222E0,8.179294E-1,-5.160074E0,2.0129123E0,-1.3134698E1,-3.037954E0,9.533913E0,1.1768938E0,6.209724E0,-8.7869877E-1,-8.142315E-1,-4.6928E-1,-4.338617E-1,-9.403614E-1,-1.0606304E0,-1.5083815E0,-5.9308773E-1,-1.2368597E0,6.476084E-1,1.9934939E-1,6.957099E-2,-1.9570184E-1,2.2721398E-1,-3.9076078E-1,-1.0272398E0,-4.213658E-1,-1.2463162E-1,2.1062458E-1,5.222013E-1,2.0570391E-1,-4.067805E-1,-8.401387E-1,2.6513698E-2,-3.2563195E-1,-6.923486E-1,-1.1258801E0,-2.0400268E-1,-6.261637E-1,-2.613952E-1,2.6915032E-1,-5.7410425E-1,-7.2607026E-2,7.0350266E-1,3.7658665E-1,2.8347665E-1,1.3610233E-2,9.093606E-1,6.0054314E-1,4.001113E-2,5.005116E-1,-5.938046E-1,-1.0294705E-1,-1.0518644E0,-5.2850276E-1,5.284915E-1,-2.7135766E-1,-2.2481265E-2,-6.2704754E-1,2.4164295E-1,-1.3144745E-1,-3.3429363E-1,-1.0391175E0,-6.9426075E-2,-7.66961E-1,3.3178356E-1,8.5981774E-1,3.4187618E-1,2.6676532E-2,-3.1631866E-1,8.962405E-2],"categories":[0,2,15,16,18,19,20,21,31,33,34,35,36,37,43,0,4,7,9,13,16,17,18,19,20,23,26,30,31,33,34,35,38,43,44,1,3,4,5,7,8,10,13,16,18,19,24,31,32,33,34,35,36,38,41,42,43,44,45,0,2,3,6,7,8,9,16,17,18,19,20,21,31,32,33,34,35,37,38,39,40,43,44,1,2,4,6,7,8,9,12,13,14,15,16,17,19,21,22,23,26,27,28,30,31,32,33,34,36,37,39,40,41,42,43,44,0,3,0,2,3,15,16,19,31,36,43,0,2,3,2,4,7,14,18,19,20,28,31,32,34,35,40,43,44,2,18,19,33,34,35,19,20,43,44,0,1,2,3,4,5,6,7,8,10,11,13,14,15,16,18,19,20,21,23,24,25,26,27,28,30,31,32,33,34,35,36,38,39,40,41,42,43,44,45,6,12,14,28,30,37,39,40,0,2,3,6,7,8,9,10,11,12,13,16,24,31,32,34,38,42,43,44,0,1,2,7,11,13,14,15,16,18,19,20,21,23,25,27,28,29,31,32,33,34,35,36,37,39,40,42,43,44,45,46,2,0,2,4,6,7,9,13,14,24,26,32,38,40,42,44,0,2,3,0,2,1,2,3,4,6,7,8,9,14,15,16,17,18,19,20,21,23,27,28,31,32,33,34,35,36,37,38,39,40,42,43,44,45,6,8,15,16,19,20,31,32,33,34,35,36,37,38,40,41,43,44,1,3,6,7,8,10,13,14,15,16,17,18,19,21,22,25,26,27,28,30,31,32,33,34,37,38,39,40,41,42,43,44,45,0,1,3,4,5,6,7,8,9,10,11,12,13,14,15,16,19,32,40,45,2,0,2,3,4,5,7,10,11,13,16,17,18,19,20,21,22,23,24,25,29,31,32,33,34,35,38,42,43,44,45,46],"categories_nodes":[2,4,7,8,9,13,14,17,18,22,23,25,32,33,34,35,36,37,40,41,42,43,44,47,48,49,53,55,61],"categories_segments":[0,2,15,35,59,61,83,116,118,121,127,130,145,146,151,155,195,203,223,255,256,271,274,276,309,327,360,380,381],"categories_sizes":[2,13,20,24,2,22,33,2,3,6,3,15,1,5,4,40,8,20,32,1,15,3,2,33,18,33,20,1,31],"default_left":[1,1,1,0,1,0,1,1,1,1,1,1,1,1,1,0,1,1,0,0,1,1,1,1,0,1,0,1,1,1,0,1,1,1,1,1,1,1,1,1,1,1,1,1,1,0,0,1,1,1,0,1,0,1,0,1,0,0,0,0,0,1,0,0,0,0,0,0,0,0,0,0,0,0,0,0,0,0,0,0,0,0,0,0,0,0,0,0,0,0,0,0,0,0,0,0,0,0,0,0,0,0,0,0,0,0,0,0,0,0,0,0,0,0,0,0,0,0,0,0,0,0,0],"id":4,"left_children":[1,3,5,7,9,11,13,15,17,19,21,23,25,27,29,31,33,35,37,39,41,43,45,47,49,51,53,55,57,59,61,63,65,67,69,71,73,75,77,79,81,83,85,87,89,91,93,95,97,99,101,103,105,107,-1,109,111,113,115,117,-1,119,121,-1,-1,-1,-1,-1,-1,-1,-1,-1,-1,-1,-1,-1,-1,-1,-1,-1,-1,-1,-1,-1,-1,-1,-1,-1,-1,-1,-1,-1,-1,-1,-1,-1,-1,-1,-1,-1,-1,-1,-1,-1,-1,-1,-1,-1,-1,-1,-1,-1,-1,-1,-1,-1,-1,-1,-1,-1,-1,-1,-1],"loss_changes":[1.9902819E6,3.3629238E5,6.188405E5,2.5291962E5,1.9682655E5,2.5427575E5,1.4294739E5,1.1305775E5,6.3650145E4,1.2985384E5,6.669469E4,1.6499762E5,1.8215172E4,8.804018E4,5.378239E4,3.90925E4,1.9639125E4,2.951023E4,2.3959484E4,5.3272805E4,4.5314734E4,2.5107531E4,1.5696539E4,1.20743875E5,5.0325188E4,1.4856109E4,5.8854756E3,3.7605816E4,8.0447484E4,1.814154E4,4.1882254E4,1.46515625E4,2.2863016E4,1.512325E4,2.1108703E4,9.158908E3,5.410054E3,1.1158237E4,1.9818727E4,4.1083836E4,1.0258629E4,2.6039812E4,2.4743299E4,1.4007531E4,3.5292861E3,7.6159395E3,1.21925E4,5.8736938E4,5.8897703E4,3.5486812E4,2.9182953E4,5.833517E3,1.0868492E4,5.624027E3,0E0,5.034132E4,4.9587195E4,8.5450375E4,3.766968E4,1.1560703E4,0E0,1.7124305E4,4.5734164E4,0E0,0E0,0E0,0E0,0E0,0E0,0E0,0E0,0E0,0E0,0E0,0E0,0E0,0E0,0E0,0E0,0E0,0E0,0E0,0E0,0E0,0E0,0E0,0E0,0E0,0E0,0E0,0E0,0E0,0E0,0E0,0E0,0E0,0E0,0E0,0E0,0E0,0E0,0E0,0E0,0E0,0E0,0E0,0E0,0E0,0E0,0E0,0E0,0E0,0E0,0E0,0E0,0E0,0E0,0E0,0E0,0E0,0E0,0E0,0E0],"parents":[2147483647,0,0,1,1,2,2,3,3,4,4,5,5,6,6,7,7,8,8,9,9,10,10,11,11,12,12,13,13,14,14,15,15,16,16,17,17,18,18,19,19,20,20,21,21,22,22,23,23,24,24,25,25,26,26,27,27,28,28,29,29,30,30,31,31,32,32,33,33,34,34,35,35,36,36,37,37,38,38,39,39,40,40,41,41,42,42,43,43,44,44,45,45,46,46,47,47,48,48,49,49,50,50,51,51,52,52,53,53,55,55,56,56,57,57,58,58,59,59,61,61,62,62],"right_children":[2,4,6,8,10,12,14,16,18,20,22,24,26,28,30,32,34,36,38,40,42,44,46,48,50,52,54,56,58,60,62,64,66,68,70,72,74,76,78,80,82,84,86,88,90,92,94,96,98,100,102,104,106,108,-1,110,112,114,116,118,-1,120,122,-1,-1,-1,-1,-1,-1,-1,-1,-1,-1,-1,-1,-1,-1,-1,-1,-1,-1,-1,-1,-1,-1,-1,-1,-1,-1,-1,-1,-1,-1,-1,-1,-1,-1,-1,-1,-1,-1,-1,-1,-1,-1,-1,-1,-1,-1,-1,-1,-1,-1,-1,-1,-1,-1,-1,-1,-1,-1,-1,-1],"split_conditions":[2.3E1,2.1E1,NaN,1E0,NaN,1E0,4.34E1,NaN,NaN,NaN,3.5E-1,7.621E1,8.03E1,NaN,NaN,2E1,2E-1,NaN,NaN,1E0,3.11E0,1.321E1,NaN,NaN,2.34E1,NaN,6.44E1,2.4193547E3,3E-1,1.3636364E5,1.04E1,3.128E1,NaN,NaN,NaN,NaN,NaN,NaN,5E-2,6.379E1,NaN,NaN,NaN,NaN,NaN,1.415E1,1.5765E2,NaN,NaN,NaN,6.25E-1,7.6923076E3,1.2962963E4,NaN,8.179294E-1,NaN,9.25E0,1.1275E1,1E0,9.741E1,1.1768938E0,NaN,5.75E-1,-8.142315E-1,-4.6928E-1,-4.338617E-1,-9.403614E-1,-1.0606304E0,-1.5083815E0,-5.9308773E-1,-1.2368597E0,6.476084E-1,1.9934939E-1,6.957099E-2,-1.9570184E-1,2.2721398E-1,-3.9076078E-1,-1.0272398E0,-4.213658E-1,-1.2463162E-1,2.1062458E-1,5.222013E-1,2.0570391E-1,-4.067805E-1,-8.401387E-1,2.6513698E-2,-3.2563195E-1,-6.923486E-1,-1.1258801E0,-2.0400268E-1,-6.261637E-1,-2.613952E-1,2.6915032E-1,-5.7410425E-1,-7.2607026E-2,7.0350266E-1,3.7658665E-1,2.8347665E-1,1.3610233E-2,9.093606E-1,6.0054314E-1,4.001113E-2,5.005116E-1,-5.938046E-1,-1.0294705E-1,-1.0518644E0,-5.2850276E-1,5.284915E-1,-2.7135766E-1,-2.2481265E-2,-6.2704754E-1,2.4164295E-1,-1.3144745E-1,-3.3429363E-1,-1.0391175E0,-6.9426075E-2,-7.66961E-1,3.3178356E-1,8.5981774E-1,3.4187618E-1,2.6676532E-2,-3.1631866E-1,8.962405E-2],"split_indices":[4,4,2,5,12,6,16,12,12,2,7,16,16,12,12,4,7,2,2,5,16,16,12,2,14,12,11,21,7,21,14,16,2,12,12,12,12,12,7,16,12,2,12,2,2,11,11,12,12,12,7,21,21,12,0,2,14,14,6,16,0,12,7,0,0,0,0,0,0,0,0,0,0,0,0,0,0,0,0,0,0,0,0,0,0,0,0,0,0,0,0,0,0,0,0,0,0,0,0,0,0,0,0,0,0,0,0,0,0,0,0,0,0,0,0,0,0,0,0,0,0,0,0],"split_type":[0,0,1,0,1,0,0,1,1,1,0,0,0,1,1,0,0,1,1,0,0,0,1,1,0,1,0,0,0,0,0,0,1,1,1,1,1,1,0,0,1,1,1,1,1,0,0,1,1,1,0,0,0,1,0,1,0,0,0,0,0,1,0,0,0,0,0,0,0,0,0,0,0,0,0,0,0,0,0,0,0,0,0,0,0,0,0,0,0,0,0,0,0,0,0,0,0,0,0,0,0,0,0,0,0,0,0,0,0,0,0,0,0,0,0,0,0,0,0,0,0,0,0],"sum_hessian":[4.1202E4,1.4174E4,2.7028E4,6.295E3,7.879E3,1.6079E4,1.0949E4,4.851E3,1.444E3,6.487E3,1.392E3,1.5498E4,5.81E2,6.62E3,4.329E3,3.403E3,1.448E3,8.34E2,6.1E2,3.891E3,2.596E3,8.06E2,5.86E2,1.131E4,4.188E3,5.09E2,7.2E1,3.416E3,3.204E3,8.44E2,3.485E3,1.667E3,1.736E3,1.026E3,4.22E2,3.1E2,5.24E2,1.82E2,4.28E2,3.197E3,6.94E2,1.274E3,1.322E3,6.63E2,1.43E2,1.67E2,4.19E2,5.807E3,5.503E3,2.812E3,1.376E3,1.87E2,3.22E2,6.1E1,1.1E1,1.052E3,2.364E3,1.41E3,1.794E3,7.97E2,4.7E1,1.369E3,2.116E3,1.403E3,2.64E2,1.575E3,1.61E2,8.39E2,1.87E2,2.97E2,1.25E2,1.33E2,1.77E2,1.99E2,3.25E2,9.8E1,8.4E1,1.3E2,2.98E2,2.409E3,7.88E2,3.05E2,3.89E2,9.72E2,3.02E2,5.71E2,7.51E2,2.15E2,4.48E2,8.8E1,5.5E1,8E1,8.7E1,3.11E2,1.08E2,1.119E3,4.688E3,3.304E3,2.199E3,9.58E2,1.854E3,2.84E2,1.092E3,5.3E1,1.34E2,1.07E2,2.15E2,1.5E1,4.6E1,7.32E2,3.2E2,1.348E3,1.016E3,1.023E3,3.87E2,1.662E3,1.32E2,7.24E2,7.3E1,9.72E2,3.97E2,6.5E2,1.466E3],"tree_param":{"num_deleted":"0","num_feature":"22","num_nodes":"123","size_leaf_vector":"1"}},{"base_weights":[4.7287483E-2,-9.211326E0,4.84355E0,-1.360659E0,-1.3025891E1,9.366611E0,1.4441304E0,3.6154242E0,-4.71708E0,-2.0867237E1,-1.0350348E1,7.0866723E0,1.5858886E1,2.4229255E0,-1.4825248E1,2.4344127E0,1.3804565E1,-7.8429356E0,3.8185712E-2,-2.263264E1,-1.4304863E1,-8.495314E0,-2.0144604E1,1.0525883E1,4.5936627E0,1.2933046E1,1.9099504E1,4.3946034E-1,8.695996E0,-6.6608386E0,-1.8841835E1,-9.8541933E-1,6.30847E0,1.9509733E1,8.08439E0,-1.400911E1,-5.094268E0,6.3510227E0,-2.001659E0,-3.3260162E1,-2.1713E1,4.9892E0,-1.5578459E1,-1.0038719E1,-1.64692E0,-9.7087555E0,-2.4364435E1,1.3002414E1,6.8031464E0,-5.8385324E0,6.2936473E0,1.6156185E1,9.949355E0,2.3331915E1,1.541572E1,2.9974918E0,-2.8762636E0,1.04381275E1,-5.2203614E-1,8.692432E0,-9.293441E0,-2.9169039E1,-1.6435995E1,-3.6771142E-1,9.6576646E-2,4.0700653E-1,1.078603E-1,5.863891E-1,1.1246669E0,-1.5197049E-1,4.88286E-1,-2.0974968E-1,-6.8232495E-1,-2.8716895E-1,7.7080235E-2,3.555762E-1,-2.0947404E-1,1.3297652E-1,-2.4175355E-1,-1.3598404E0,-2.2794516E-1,-9.168221E-1,-5.6947196E-1,4.7023556E-1,-2.3454751E-1,-6.7374456E-1,8.389466E-2,-2.685384E-1,-5.756792E-1,5.8354698E-2,-5.158229E-1,4.506395E-1,-4.3134508E-1,-1.0797368E0,-6.428177E-1,7.151361E-1,4.3605378E-1,3.903487E-1,2.4020366E-2,1.0241155E-1,-4.2196807E-1,1.2251911E-1,3.3866432E-1,7.87807E-1,4.4076854E-1,6.624167E-1,3.3756858E-1,9.621605E-1,4.782548E-1,5.1135695E-1,7.902022E-1,7.083724E-2,3.752581E-1,-4.2139038E-1,2.3089183E-2,4.9523148E-1,1.8805343E-1,9.7861074E-2,-5.1363075E-1,6.9085413E-1,-4.1279547E-2,-6.220284E-1,-1.084504E-1,-1.2277299E0,-2.8784946E-1,-9.728289E-1,-5.7561E-1],"categories":[0,2,3,4,8,13,14,15,17,18,19,23,24,31,32,33,34,35,37,38,39,42,43,44,45,47,2,19,28,30,35,37,38,40,43,44,45,47,0,1,2,3,4,5,6,7,8,10,11,13,14,15,16,17,18,19,20,21,23,24,26,27,28,29,30,31,32,33,34,35,36,37,38,39,40,42,43,44,45,47,3,8,9,10,19,30,31,34,36,40,42,43,47,0,3,7,10,14,15,16,17,18,19,21,24,25,26,27,28,31,32,33,35,36,37,38,39,40,42,44,46,47,0,1,3,4,6,8,9,10,13,16,17,18,19,20,21,22,23,26,27,28,29,30,31,32,33,34,36,37,38,39,40,41,45,0,1,2,3,4,5,6,7,8,9,10,11,12,14,16,20,29,31,32,33,42,35,44,45,47,3,4,13,14,15,23,31,32,33,37,38,42,43,44,0,1,2,3,4,5,6,7,8,9,10,11,12,14,15,16,17,18,19,20,21,22,23,27,28,29,32,33,37,38,39,41,44,45,0,4,5,6,8,9,14,15,16,18,19,20,21,24,25,27,28,29,31,32,33,34,35,37,39,40,43,45,47,3,6,13,15,16,18,19,20,21,23,29,31,32,34,35,36,37,38,40,42,43,47,0,1,6,7,8,9,15,16,18,19,20,21,35,37,39,42,43,44,45,47,1,2,5,6,15,18,21,23,25,26,28,34,35,37,38,40,41,42,44,46,3,6,8,12,17,24,33,34,36,38,40],"categories_nodes":[3,14,16,22,25,26,29,37,38,45,47,48,49,57,58],"categories_segments":[0,26,38,80,93,122,155,176,180,194,228,257,279,299,319],"categories_sizes":[26,12,42,13,29,33,21,4,14,34,29,22,20,20,11],"default_left":[1,0,0,1,1,1,0,1,1,1,0,0,0,1,1,0,1,1,0,0,0,1,1,0,1,1,1,0,1,1,0,0,0,0,0,0,0,1,1,0,0,1,1,0,1,1,1,1,1,1,0,0,0,0,0,1,1,1,1,1,1,0,0,0,0,0,0,0,0,0,0,0,0,0,0,0,0,0,0,0,0,0,0,0,0,0,0,0,0,0,0,0,0,0,0,0,0,0,0,0,0,0,0,0,0,0,0,0,0,0,0,0,0,0,0,0,0,0,0,0,0,0,0,0,0,0,0],"id":5,"left_children":[1,3,5,7,9,11,13,15,17,19,21,23,25,27,29,31,33,35,37,39,41,43,45,47,49,51,53,55,57,59,61,63,65,67,69,71,73,75,77,79,81,83,85,87,89,91,93,95,97,99,101,103,105,107,109,111,113,115,117,119,121,123,125,-1,-1,-1,-1,-1,-1,-1,-1,-1,-1,-1,-1,-1,-1,-1,-1,-1,-1,-1,-1,-1,-1,-1,-1,-1,-1,-1,-1,-1,-1,-1,-1,-1,-1,-1,-1,-1,-1,-1,-1,-1,-1,-1,-1,-1,-1,-1,-1,-1,-1,-1,-1,-1,-1,-1,-1,-1,-1,-1,-1,-1,-1,-1,-1],"loss_changes":[1.8227158E6,4.19363E5,4.156673E5,7.668097E4,1.9664512E5,1.7113306E5,2.4608752E5,2.2077695E4,4.0752285E4,2.6067812E4,1.2698681E5,7.34365E4,2.728175E4,1.8127022E5,2.8106516E4,2.2082117E4,5.4169844E3,2.765732E4,1.4129822E4,1.4679E4,1.3201648E4,6.2542562E4,4.7973125E4,3.280175E4,8.871514E4,1.4537906E4,2.0271281E4,9.3986836E4,5.624375E4,1.2408975E4,1.2091953E4,2.4436768E4,1.0550178E4,1.7653086E3,5.1621016E3,1.2399492E4,1.6303959E4,7.8004443E3,1.7567332E4,5.25875E2,1.13135625E4,2.92661E3,9.656867E3,6.853578E4,3.77688E4,7.2425137E3,1.36096875E4,2.1453656E4,2.5714898E4,2.7200652E4,2.9101453E4,1.2227516E4,7.9574375E3,2.1314062E3,7.565578E3,4.8862773E4,1.2568964E5,3.0645156E4,2.0293459E4,3.858684E3,1.009665E4,1.6624531E3,6.3823438E3,0E0,0E0,0E0,0E0,0E0,0E0,0E0,0E0,0E0,0E0,0E0,0E0,0E0,0E0,0E0,0E0,0E0,0E0,0E0,0E0,0E0,0E0,0E0,0E0,0E0,0E0,0E0,0E0,0E0,0E0,0E0,0E0,0E0,0E0,0E0,0E0,0E0,0E0,0E0,0E0,0E0,0E0,0E0,0E0,0E0,0E0,0E0,0E0,0E0,0E0,0E0,0E0,0E0,0E0,0E0,0E0,0E0,0E0,0E0,0E0,0E0,0E0,0E0,0E0],"parents":[2147483647,0,0,1,1,2,2,3,3,4,4,5,5,6,6,7,7,8,8,9,9,10,10,11,11,12,12,13,13,14,14,15,15,16,16,17,17,18,18,19,19,20,20,21,21,22,22,23,23,24,24,25,25,26,26,27,27,28,28,29,29,30,30,31,31,32,32,33,33,34,34,35,35,36,36,37,37,38,38,39,39,40,40,41,41,42,42,43,43,44,44,45,45,46,46,47,47,48,48,49,49,50,50,51,51,52,52,53,53,54,54,55,55,56,56,57,57,58,58,59,59,60,60,61,61,62,62],"right_children":[2,4,6,8,10,12,14,16,18,20,22,24,26,28,30,32,34,36,38,40,42,44,46,48,50,52,54,56,58,60,62,64,66,68,70,72,74,76,78,80,82,84,86,88,90,92,94,96,98,100,102,104,106,108,110,112,114,116,118,120,122,124,126,-1,-1,-1,-1,-1,-1,-1,-1,-1,-1,-1,-1,-1,-1,-1,-1,-1,-1,-1,-1,-1,-1,-1,-1,-1,-1,-1,-1,-1,-1,-1,-1,-1,-1,-1,-1,-1,-1,-1,-1,-1,-1,-1,-1,-1,-1,-1,-1,-1,-1,-1,-1,-1,-1,-1,-1,-1,-1,-1,-1,-1,-1,-1,-1],"split_conditions":[2.3E1,1.38E0,1.23E0,NaN,2E1,7.019E1,1E0,7.727E1,2.58E1,2.59E0,1E0,7.675E0,8.735E1,7.799E1,NaN,1E0,NaN,1.05E6,1.7E-1,1.8E1,1.06E0,6.343E1,NaN,6.5E-1,6.975E6,NaN,NaN,9.475E0,4.08E0,NaN,5.2631577E3,2.1E1,1.7E-1,9.525E1,2.1E1,1.22E0,3E0,NaN,NaN,4E0,1E0,7.5E-2,1.1E8,7.525E0,5.32E0,NaN,2.176E1,NaN,NaN,NaN,4.111E1,1.3425E1,2.975E0,1.137E2,2.9E1,8.4E6,8.1E6,NaN,NaN,2.31E0,4.294E1,2.03E2,2.767E1,-3.6771142E-1,9.6576646E-2,4.0700653E-1,1.078603E-1,5.863891E-1,1.1246669E0,-1.5197049E-1,4.88286E-1,-2.0974968E-1,-6.8232495E-1,-2.8716895E-1,7.7080235E-2,3.555762E-1,-2.0947404E-1,1.3297652E-1,-2.4175355E-1,-1.3598404E0,-2.2794516E-1,-9.168221E-1,-5.6947196E-1,4.7023556E-1,-2.3454751E-1,-6.7374456E-1,8.389466E-2,-2.685384E-1,-5.756792E-1,5.8354698E-2,-5.158229E-1,4.506395E-1,-4.3134508E-1,-1.0797368E0,-6.428177E-1,7.151361E-1,4.3605378E-1,3.903487E-1,2.4020366E-2,1.0241155E-1,-4.2196807E-1,1.2251911E-1,3.3866432E-1,7.87807E-1,4.4076854E-1,6.624167E-1,3.3756858E-1,9.621605E-1,4.782548E-1,5.1135695E-1,7.902022E-1,7.083724E-2,3.752581E-1,-4.2139038E-1,2.3089183E-2,4.9523148E-1,1.8805343E-1,9.7861074E-2,-5.1363075E-1,6.9085413E-1,-4.1279547E-2,-6.220284E-1,-1.084504E-1,-1.2277299E0,-2.8784946E-1,-9.728289E-1,-5.7561E-1],"split_indices":[4,15,15,9,4,16,6,16,16,16,6,14,16,16,9,5,9,20,15,4,14,16,9,15,20,9,9,14,15,9,21,4,15,16,4,14,13,9,9,13,5,7,20,14,15,9,16,9,9,9,16,14,14,14,4,20,20,9,9,15,16,0,16,0,0,0,0,0,0,0,0,0,0,0,0,0,0,0,0,0,0,0,0,0,0,0,0,0,0,0,0,0,0,0,0,0,0,0,0,0,0,0,0,0,0,0,0,0,0,0,0,0,0,0,0,0,0,0,0,0,0,0,0,0,0,0,0],"split_type":[0,0,0,1,0,0,0,0,0,0,0,0,0,0,1,0,1,0,0,0,0,0,1,0,0,1,1,0,0,1,0,0,0,0,0,0,0,1,1,0,0,0,0,0,0,1,0,1,1,1,0,0,0,0,0,0,0,1,1,0,0,0,0,0,0,0,0,0,0,0,0,0,0,0,0,0,0,0,0,0,0,0,0,0,0,0,0,0,0,0,0,0,0,0,0,0,0,0,0,0,0,0,0,0,0,0,0,0,0,0,0,0,0,0,0,0,0,0,0,0,0,0,0,0,0,0,0],"sum_hessian":[4.1036E4,1.4002E4,2.7034E4,4.581E3,9.421E3,1.1596E4,1.5438E4,1.845E3,2.736E3,2.388E3,7.033E3,8.59E3,3.006E3,1.4566E4,8.72E2,1.659E3,1.86E2,1.649E3,1.087E3,1.872E3,5.16E2,5.921E3,1.112E3,3.603E3,4.987E3,1.593E3,1.413E3,1.1071E4,3.495E3,2.92E2,5.8E2,8.83E2,7.76E2,8.7E1,9.9E1,5.02E2,1.147E3,2.63E2,8.24E2,1.35E2,1.737E3,3.1E1,4.85E2,4.83E3,1.091E3,3.25E2,7.87E2,2.156E3,1.447E3,6.97E2,4.29E3,7.55E2,8.38E2,6.45E2,7.68E2,6.25E3,4.821E3,2.939E3,5.56E2,4.1E1,2.51E2,9.9E1,4.81E2,2.57E2,6.26E2,3.77E2,3.99E2,6.3E1,2.4E1,2.5E1,7.4E1,1.27E2,3.75E2,8.91E2,2.56E2,2.18E2,4.5E1,3.54E2,4.7E2,1.32E2,3E0,1.531E3,2.06E2,1.9E1,1.2E1,4.57E2,2.8E1,2.681E3,2.149E3,8.57E2,2.34E2,1.2E1,3.13E2,6.07E2,1.8E2,6.79E2,1.477E3,9.89E2,4.58E2,2.48E2,4.49E2,1.679E3,2.611E3,4.53E2,3.02E2,1.57E2,6.81E2,6.14E2,3.1E1,4.73E2,2.95E2,5.223E3,1.027E3,1.508E3,3.313E3,2.232E3,7.07E2,4.51E2,1.05E2,2E1,2.1E1,1.27E2,1.24E2,9.2E1,7E0,9.6E1,3.85E2],"tree_param":{"num_deleted":"0","num_feature":"22","num_nodes":"127","size_leaf_vector":"1"}},{"base_weights":[-7.0595115E-2,-1.1267081E1,3.5425313E0,-4.476077E0,-1.5193424E1,8.301775E0,-1.2548376E0,6.082093E-1,-7.9004207E0,-1.3543937E1,-2.6106085E1,3.7866385E0,1.1042915E1,-3.458979E0,4.476947E0,5.609374E0,-2.4258025E0,-3.470492E0,-1.0402614E1,-1.8759422E1,-1.0505386E1,-2.8071363E1,-5.8655014E0,7.925836E0,3.4626994E-1,1.5282974E1,8.670746E0,4.3550012E-1,-6.7458267E0,7.8687587E0,1.7861172E0,9.400135E0,-2.1145003E0,-6.6491404E0,3.3747324E-1,-2.2646828E0,-1.7476633E1,-1.2362413E1,-4.811159E0,-1.4212887E1,-2.0964706E1,-5.472279E0,-1.4577913E1,-2.8632277E1,-1.5478567E0,2.4199984E0,-1.8703127E1,1.3263743E1,4.2619004E0,-8.0134535E0,2.8231802E0,1.8608488E1,1.2015049E1,1.107274E1,4.4877295E0,3.0208406E0,-4.254075E0,-4.231859E0,-1.6442644E1,6.624334E0,1.6421343E1,-6.441437E0,4.9380655E0,6.333193E-1,2.3200978E-1,-2.0845218E-1,5.7777953E-1,1.473225E-1,-3.5360026E-1,8.027325E-2,-4.224944E-1,-1.3519219E-1,3.4688348E-1,4.00076E-2,-9.243298E-1,-8.233182E-1,-4.5280617E-1,-1.11050375E-1,-5.417921E-1,-8.4754175E-1,-4.6687216E-1,-8.938977E-1,-5.664379E-1,-2.549713E-2,-4.131207E-1,-6.41276E-1,-9.35842E-2,-8.042498E-1,-1.2166388E0,3.6517546E-1,-4.0971524E-1,-4.5373625E-1,3.347634E-1,5.5514485E-2,-9.1779387E-1,3.9351565E-1,6.854538E-1,5.9465047E-2,2.9210424E-1,3.3464876E-1,-4.4236416E-1,2.5970888E-1,1.6365893E-2,8.075685E-1,4.85838E-1,6.4578474E-1,3.338731E-1,6.1695576E-1,3.1875783E-1,-1.403119E-1,2.5560033E-1,-1.6980527E-1,1.8484804E-1,-6.2323874E-1,-5.105105E-2,-7.2657154E-3,-2.4856724E-1,-7.514366E-1,5.8957297E-2,4.875577E-1,2.1230374E-1,1.527916E-1,9.203377E-1,7.4296705E-2,-4.189524E-1,3.4490567E-1,1.1132354E-2],"categories":[0,3,4,17,23,26,29,31,33,35,36,37,38,39,41,45,47,0,2,5,7,8,10,11,12,13,0,2,3,5,8,10,11,12,5,10,13,0,2,3,4,7,8,10,13,14,15,16,17,19,20,23,24,26,28,29,30,31,32,33,34,35,36,37,38,39,41,42,43,45,47,1,8,11,14,18,19,20,24,27,28,30,32,34,42,44,0,2,3,4,5,6,7,8,9,10,11,12,13,1,13,15,19,23,24,26,33,34,35,37,39,43,44,47,0,2,3,7,8,9,11,0,3,7,10,18,19,20,21,22,23,24,25,32,34,35,37,38,40,43,44,47,2,3,6,16,17,18,20,21,22,26,31,34,35,37,38,40,43,45,47,5,12,0,2,4,8,11,12,2,0,3,4,5,6,8,10,12,14,15,16,18,19,21,23,25,26,27,28,29,31,32,33,34,35,36,37,38,43,45,47,10,16,18,19,21,29,30,31,32,33,35,37,38,39,40,41,43,44,47,0,1,3,4,6,7,10,11,13,14,15,16,17,19,20,21,22,24,26,29,30,32,33,34,35,37,39,40,41,42,44,45,46,47,1,9,14,15,16,18,19,22,24,28,33,35,37,38,39,40,41,44,45,47],"categories_nodes":[1,2,3,4,7,8,12,13,19,23,25,28,41,45,49,53,59,61],"categories_segments":[0,17,26,34,37,71,86,99,114,121,142,161,163,169,170,201,220,254],"categories_sizes":[17,9,8,3,34,15,13,15,7,21,19,2,6,1,31,19,34,20],"default_left":[1,1,1,1,1,0,1,1,1,1,1,0,1,1,0,0,0,0,1,1,0,1,0,1,1,1,0,0,1,0,0,0,0,0,1,0,0,1,0,1,1,1,0,0,0,1,0,1,1,1,0,0,0,1,0,0,1,0,1,1,0,1,0,0,0,0,0,0,0,0,0,0,0,0,0,0,0,0,0,0,0,0,0,0,0,0,0,0,0,0,0,0,0,0,0,0,0,0,0,0,0,0,0,0,0,0,0,0,0,0,0,0,0,0,0,0,0,0,0,0,0,0,0,0,0,0,0],"id":6,"left_children":[1,3,5,7,9,11,13,15,17,19,21,23,25,27,29,31,33,35,37,39,41,43,45,47,49,51,53,55,57,59,61,63,65,67,69,71,73,75,77,79,81,83,85,87,89,91,93,95,97,99,101,103,105,107,109,111,113,115,117,119,121,123,125,-1,-1,-1,-1,-1,-1,-1,-1,-1,-1,-1,-1,-1,-1,-1,-1,-1,-1,-1,-1,-1,-1,-1,-1,-1,-1,-1,-1,-1,-1,-1,-1,-1,-1,-1,-1,-1,-1,-1,-1,-1,-1,-1,-1,-1,-1,-1,-1,-1,-1,-1,-1,-1,-1,-1,-1,-1,-1,-1,-1,-1,-1,-1,-1],"loss_changes":[1.6695952E6,2.6811812E5,7.124584E5,6.4379938E4,1.1299825E5,1.936435E5,1.9644144E5,2.271022E4,2.4291375E4,8.6955E4,3.2238438E4,8.435217E4,9.7319875E4,1.4375848E5,3.9338664E4,1.664951E4,1.0894201E4,1.3377792E4,1.5125453E4,1.889875E4,7.1711625E4,1.10104375E4,8.751881E3,5.2290625E4,6.7217E4,3.6768312E4,6.2633844E4,6.242964E4,1.4809031E5,1.9750633E4,6.2785312E4,8.249211E3,9.852237E3,8.1473037E3,1.0204577E4,8.898162E3,6.4147383E3,8.466719E3,6.432376E3,1.0999953E4,9.347875E3,3.634579E4,3.0556094E4,6.49975E3,2.3689229E3,4.704273E3,2.7532373E3,1.3388141E4,1.3199855E4,3.5926605E4,2.1801572E4,1.4356125E4,2.5719281E4,5.2449344E4,3.3638066E4,3.7340367E4,6.101477E4,3.765467E4,4.8408906E4,1.2156281E4,1.8738785E4,2.1918146E4,2.9314598E4,0E0,0E0,0E0,0E0,0E0,0E0,0E0,0E0,0E0,0E0,0E0,0E0,0E0,0E0,0E0,0E0,0E0,0E0,0E0,0E0,0E0,0E0,0E0,0E0,0E0,0E0,0E0,0E0,0E0,0E0,0E0,0E0,0E0,0E0,0E0,0E0,0E0,0E0,0E0,0E0,0E0,0E0,0E0,0E0,0E0,0E0,0E0,0E0,0E0,0E0,0E0,0E0,0E0,0E0,0E0,0E0,0E0,0E0,0E0,0E0,0E0,0E0,0E0,0E0],"parents":[2147483647,0,0,1,1,2,2,3,3,4,4,5,5,6,6,7,7,8,8,9,9,10,10,11,11,12,12,13,13,14,14,15,15,16,16,17,17,18,18,19,19,20,20,21,21,22,22,23,23,24,24,25,25,26,26,27,27,28,28,29,29,30,30,31,31,32,32,33,33,34,34,35,35,36,36,37,37,38,38,39,39,40,40,41,41,42,42,43,43,44,44,45,45,46,46,47,47,48,48,49,49,50,50,51,51,52,52,53,53,54,54,55,55,56,56,57,57,58,58,59,59,60,60,61,61,62,62],"right_children":[2,4,6,8,10,12,14,16,18,20,22,24,26,28,30,32,34,36,38,40,42,44,46,48,50,52,54,56,58,60,62,64,66,68,70,72,74,76,78,80,82,84,86,88,90,92,94,96,98,100,102,104,106,108,110,112,114,116,118,120,122,124,126,-1,-1,-1,-1,-1,-1,-1,-1,-1,-1,-1,-1,-1,-1,-1,-1,-1,-1,-1,-1,-1,-1,-1,-1,-1,-1,-1,-1,-1,-1,-1,-1,-1,-1,-1,-1,-1,-1,-1,-1,-1,-1,-1,-1,-1,-1,-1,-1,-1,-1,-1,-1,-1,-1,-1,-1,-1,-1,-1,-1,-1,-1,-1,-1],"split_conditions":[2.2E1,NaN,NaN,NaN,NaN,2.5E1,6.035E1,NaN,NaN,2E1,3.625E6,7.36E0,NaN,NaN,1.08E1,2E0,1.84E2,3E0,5.222E1,NaN,5.55E0,4E0,2.665E1,NaN,4.6E6,NaN,1.635E1,1.635E1,NaN,9.689E1,1.5E7,5.55E0,3E0,2.135E0,1.93E2,3E0,3.625E0,5.25E5,9.44E1,1.9E1,1E0,NaN,3E0,1.06E0,7.657E1,NaN,3.037E1,3E6,1.83E2,NaN,2.1925E1,5.345E1,8.25E0,NaN,1.6666666E4,2.3E6,1.5384615E4,3.9E0,1.45E7,NaN,4E0,NaN,6.31E1,6.333193E-1,2.3200978E-1,-2.0845218E-1,5.7777953E-1,1.473225E-1,-3.5360026E-1,8.027325E-2,-4.224944E-1,-1.3519219E-1,3.4688348E-1,4.00076E-2,-9.243298E-1,-8.233182E-1,-4.5280617E-1,-1.11050375E-1,-5.417921E-1,-8.4754175E-1,-4.6687216E-1,-8.938977E-1,-5.664379E-1,-2.549713E-2,-4.131207E-1,-6.41276E-1,-9.35842E-2,-8.042498E-1,-1.2166388E0,3.6517546E-1,-4.0971524E-1,-4.5373625E-1,3.347634E-1,5.5514485E-2,-9.1779387E-1,3.9351565E-1,6.854538E-1,5.9465047E-2,2.9210424E-1,3.3464876E-1,-4.4236416E-1,2.5970888E-1,1.6365893E-2,8.075685E-1,4.85838E-1,6.4578474E-1,3.338731E-1,6.1695576E-1,3.1875783E-1,-1.403119E-1,2.5560033E-1,-1.6980527E-1,1.8484804E-1,-6.2323874E-1,-5.105105E-2,-7.2657154E-3,-2.4856724E-1,-7.514366E-1,5.8957297E-2,4.875577E-1,2.1230374E-1,1.527916E-1,9.203377E-1,7.4296705E-2,-4.189524E-1,3.4490567E-1,1.1132354E-2],"split_indices":[4,9,1,1,1,4,16,9,9,4,20,14,1,9,14,10,0,10,16,1,14,18,14,9,20,9,14,14,1,16,20,14,13,14,0,13,14,20,14,4,18,1,13,14,16,3,16,20,0,9,14,14,14,9,21,20,21,14,20,9,18,9,14,0,0,0,0,0,0,0,0,0,0,0,0,0,0,0,0,0,0,0,0,0,0,0,0,0,0,0,0,0,0,0,0,0,0,0,0,0,0,0,0,0,0,0,0,0,0,0,0,0,0,0,0,0,0,0,0,0,0,0,0,0,0,0,0],"split_type":[0,1,1,1,1,0,0,1,1,0,0,0,1,1,0,0,0,0,0,1,0,0,0,1,0,1,0,0,1,0,0,0,0,0,0,0,0,0,0,0,0,1,0,0,0,1,0,0,0,1,0,0,0,1,0,0,0,0,0,1,0,1,0,0,0,0,0,0,0,0,0,0,0,0,0,0,0,0,0,0,0,0,0,0,0,0,0,0,0,0,0,0,0,0,0,0,0,0,0,0,0,0,0,0,0,0,0,0,0,0,0,0,0,0,0,0,0,0,0,0,0,0,0,0,0,0,0],"sum_hessian":[4.1261E4,1.0064E4,3.1197E4,3.691E3,6.373E3,1.5659E4,1.5538E4,1.487E3,2.204E3,5.546E3,8.27E2,5.92E3,9.739E3,1.1224E4,4.314E3,5.6E2,9.27E2,8E2,1.404E3,2.032E3,3.514E3,7.52E2,7.5E1,2.684E3,3.236E3,3.484E3,6.255E3,5.139E3,6.085E3,1.904E3,2.41E3,3.75E2,1.85E2,3.64E2,5.63E2,7.42E2,5.8E1,1.035E3,3.69E2,6.76E2,1.356E3,1.577E3,1.937E3,7.36E2,1.6E1,4.8E1,2.7E1,1.087E3,1.597E3,7.37E2,2.499E3,1.715E3,1.769E3,3.968E3,2.287E3,3.314E3,1.825E3,4.838E3,1.247E3,1.67E3,2.34E2,6.66E2,1.744E3,1.32E2,2.43E2,1.59E2,2.6E1,6.1E1,3.03E2,4.92E2,7.1E1,6.78E2,6.4E1,1.4E1,4.4E1,1.2E2,9.15E2,3.03E2,6.6E1,1.81E2,4.95E2,1.153E3,2.03E2,7.84E2,7.93E2,1.751E3,1.86E2,1.17E2,6.19E2,7E0,9E0,1.3E1,3.5E1,5E0,2.2E1,5.66E2,5.21E2,8.27E2,7.7E2,1.11E2,6.26E2,1E3,1.499E3,1.41E3,3.05E2,8.52E2,9.17E2,1.704E3,2.264E3,4.28E2,1.859E3,5.85E2,2.729E3,3.81E2,1.444E3,1.557E3,3.281E3,1.113E3,1.34E2,3.28E2,1.342E3,8.1E1,1.53E2,2.15E2,4.51E2,9.82E2,7.62E2],"tree_param":{"num_deleted":"0","num_feature":"22","num_nodes":"127","size_leaf_vector":"1"}},{"base_weights":[-6.718538E-3,5.6219254E0,-4.6590157E0,9.559459E0,1.5616841E0,1.3496724E0,-8.437988E0,7.0720735E0,1.3246055E1,-4.1586356E0,3.6131291E0,-3.193904E0,5.3392286E0,-1.2666006E1,-3.9438548E0,9.5527525E0,1.8762089E0,1.6804825E1,1.0448636E1,-8.4403664E-1,-1.8756346E1,7.855803E0,9.263131E-1,1.6548469E0,-1.2916087E1,9.93689E0,4.676883E-2,-9.399224E0,-2.3021605E1,9.8333615E-1,-7.695645E0,1.6025385E1,7.6979423E0,5.629419E0,-3.7117336E0,1.804937E1,7.320916E0,1.7610703E1,9.088736E0,5.6332345E0,-3.0812933E0,-1.2759424E1,-2.4234623E1,1.6618986E1,6.2318077E0,1.7705126E1,4.599948E-1,9.464912E0,-9.6861476E-1,-9.87293E0,-2.2280966E1,1.3024989E1,5.6113666E-1,-6.650516E0,3.6305718E0,-7.2255774E0,-1.7246403E1,-1.9967636E1,-3.0385841E1,6.410332E0,-2.296509E0,-1.4851847E1,-4.6970515E0,7.326998E-1,4.023642E-1,-2.328771E-3,3.5319042E-1,5.876974E-2,3.7680715E-1,-3.8262522E-1,2.0017378E-1,8.805821E-1,6.4976686E-1,1.5482447E-1,7.435265E-1,8.3745486E-1,3.4661862E-1,5.120227E-1,2.3975854E-1,1.3504495E-1,5.874478E-1,1.9886084E-2,-3.4146908E-1,-6.3907033E-1,-1.6188355E-1,-4.2529616E-1,-1.0781765E0,7.4706566E-1,-2.961489E-1,2.1717595E-1,7.329772E-1,7.766377E-1,-4.612334E-2,-1.5919091E-1,7.87908E-2,-6.01136E-2,5.2780265E-1,1.845675E-2,-3.7460953E-1,-7.6532924E-1,-2.9460818E-1,-3.699822E-1,-9.631174E-1,7.3834836E-1,4.330074E-1,-1.0429493E-1,3.093001E-1,1.6296986E-1,-3.8515282E-1,3.9973044E-1,-7.37996E-3,-7.837851E-2,-4.3260506E-1,-8.2188004E-1,-4.1490808E-1,-6.644533E-1,-1.0315006E0,-9.808167E-2,-1.2722201E0,1.19540155E-1,4.7591504E-1,-1.9790524E-1,1.506074E-1,-4.0052658E-1,-9.367529E-1,5.1939238E-2,-3.3439764E-1],"categories":[0,2,5,7,8,10,11,12,13,0,2,3,5,7,8,10,11,12,13,0,4,17,18,19,27,31,34,35,37,38,39,40,42,43,46,47,0,2,3,6,14,16,18,19,20,21,22,23,28,31,32,33,37,38,39,40,43,45,0,2,7,16,18,19,20,28,30,31,32,33,35,36,37,38,39,40,42,43,44,3,4,7,9,14,15,16,18,19,20,21,22,25,26,31,32,33,34,37,38,39,40,42,43,44,46,0,1,2,3,6,7,8,15,16,18,19,20,21,28,30,31,33,34,35,37,40,41,42,43,44,0,7,8,15,16,18,19,20,21,28,31,33,34,35,36,37,38,39,40,42,43,44,0,1,2,3,6,8,9,14,15,16,19,27,28,29,30,31,32,33,34,36,37,40,41,42,43,44,45,46,4,7,8,9,16,17,19,20,21,23,26,28,29,31,34,35,43,0,1,2,3,4,5,7,8,12,13,14,15,16,17,18,20,21,22,24,26,27,28,31,33,34,35,37,38,40,41,43,45,47,0,1,2,3,4,6,7,8,9,10,11,12,13,0,1,2,3,4,6,7,8,9,10,12,13,14,15,16,18,19,20,21,27,28,30,31,32,33,34,35,36,37,38,39,40,41,42,43,44,45,8,15,19,21,31,33,34,35,43,7,8,16,17,19,20,21,39,40,42,43,5,12,13,5,7,13,3,6,7,8,14,15,16,19,20,21,23,25,28,31,32,33,34,36,38,39,40,41,42,43,44,46,0,2,3,4,5,6,7,8,9,10,11,12,13,0,2,3,4,5,6,7,8,10,11,12,13,0,2,14,18,19,20,28,31,33,35,38,39,40,42,43,44,47,1,3,5,6,7,34,42,0,1,2,3,4,5,6,7,8,10,11,12,13,15,16,17,18,19,20,21,23,24,2,3,6,7,8,9,14,15,16,17,18,19,20,21,22,24,26,29,30,31,32,33,34,36,37,39,40,41,42,43,44,46,1,2,3,5,7,8,10,11,12,13,15,16,17,18,19,20,21,22,23,24,25,26,27,28,29,30,33,34,35,36,40,41,43,44,45,47,16,19,31,33,34,35,42,43,0,1,8,9,15,19,33,35,37,39,42,47,9,15,19,20,30,34,35,38,40,43,4,6,8,9,12,14,15,16,19,32,33,40,44],"categories_nodes":[1,2,7,8,9,10,11,13,15,16,19,21,23,24,25,27,28,29,35,38,42,43,45,51,53,57,58,61,62],"categories_segments":[0,9,19,36,58,79,105,130,152,180,197,230,243,280,289,300,303,306,332,345,357,374,381,403,435,471,479,491,501],"categories_sizes":[9,10,17,22,21,26,25,22,28,17,33,13,37,9,11,3,3,26,13,12,17,7,22,32,36,8,12,10,13],"default_left":[0,0,1,1,1,1,1,1,1,1,1,1,0,1,0,1,1,0,0,1,0,1,0,1,1,1,0,1,1,1,0,0,1,1,1,1,0,0,1,1,0,1,1,1,0,1,0,1,1,1,0,1,0,1,0,0,1,1,1,0,0,1,1,0,0,0,0,0,0,0,0,0,0,0,0,0,0,0,0,0,0,0,0,0,0,0,0,0,0,0,0,0,0,0,0,0,0,0,0,0,0,0,0,0,0,0,0,0,0,0,0,0,0,0,0,0,0,0,0,0,0,0,0,0,0,0,0],"id":7,"left_children":[1,3,5,7,9,11,13,15,17,19,21,23,25,27,29,31,33,35,37,39,41,43,45,47,49,51,53,55,57,59,61,63,65,67,69,71,73,75,77,79,81,83,85,87,89,91,93,95,97,99,101,103,105,107,109,111,113,115,117,119,121,123,125,-1,-1,-1,-1,-1,-1,-1,-1,-1,-1,-1,-1,-1,-1,-1,-1,-1,-1,-1,-1,-1,-1,-1,-1,-1,-1,-1,-1,-1,-1,-1,-1,-1,-1,-1,-1,-1,-1,-1,-1,-1,-1,-1,-1,-1,-1,-1,-1,-1,-1,-1,-1,-1,-1,-1,-1,-1,-1,-1,-1,-1,-1,-1,-1],"loss_changes":[1.0794696E6,2.98142E5,5.125308E5,8.634194E4,1.07918516E5,1.5811733E5,2.6301525E5,7.291666E4,3.7014812E4,1.1738137E5,7.7093805E4,1.9240402E5,1.1298986E5,2.4032675E5,1.24342984E5,4.5376594E4,3.863328E4,1.9001594E4,2.0074406E4,2.8835008E4,1.31678125E4,3.6788203E4,3.2404E4,5.590846E4,3.7569344E4,7.189867E4,5.2057492E4,9.204016E4,3.5329062E4,5.1892668E4,8.156034E4,9.922266E3,2.4175812E4,1.690807E4,3.72054E4,9.0529375E3,7.4346504E3,8.56025E3,2.0110156E4,1.0164773E4,2.8385113E4,5.6813164E3,6.240797E3,1.8900867E4,2.2163094E4,3.324004E3,2.6529574E4,2.7131188E4,2.4228598E4,2.3492E4,5.5827344E3,2.1638906E4,1.3944207E4,2.3465223E4,3.375608E4,7.832128E4,2.4284219E4,2.1800625E4,1.4651844E4,2.0154375E4,2.8575883E4,4.5111844E4,5.781471E4,0E0,0E0,0E0,0E0,0E0,0E0,0E0,0E0,0E0,0E0,0E0,0E0,0E0,0E0,0E0,0E0,0E0,0E0,0E0,0E0,0E0,0E0,0E0,0E0,0E0,0E0,0E0,0E0,0E0,0E0,0E0,0E0,0E0,0E0,0E0,0E0,0E0,0E0,0E0,0E0,0E0,0E0,0E0,0E0,0E0,0E0,0E0,0E0,0E0,0E0,0E0,0E0,0E0,0E0,0E0,0E0,0E0,0E0,0E0,0E0,0E0,0E0,0E0,0E0],"parents":[2147483647,0,0,1,1,2,2,3,3,4,4,5,5,6,6,7,7,8,8,9,9,10,10,11,11,12,12,13,13,14,14,15,15,16,16,17,17,18,18,19,19,20,20,21,21,22,22,23,23,24,24,25,25,26,26,27,27,28,28,29,29,30,30,31,31,32,32,33,33,34,34,35,35,36,36,37,37,38,38,39,39,40,40,41,41,42,42,43,43,44,44,45,45,46,46,47,47,48,48,49,49,50,50,51,51,52,52,53,53,54,54,55,55,56,56,57,57,58,58,59,59,60,60,61,61,62,62],"right_children":[2,4,6,8,10,12,14,16,18,20,22,24,26,28,30,32,34,36,38,40,42,44,46,48,50,52,54,56,58,60,62,64,66,68,70,72,74,76,78,80,82,84,86,88,90,92,94,96,98,100,102,104,106,108,110,112,114,116,118,120,122,124,126,-1,-1,-1,-1,-1,-1,-1,-1,-1,-1,-1,-1,-1,-1,-1,-1,-1,-1,-1,-1,-1,-1,-1,-1,-1,-1,-1,-1,-1,-1,-1,-1,-1,-1,-1,-1,-1,-1,-1,-1,-1,-1,-1,-1,-1,-1,-1,-1,-1,-1,-1,-1,-1,-1,-1,-1,-1,-1,-1,-1,-1,-1,-1,-1],"split_conditions":[1.67E0,NaN,NaN,4E0,3.4E6,4.025E6,4.55E6,NaN,NaN,NaN,NaN,NaN,2.1925E1,NaN,1.59E1,NaN,NaN,7.9725E1,3.35E0,NaN,7.45E0,NaN,2.8E0,NaN,NaN,NaN,1.45E7,NaN,NaN,NaN,1.215E7,1.2925E1,1.2E6,4.65E6,1.32E7,NaN,1.9E1,1E0,NaN,6E0,2.725E0,1E0,NaN,NaN,1.392E8,NaN,7.7E6,1.72E2,4.08E0,1.74E2,1E0,NaN,1.3E7,NaN,6.6575E1,2.575E0,7.25E5,NaN,NaN,8.5E6,1.17E7,NaN,NaN,7.326998E-1,4.023642E-1,-2.328771E-3,3.5319042E-1,5.876974E-2,3.7680715E-1,-3.8262522E-1,2.0017378E-1,8.805821E-1,6.4976686E-1,1.5482447E-1,7.435265E-1,8.3745486E-1,3.4661862E-1,5.120227E-1,2.3975854E-1,1.3504495E-1,5.874478E-1,1.9886084E-2,-3.4146908E-1,-6.3907033E-1,-1.6188355E-1,-4.2529616E-1,-1.0781765E0,7.4706566E-1,-2.961489E-1,2.1717595E-1,7.329772E-1,7.766377E-1,-4.612334E-2,-1.5919091E-1,7.87908E-2,-6.01136E-2,5.2780265E-1,1.845675E-2,-3.7460953E-1,-7.6532924E-1,-2.9460818E-1,-3.699822E-1,-9.631174E-1,7.3834836E-1,4.330074E-1,-1.0429493E-1,3.093001E-1,1.6296986E-1,-3.8515282E-1,3.9973044E-1,-7.37996E-3,-7.837851E-2,-4.3260506E-1,-8.2188004E-1,-4.1490808E-1,-6.644533E-1,-1.0315006E0,-9.808167E-2,-1.2722201E0,1.19540155E-1,4.7591504E-1,-1.9790524E-1,1.506074E-1,-4.0052658E-1,-9.367529E-1,5.1939238E-2,-3.3439764E-1],"split_indices":[15,1,1,18,20,20,20,9,12,12,12,12,14,12,14,12,12,14,14,9,14,1,14,12,12,12,20,1,1,12,20,14,20,20,20,1,7,15,1,18,14,18,9,9,20,9,20,0,15,0,18,12,20,9,14,14,20,12,9,20,20,12,12,0,0,0,0,0,0,0,0,0,0,0,0,0,0,0,0,0,0,0,0,0,0,0,0,0,0,0,0,0,0,0,0,0,0,0,0,0,0,0,0,0,0,0,0,0,0,0,0,0,0,0,0,0,0,0,0,0,0,0,0,0,0,0,0],"split_type":[0,1,1,0,0,0,0,1,1,1,1,1,0,1,0,1,1,0,0,1,0,1,0,1,1,1,0,1,1,1,0,0,0,0,0,1,0,0,1,0,0,0,1,1,0,1,0,0,0,0,0,1,0,1,0,0,0,1,1,0,0,1,1,0,0,0,0,0,0,0,0,0,0,0,0,0,0,0,0,0,0,0,0,0,0,0,0,0,0,0,0,0,0,0,0,0,0,0,0,0,0,0,0,0,0,0,0,0,0,0,0,0,0,0,0,0,0,0,0,0,0,0,0,0,0,0,0],"sum_hessian":[4.1213E4,1.8649E4,2.2564E4,9.464E3,9.185E3,8.713E3,1.3851E4,5.66E3,3.804E3,2.423E3,6.762E3,4.074E3,4.639E3,7.132E3,6.719E3,3.828E3,1.832E3,1.663E3,2.141E3,1.979E3,4.44E2,2.618E3,4.144E3,2.721E3,1.353E3,2.48E3,2.159E3,5.429E3,1.703E3,2.906E3,3.813E3,8.44E2,2.984E3,1.096E3,7.36E2,1.466E3,1.97E2,3.32E2,1.809E3,5.06E2,1.473E3,2.2E2,2.24E2,4.02E2,2.216E3,1.07E2,4.037E3,6.81E2,2.04E3,1.029E3,3.24E2,1.864E3,6.16E2,7.51E2,1.408E3,4.259E3,1.17E3,1.217E3,4.86E2,1.093E3,1.813E3,1.12E3,2.693E3,6.19E2,2.25E2,3.54E2,2.63E3,5.18E2,5.78E2,4.42E2,2.94E2,4.88E2,9.78E2,1.55E2,4.2E1,2.42E2,9E1,8.4E2,9.69E2,4.08E2,9.8E1,8.87E2,5.86E2,1.6E2,6E1,3.8E1,1.86E2,3.74E2,2.8E1,2.074E3,1.42E2,9.9E1,8E0,1.019E3,3.018E3,1.69E2,5.12E2,1.745E3,2.95E2,2.21E2,8.08E2,3.8E1,2.86E2,5.59E2,1.305E3,4.29E2,1.87E2,1.59E2,5.92E2,5.3E2,8.78E2,1.694E3,2.565E3,8.04E2,3.66E2,7.57E2,4.6E2,1.9E1,4.67E2,6.7E2,4.23E2,1.267E3,5.46E2,7.1E2,4.1E2,1.009E3,1.684E3],"tree_param":{"num_deleted":"0","num_feature":"22","num_nodes":"127","size_leaf_vector":"1"}},{"base_weights":[-1.0478838E-1,-8.250021E0,4.164904E0,-5.804643E-1,-1.1483356E1,8.681382E0,-3.8846445E-1,5.95559E0,-3.5401263E0,-1.8633696E1,-9.075894E0,9.387571E0,-9.981044E0,4.0229454E0,-4.2034435E0,8.737735E0,-4.187547E0,-5.267156E-1,-8.772615E0,-1.5961201E1,-2.7140528E1,-7.310903E0,-1.8829937E1,1.2313198E1,5.8589582E0,-9.71716E-1,-1.4577159E1,7.473444E0,1.6015954E0,-2.2149E0,-1.1974294E1,1.639671E1,6.975228E0,-2.094655E1,-1.2053189E0,-1.2500335E1,3.979509E-1,-1.65268E1,-6.776997E0,-9.42847E0,-1.8631039E1,-2.7628185E1,5.2033815E0,-3.4715767E0,-1.1365593E1,-2.2636454E1,-1.0449413E1,1.6038427E1,1.0255403E1,9.512477E0,3.9166987E0,-7.7654605E0,4.313142E0,-1.7129267E1,-5.2210374E0,5.7547164E0,1.4078148E1,4.557556E0,-1.163134E0,2.0762541E0,-5.0469046E0,-1.4848471E1,-3.1134066E-1,6.7802364E-1,-1.0754502E-1,1.6165043E-1,4.8068276E-1,-4.3523066E-2,-9.4528824E-1,4.3966368E-2,-5.251956E-1,-4.376746E-2,-8.3729607E-1,2.0337981E-1,-7.039862E-2,-7.6044196E-1,-2.226984E-1,8.710006E-2,-3.4468958E-1,-2.5369444E-1,-5.907844E-1,-4.6854562E-1,-8.275561E-1,-1.134001E0,-1.9246729E-1,-1.9951689E-1,4.3699795E-1,5.737612E-2,-2.8652173E-1,-3.004961E-1,-6.454243E-1,-6.7478955E-1,-1.1057502E0,3.3154127E-1,-4.9685225E-1,4.8419797E-1,7.484453E-1,4.72733E-1,2.3727287E-1,4.633484E-1,2.2258592E-1,-9.1410525E-2,2.1171749E-1,-4.200386E-1,4.4218916E-1,-1.8322317E-1,3.8701373E-1,-7.67231E-1,-1.411534E-1,3.774346E-1,-3.4716755E-1,2.6747712E-1,-5.1989806E-1,1.0369148E0,4.5599687E-1,1.0402048E-1,4.4989675E-1,-3.8553914E-1,7.527988E-2,4.642511E-2,4.964589E-1,-1.6481876E-1,-6.571778E-1,4.31301E-2,-7.0957625E-1,7.5960153E-1,-3.5607612E-1],"categories":[0,2,5,7,8,10,11,12,13,0,2,3,5,6,7,8,10,11,12,13,3,4,7,8,10,13,15,16,17,19,21,28,31,34,35,36,37,43,0,3,5,13,14,15,18,19,23,26,31,33,35,36,37,43,44,0,4,5,10,16,17,19,30,31,33,34,35,38,41,42,6,7,8,15,16,19,20,21,28,31,32,33,34,36,37,39,40,43,44,45,2,4,7,14,18,19,20,21,28,30,31,32,33,34,35,40,43,44,1,3,5,6,9,13,14,15,16,17,18,19,20,21,25,27,32,33,34,37,39,40,43,44,5,0,1,2,3,4,6,7,8,9,10,13,14,15,16,17,18,19,20,21,23,26,28,30,31,32,33,34,35,36,37,38,39,40,41,42,43,45,0,2,3,5,7,8,9,10,11,13,0,2,5,8,10,11,12,13,0,2,3,4,5,6,7,8,9,10,11,12,13,3,4,6,7,8,9,13,14,15,16,17,18,19,20,21,28,32,34,36,38,39,40,42,43,44,1,4,15,16,17,35,43,0,1,2,3,4,5,6,7,8,9,13,14,15,16,18,19,20,21,23,26,28,30,31,32,33,34,35,36,37,39,42,43,44,45,1,6,9,12,18,20,26,28,32,39,44,2,3,6,7,8,9,12,13,14,18,20,22,24,25,26,27,29,32,36,37,39,40,44,45,0,2,3,6,13,14,15,18,19,21,23,25,28,30,31,32,33,34,35,37,38,40,41,42,43,44,46,0,2,3,4,6,7,13,14,15,16,18,19,20,21,29,31,34,35,38,39,40,41,43,44,6,9,15,16,18,19,20,27,30,33,34,42,43,0,1,3,4,5,6,7,9,10,11,12,14,15,17,18,19,20,21,22,23,24,25,26,28,29,30,31,32,33,34,36,37,38,39,40,42,43,44,45,0,1,2,3,4,5,9,10,11,12,13,14,17,18,19,22,23,24,25,26,27,29,30,32,35,37,38,40,41,42,46,35,1,2,3,4,5,6,7,8,9,10,11,12,13,14,15,16,17,18,19,20,21,22,23,24,25,26,27,28,29,30,31,32,33,34,36,37,38,39,40,42,43,44,45,46,0,1,2,6,7,8,9,12,14,15,17,18,19,20,24,25,26,27,28,30,31,32,33,34,35,36,38,39,40,41,42,43,44,45],"categories_nodes":[2,3,7,8,9,11,12,13,14,15,19,21,23,29,33,34,36,39,40,43,44,45,46,49,55,56,61],"categories_segments":[0,9,20,38,55,70,90,108,132,133,170,180,188,201,226,228,233,267,278,302,329,353,366,405,436,437,481],"categories_sizes":[9,11,18,17,15,20,18,24,1,37,10,8,13,25,2,5,34,11,24,27,24,13,39,31,1,44,34],"default_left":[1,0,1,0,1,0,0,1,1,1,0,1,1,1,1,1,0,0,1,1,0,1,1,1,0,1,1,1,0,1,1,0,0,1,1,0,1,0,0,1,1,1,0,1,1,1,1,0,0,1,1,1,0,1,0,1,1,0,0,1,0,1,0,0,0,0,0,0,0,0,0,0,0,0,0,0,0,0,0,0,0,0,0,0,0,0,0,0,0,0,0,0,0,0,0,0,0,0,0,0,0,0,0,0,0,0,0,0,0,0,0,0,0,0,0,0,0,0,0,0,0,0,0,0,0,0,0],"id":8,"left_children":[1,3,5,7,9,11,13,15,17,19,21,23,25,27,29,31,33,35,37,39,41,43,45,47,49,51,53,55,57,59,61,63,65,67,69,71,73,75,77,79,81,83,85,87,89,91,93,95,97,99,101,103,105,107,109,111,113,115,117,119,121,123,125,-1,-1,-1,-1,-1,-1,-1,-1,-1,-1,-1,-1,-1,-1,-1,-1,-1,-1,-1,-1,-1,-1,-1,-1,-1,-1,-1,-1,-1,-1,-1,-1,-1,-1,-1,-1,-1,-1,-1,-1,-1,-1,-1,-1,-1,-1,-1,-1,-1,-1,-1,-1,-1,-1,-1,-1,-1,-1,-1,-1,-1,-1,-1,-1],"loss_changes":[1.4381618E6,3.526353E5,5.579794E5,8.1794875E4,1.7133725E5,1.7998175E5,2.2753456E5,3.7381035E4,4.585143E4,5.4968062E4,1.2830075E5,1.351365E5,2.0576176E4,5.2316086E4,1.1188508E5,1.3389742E4,1.4195637E4,2.0541586E4,1.5865961E4,3.2685656E4,1.011025E4,9.870234E4,3.5310438E4,5.4130125E4,4.2092938E4,6.418211E3,7.410172E3,2.890786E4,3.0194344E4,7.028506E4,4.9439297E4,1.6215508E3,1.2202199E4,1.9397031E3,6.8161504E3,1.2348164E4,1.7148314E4,4.859621E3,1.3470656E4,8.826281E3,1.6493719E4,5.1245625E3,1.0125448E3,5.795885E4,5.527753E4,1.9649281E4,1.3147105E4,2.4473375E4,2.8957031E4,1.5823625E4,3.1934574E4,4.4048E3,4.9261953E3,6.154789E3,4.2283877E3,3.3564453E4,1.5664336E4,2.3124098E4,4.854366E4,2.1702121E4,3.746997E4,5.120314E4,4.9061566E4,0E0,0E0,0E0,0E0,0E0,0E0,0E0,0E0,0E0,0E0,0E0,0E0,0E0,0E0,0E0,0E0,0E0,0E0,0E0,0E0,0E0,0E0,0E0,0E0,0E0,0E0,0E0,0E0,0E0,0E0,0E0,0E0,0E0,0E0,0E0,0E0,0E0,0E0,0E0,0E0,0E0,0E0,0E0,0E0,0E0,0E0,0E0,0E0,0E0,0E0,0E0,0E0,0E0,0E0,0E0,0E0,0E0,0E0,0E0,0E0,0E0,0E0,0E0,0E0],"parents":[2147483647,0,0,1,1,2,2,3,3,4,4,5,5,6,6,7,7,8,8,9,9,10,10,11,11,12,12,13,13,14,14,15,15,16,16,17,17,18,18,19,19,20,20,21,21,22,22,23,23,24,24,25,25,26,26,27,27,28,28,29,29,30,30,31,31,32,32,33,33,34,34,35,35,36,36,37,37,38,38,39,39,40,40,41,41,42,42,43,43,44,44,45,45,46,46,47,47,48,48,49,49,50,50,51,51,52,52,53,53,54,54,55,55,56,56,57,57,58,58,59,59,60,60,61,61,62,62],"right_children":[2,4,6,8,10,12,14,16,18,20,22,24,26,28,30,32,34,36,38,40,42,44,46,48,50,52,54,56,58,60,62,64,66,68,70,72,74,76,78,80,82,84,86,88,90,92,94,96,98,100,102,104,106,108,110,112,114,116,118,120,122,124,126,-1,-1,-1,-1,-1,-1,-1,-1,-1,-1,-1,-1,-1,-1,-1,-1,-1,-1,-1,-1,-1,-1,-1,-1,-1,-1,-1,-1,-1,-1,-1,-1,-1,-1,-1,-1,-1,-1,-1,-1,-1,-1,-1,-1,-1,-1,-1,-1,-1,-1,-1,-1,-1,-1,-1,-1,-1,-1,-1,-1,-1,-1,-1,-1],"split_conditions":[2.3E1,1.09E0,NaN,NaN,2E1,1E0,1.47E0,NaN,NaN,NaN,1E0,NaN,NaN,NaN,NaN,NaN,1.575E6,9.5E5,1.05E6,NaN,6.15E1,NaN,2E0,NaN,9.8E-1,2E0,6E0,2.52E7,1.0125E1,NaN,1.485E7,2.67075E2,1E0,NaN,NaN,4.4E-1,NaN,8.00001E0,2.08E0,NaN,NaN,5E0,1.84E2,NaN,NaN,NaN,NaN,2.6E1,1.635E1,NaN,3.625E6,1.556E1,2.76E1,1.89E2,8.1E-1,NaN,NaN,3E1,1.38E7,4.4E7,1E0,NaN,3.3025E1,6.7802364E-1,-1.0754502E-1,1.6165043E-1,4.8068276E-1,-4.3523066E-2,-9.4528824E-1,4.3966368E-2,-5.251956E-1,-4.376746E-2,-8.3729607E-1,2.0337981E-1,-7.039862E-2,-7.6044196E-1,-2.226984E-1,8.710006E-2,-3.4468958E-1,-2.5369444E-1,-5.907844E-1,-4.6854562E-1,-8.275561E-1,-1.134001E0,-1.9246729E-1,-1.9951689E-1,4.3699795E-1,5.737612E-2,-2.8652173E-1,-3.004961E-1,-6.454243E-1,-6.7478955E-1,-1.1057502E0,3.3154127E-1,-4.9685225E-1,4.8419797E-1,7.484453E-1,4.72733E-1,2.3727287E-1,4.633484E-1,2.2258592E-1,-9.1410525E-2,2.1171749E-1,-4.200386E-1,4.4218916E-1,-1.8322317E-1,3.8701373E-1,-7.67231E-1,-1.411534E-1,3.774346E-1,-3.4716755E-1,2.6747712E-1,-5.1989806E-1,1.0369148E0,4.5599687E-1,1.0402048E-1,4.4989675E-1,-3.8553914E-1,7.527988E-2,4.642511E-2,4.964589E-1,-1.6481876E-1,-6.571778E-1,4.31301E-2,-7.0957625E-1,7.5960153E-1,-3.5607612E-1],"split_indices":[4,15,1,1,4,6,15,12,12,12,6,12,12,12,1,12,20,20,20,1,11,1,18,1,15,18,18,20,14,12,20,14,5,1,12,15,12,10,14,12,12,19,0,12,12,12,12,4,14,12,20,15,14,0,15,12,12,4,20,20,6,12,14,0,0,0,0,0,0,0,0,0,0,0,0,0,0,0,0,0,0,0,0,0,0,0,0,0,0,0,0,0,0,0,0,0,0,0,0,0,0,0,0,0,0,0,0,0,0,0,0,0,0,0,0,0,0,0,0,0,0,0,0,0,0,0,0],"split_type":[0,0,1,1,0,0,0,1,1,1,0,1,1,1,1,1,0,0,0,1,0,1,0,1,0,0,0,0,0,1,0,0,0,1,1,0,1,0,0,1,1,0,0,1,1,1,1,0,0,1,0,0,0,0,0,1,1,0,0,0,0,1,0,0,0,0,0,0,0,0,0,0,0,0,0,0,0,0,0,0,0,0,0,0,0,0,0,0,0,0,0,0,0,0,0,0,0,0,0,0,0,0,0,0,0,0,0,0,0,0,0,0,0,0,0,0,0,0,0,0,0,0,0,0,0,0,0],"sum_hessian":[4.1343E4,1.4217E4,2.7126E4,4.218E3,9.999E3,1.3616E4,1.351E4,1.313E3,2.905E3,2.51E3,7.489E3,1.3122E4,4.94E2,6.265E3,7.245E3,1.031E3,2.82E2,1.847E3,1.058E3,1.921E3,5.89E2,6.349E3,1.14E3,7.167E3,5.955E3,1.69E2,3.25E2,2.579E3,3.686E3,5.774E3,1.471E3,1.85E2,8.46E2,3.8E1,2.44E2,1.28E2,1.719E3,2.09E2,8.49E2,5.64E2,1.357E3,5.81E2,8E0,3.266E3,3.083E3,7.78E2,3.62E2,2.538E3,4.629E3,2.06E3,3.895E3,7.3E1,9.6E1,2.52E2,7.3E1,2.054E3,5.25E2,1.78E3,1.906E3,2.296E3,3.478E3,1.179E3,2.92E2,1.82E2,3E0,5.33E2,3.13E2,5E0,3.3E1,2.08E2,3.6E1,5.6E1,7.2E1,5.41E2,1.178E3,1.7E2,3.9E1,1.39E2,7.1E2,3.58E2,2.06E2,2.9E2,1.067E3,5.69E2,1.2E1,3E0,5E0,1.39E3,1.876E3,1.671E3,1.412E3,3.55E2,4.23E2,3.1E1,3.31E2,9.75E2,1.563E3,3.476E3,1.153E3,1.378E3,6.82E2,6.86E2,3.209E3,6.6E1,7E0,3.6E1,6E1,2.2E2,3.2E1,1.2E1,6.1E1,1.966E3,8.8E1,9.4E1,4.31E2,1.373E3,4.07E2,5.03E2,1.403E3,2.11E3,1.86E2,3.208E3,2.7E2,1.72E2,1.007E3,8.8E1,2.04E2],"tree_param":{"num_deleted":"0","num_feature":"22","num_nodes":"127","size_leaf_vector":"1"}},{"base_weights":[-4.6137836E-2,-8.125533E0,4.1237774E0,-5.4652643E-1,-1.1261666E1,8.487774E0,-2.7285928E-1,5.604385E0,-3.1814225E0,-1.5545766E1,-7.4326324E0,1.09676895E1,4.219756E0,4.286484E0,-3.9253669E0,8.788873E0,-3.578069E0,1.8984076E0,-6.790735E0,-1.2297628E1,-2.185121E1,-6.0365396E0,-2.1141644E1,1.5024534E1,8.705953E0,7.967845E0,6.489163E-1,2.9663541E0,1.3601529E1,-1.9003116E0,-1.1843166E1,1.3088555E1,5.4126945E0,-5.44243E0,1.8655127E1,4.9037704E0,-3.2553563E0,-9.367698E0,-3.1352395E-1,-6.1792088E0,-1.5083339E1,-9.635668E0,-2.3310978E1,-3.4410615E0,-1.1738569E1,-2.3798695E1,-4.798614E0,1.55974655E1,8.2101953E-1,1.154172E1,6.095892E0,1.2586759E0,7.371069E0,-5.399525E0,2.7787673E0,6.025715E0,-1.9684777E-1,1.6118475E1,-6.5304023E-1,2.5492334E0,-4.234082E0,-1.5083644E1,-9.058069E-1,1.2006978E-1,6.0898936E-1,2.9040018E-1,-2.292098E-1,-8.141663E-2,-6.9698715E-1,8.452793E-1,1.4744072E-2,1.3237543E-1,5.0965357E-1,3.536238E-1,-2.3609065E-1,-5.217197E-1,-2.3383579E-1,2.569188E-1,-1.6590798E-1,-5.8203095E-1,-1.596168E-1,-6.95542E-1,-3.9380226E-1,-5.753454E-3,-5.603423E-1,-9.6501344E-1,-2.716948E-1,1.3946457E-1,-2.02162E-1,-3.1082952E-1,-6.0410047E-1,-1.0573833E0,-2.93958E-1,3.6836982E-1,-6.9238174E-1,5.26566E-1,7.4101305E-1,6.0169464E-1,-3.1229064E-1,3.6792842E-1,6.520075E-1,5.2434325E-1,1.8646535E-1,4.9651086E-1,1.9519666E-1,-3.7708392E-3,-5.05366E-1,1.7423151E-1,-2.6447952E-1,3.7149107E-1,1.3927537E-1,-5.665237E-1,8.856642E-2,7.0870435E-1,8.2587324E-2,2.1585475E-1,-4.8562565E-1,3.7568244E-1,4.2929288E-2,3.3957057E-2,-2.3724788E-1,-3.8747123E-1,-9.1202396E-1,1.2119289E-1,-8.25835E-1],"categories":[0,2,5,7,8,10,11,12,13,0,2,3,5,6,7,8,10,11,12,13,7,15,16,19,20,21,28,31,32,33,34,35,37,39,40,43,3,6,10,13,15,16,17,19,21,25,28,31,34,35,36,42,43,0,1,2,3,4,7,8,13,14,15,18,19,20,24,26,27,29,31,33,34,35,36,37,42,44,45,47,0,4,5,13,16,17,18,19,20,23,25,26,30,31,33,34,35,37,38,39,41,42,43,44,5,12,0,2,3,4,5,6,7,8,9,10,11,12,13,1,3,5,8,10,11,12,14,17,18,24,25,26,29,30,35,40,41,42,45,46,47,5,0,2,3,4,5,7,8,10,12,13,14,15,16,20,21,23,24,25,28,29,31,32,33,34,35,36,37,38,39,43,44,45,0,5,7,9,13,14,15,16,18,19,20,21,23,26,29,31,32,33,37,38,39,40,43,44,0,2,3,5,6,8,10,11,12,13,0,1,3,6,12,14,20,23,30,31,32,33,39,41,47,3,4,6,15,16,18,19,20,21,31,32,33,35,37,38,40,43,44,0,1,2,3,4,5,6,7,8,9,10,11,12,13,14,15,16,17,18,19,20,21,22,23,24,25,26,27,28,29,30,31,32,33,34,36,37,38,39,40,41,42,43,44,45,46,3,4,13,15,16,17,21,26,32,38,39,40,44,3,4,6,7,8,9,13,14,15,16,17,18,19,20,21,23,28,32,34,35,36,37,38,39,40,42,43,44,0,3,6,9,10,13,15,16,17,19,20,21,22,23,25,26,27,28,29,30,31,33,39,40,10,15,16,17,34,35,43,0,1,2,3,4,5,6,1,3,4,6,7,11,14,19,31,32,33,35,36,37,44,0,2,3,4,8,9,10,11,12,0,2,3,4,6,7,8,9,10,11,13,0,2,3,7,8,10,11,13,0,2,3,4,6,9,13,36,42,44,45,0,2,3,4,5,6,7,8,9,10,11,12,13,7,16,19,21,31,34,35,40,43,3,4,11,13,16,17,21,22,26,27,31,33,34,38,39,41,44,0,1,2,3,4,5,6,7,8,10,11,13,14,28,33,40,0,1,2,3,4,5,6,7,8,9,11,12,13,14,15,16,17,18,19,20,21,22,23,26,27,28,29,30,31,32,33,34,35,36,37,38,39,40,42,43,44,45,0,1,2,6,10,11,12,13,16,19,20,23,24,26,28,31,33,35,36,37,38,39,40,41,42,43,44,45,46,47,0,1,2,8,12,14,18,19,20,27,28,30,31,34,36,38,39,43,44],"categories_nodes":[2,3,5,7,8,9,10,11,12,14,15,17,19,20,21,25,28,29,32,33,34,38,41,43,44,48,52,53,57,58,59,60,61],"categories_segments":[0,9,20,36,53,80,104,106,119,141,142,174,198,208,223,241,287,300,328,352,359,366,381,390,401,409,420,433,442,459,475,517,547],"categories_sizes":[9,11,16,17,27,24,2,13,22,1,32,24,10,15,18,46,13,28,24,7,7,15,9,11,8,11,13,9,17,16,42,30,19],"default_left":[1,0,1,0,0,1,0,1,1,1,1,1,1,1,1,1,1,1,1,1,1,1,1,1,0,1,1,0,1,1,1,0,1,1,1,1,0,1,1,1,1,1,1,1,0,1,1,0,1,1,0,0,1,1,1,0,1,1,1,1,1,1,1,0,0,0,0,0,0,0,0,0,0,0,0,0,0,0,0,0,0,0,0,0,0,0,0,0,0,0,0,0,0,0,0,0,0,0,0,0,0,0,0,0,0,0,0,0,0,0,0,0,0,0,0,0,0,0,0,0,0,0,0,0,0],"id":9,"left_children":[1,3,5,7,9,11,13,15,17,19,21,23,25,27,29,31,33,35,37,39,41,43,45,47,49,51,53,55,57,59,61,63,65,67,69,71,73,75,77,79,81,83,85,87,89,91,93,95,97,99,101,-1,103,105,107,109,111,113,115,117,119,121,123,-1,-1,-1,-1,-1,-1,-1,-1,-1,-1,-1,-1,-1,-1,-1,-1,-1,-1,-1,-1,-1,-1,-1,-1,-1,-1,-1,-1,-1,-1,-1,-1,-1,-1,-1,-1,-1,-1,-1,-1,-1,-1,-1,-1,-1,-1,-1,-1,-1,-1,-1,-1,-1,-1,-1,-1,-1,-1,-1,-1,-1,-1],"loss_changes":[1.3909782E6,3.3402744E5,5.2251762E5,6.684341E4,1.6247112E5,1.4440938E5,2.2606545E5,3.6334066E4,5.300161E4,9.46165E4,9.998703E4,7.860781E4,6.7299555E4,7.40314E4,1.2072187E5,1.2982461E4,1.38415625E4,1.8714652E4,2.8167633E4,5.2434812E4,2.7143188E4,7.052445E4,2.0417719E4,2.5032312E4,4.078303E4,3.2760984E4,3.333444E4,5.1253465E4,2.6904797E4,6.244403E4,5.428411E4,7.799117E3,1.0508448E4,1.1987216E4,1.01666406E3,9.339645E3,1.4106574E4,1.4935195E4,1.2423759E4,1.7663914E4,2.3342406E4,7.1257656E3,1.25375625E4,3.5524984E4,1.880161E4,1.5255E4,1.3490802E4,1.9634438E4,1.5617467E4,2.9001156E4,2.9302086E4,0E0,2.9648328E4,2.5397863E4,2.7480652E4,2.1820734E4,8.627402E4,1.2509984E4,8.298697E3,2.0708537E4,3.2784664E4,4.754928E4,2.74752E4,0E0,0E0,0E0,0E0,0E0,0E0,0E0,0E0,0E0,0E0,0E0,0E0,0E0,0E0,0E0,0E0,0E0,0E0,0E0,0E0,0E0,0E0,0E0,0E0,0E0,0E0,0E0,0E0,0E0,0E0,0E0,0E0,0E0,0E0,0E0,0E0,0E0,0E0,0E0,0E0,0E0,0E0,0E0,0E0,0E0,0E0,0E0,0E0,0E0,0E0,0E0,0E0,0E0,0E0,0E0,0E0,0E0,0E0,0E0,0E0,0E0,0E0],"parents":[2147483647,0,0,1,1,2,2,3,3,4,4,5,5,6,6,7,7,8,8,9,9,10,10,11,11,12,12,13,13,14,14,15,15,16,16,17,17,18,18,19,19,20,20,21,21,22,22,23,23,24,24,25,25,26,26,27,27,28,28,29,29,30,30,31,31,32,32,33,33,34,34,35,35,36,36,37,37,38,38,39,39,40,40,41,41,42,42,43,43,44,44,45,45,46,46,47,47,48,48,49,49,50,50,52,52,53,53,54,54,55,55,56,56,57,57,58,58,59,59,60,60,61,61,62,62],"right_children":[2,4,6,8,10,12,14,16,18,20,22,24,26,28,30,32,34,36,38,40,42,44,46,48,50,52,54,56,58,60,62,64,66,68,70,72,74,76,78,80,82,84,86,88,90,92,94,96,98,100,102,-1,104,106,108,110,112,114,116,118,120,122,124,-1,-1,-1,-1,-1,-1,-1,-1,-1,-1,-1,-1,-1,-1,-1,-1,-1,-1,-1,-1,-1,-1,-1,-1,-1,-1,-1,-1,-1,-1,-1,-1,-1,-1,-1,-1,-1,-1,-1,-1,-1,-1,-1,-1,-1,-1,-1,-1,-1,-1,-1,-1,-1,-1,-1,-1,-1,-1,-1,-1,-1,-1],"split_conditions":[2.3E1,1.05E0,NaN,NaN,2.1E1,NaN,1.35E0,NaN,NaN,NaN,NaN,NaN,NaN,8.189E1,NaN,NaN,8.498E1,NaN,3.651E1,NaN,NaN,NaN,6.235E1,4.68E0,1.28E0,NaN,7.8125E3,9.475E0,NaN,NaN,8.333E1,1E0,NaN,NaN,NaN,6.111E1,7E-2,6.25E3,NaN,1.74E2,5.2631577E3,NaN,3E0,NaN,NaN,1.4285714E4,2.51E0,2.7E1,NaN,6.673E1,2.175E0,1.2586759E0,NaN,NaN,1.82E0,5.2E-1,1.09375E4,NaN,NaN,NaN,NaN,NaN,7.57E0,1.2006978E-1,6.0898936E-1,2.9040018E-1,-2.292098E-1,-8.141663E-2,-6.9698715E-1,8.452793E-1,1.4744072E-2,1.3237543E-1,5.0965357E-1,3.536238E-1,-2.3609065E-1,-5.217197E-1,-2.3383579E-1,2.569188E-1,-1.6590798E-1,-5.8203095E-1,-1.596168E-1,-6.95542E-1,-3.9380226E-1,-5.753454E-3,-5.603423E-1,-9.6501344E-1,-2.716948E-1,1.3946457E-1,-2.02162E-1,-3.1082952E-1,-6.0410047E-1,-1.0573833E0,-2.93958E-1,3.6836982E-1,-6.9238174E-1,5.26566E-1,7.4101305E-1,6.0169464E-1,-3.1229064E-1,3.6792842E-1,6.520075E-1,5.2434325E-1,1.8646535E-1,4.9651086E-1,1.9519666E-1,-3.7708392E-3,-5.05366E-1,1.7423151E-1,-2.6447952E-1,3.7149107E-1,1.3927537E-1,-5.665237E-1,8.856642E-2,7.0870435E-1,8.2587324E-2,2.1585475E-1,-4.8562565E-1,3.7568244E-1,4.2929288E-2,3.3957057E-2,-2.3724788E-1,-3.8747123E-1,-9.1202396E-1,1.2119289E-1,-8.25835E-1],"split_indices":[4,15,1,1,4,12,15,12,9,12,1,1,9,16,1,9,16,12,16,1,9,12,16,15,15,12,21,14,12,12,16,18,12,12,9,16,15,21,12,0,21,1,19,1,1,21,15,4,12,16,14,0,1,12,15,15,21,9,9,12,9,12,15,0,0,0,0,0,0,0,0,0,0,0,0,0,0,0,0,0,0,0,0,0,0,0,0,0,0,0,0,0,0,0,0,0,0,0,0,0,0,0,0,0,0,0,0,0,0,0,0,0,0,0,0,0,0,0,0,0,0,0,0,0,0],"split_type":[0,0,1,1,0,1,0,1,1,1,1,1,1,0,1,1,0,1,0,1,1,1,0,0,0,1,0,0,1,1,0,0,1,1,1,0,0,0,1,0,0,1,0,1,1,0,0,0,1,0,0,0,1,1,0,0,0,1,1,1,1,1,0,0,0,0,0,0,0,0,0,0,0,0,0,0,0,0,0,0,0,0,0,0,0,0,0,0,0,0,0,0,0,0,0,0,0,0,0,0,0,0,0,0,0,0,0,0,0,0,0,0,0,0,0,0,0,0,0,0,0,0,0,0,0],"sum_hessian":[4.1277E4,1.405E4,2.7227E4,4.114E3,9.936E3,1.3662E4,1.3565E4,1.232E3,2.882E3,4.682E3,5.254E3,8.636E3,5.026E3,6.033E3,7.532E3,9.15E2,3.17E2,1.198E3,1.684E3,3.1E3,1.582E3,4.775E3,4.79E2,3.081E3,5.555E3,2.449E3,2.577E3,5.29E3,7.43E2,6.003E3,1.529E3,3.96E2,5.19E2,2.96E2,2.1E1,7.57E2,4.41E2,1.203E3,4.81E2,9.75E2,2.125E3,1.73E2,1.409E3,3.287E3,1.488E3,4.1E2,6.9E1,2.961E3,1.2E2,2.654E3,2.901E3,5.5E1,2.394E3,6.69E2,1.908E3,2.687E3,2.603E3,6.31E2,1.12E2,2.065E3,3.938E3,1.178E3,3.51E2,6.7E1,3.29E2,4.49E2,7E1,2.34E2,6.2E1,1.8E1,3E0,6.31E2,1.26E2,7.6E1,3.65E2,5.98E2,6.05E2,1.73E2,3.08E2,2.02E2,7.73E2,1.511E3,6.14E2,5.5E1,1.18E2,1.36E3,4.9E1,6.06E2,2.681E3,6.66E2,8.22E2,3.56E2,5.4E1,3.3E1,3.6E1,1.544E3,1.417E3,4.4E1,7.6E1,1.744E3,9.1E2,5.07E2,2.394E3,8.09E2,1.585E3,3.86E2,2.83E2,1.641E3,2.67E2,1.2E3,1.487E3,3.8E2,2.223E3,5.72E2,5.9E1,7.5E1,3.7E1,3.68E2,1.697E3,9.61E2,2.977E3,6.86E2,4.92E2,2.96E2,5.5E1],"tree_param":{"num_deleted":"0","num_feature":"22","num_nodes":"125","size_leaf_vector":"1"}},{"base_weights":[-1.4049958E-1,4.5449038E0,-4.564608E0,1.9269106E0,1.08124895E1,1.1495718E0,-8.104723E0,6.586275E0,-7.7727133E-1,1.6536983E1,9.098144E0,2.4105523E0,-1.2213873E1,-6.2469764E0,-1.616077E1,8.582967E0,1.5628296E0,-5.7126346E0,9.1628414E-1,1.8494019E1,1.0229764E1,6.9356823E0,1.2424962E1,-2.2804377E0,5.132511E0,-3.211371E0,-1.760516E1,-5.0852656E0,-1.7160513E1,-1.8949415E1,-6.883121E0,9.874798E0,3.6437192E0,-5.5637946E0,2.994178E0,-2.0855434E0,-1.5901543E1,8.5956E0,-5.037144E-1,2.1430204E1,1.626469E1,1.3094933E1,2.9464772E0,8.817401E0,1.7401061E0,1.4738653E1,6.9938364E0,7.0885926E-1,-1.1107411E1,1.0036937E1,1.7048478E0,-1.8437885E1,-1.3317572E0,-1.9456562E1,-6.520935E0,-3.3711638E0,-1.101383E1,-9.853057E0,-1.9871109E1,-1.3671984E1,-2.3896912E1,8.687587E0,-1.5222956E1,4.68914E-1,2.8244978E-1,1.9810577E-1,-5.9448767E-1,2.57443E-1,-4.739616E-1,3.0270326E-1,4.593664E-3,2.3363698E-1,-1.7536993E-1,-1.4939885E-1,-7.944157E-1,4.1502005E-1,-1.0189277E-2,5.7224963E-2,-2.2280957E-1,9.2872715E-1,6.793951E-1,6.917156E-1,2.0598888E-1,5.5915964E-1,-6.7039615E-1,3.9672613E-1,-2.784868E-1,4.613765E-1,2.3471351E-1,2.169522E-1,-1.7068604E-1,4.117334E-1,6.5146446E-1,3.0164896E-2,4.3561515E-1,7.211939E-2,-5.1676947E-1,-5.7991326E-1,-2.0238815E-1,4.5735043E-1,1.7767692E-1,-1.6334696E-1,1.942706E-1,2.9544997E-1,-1.0250678E0,-4.0203297E-1,3.9260916E-2,-6.257657E-1,-1.0091705E0,4.0036294E-1,-4.5074254E-1,-1.9986553E-1,6.5520994E-2,-3.3397242E-1,-6.12029E-1,-9.504786E-1,-2.8069374E-1,-8.4442264E-1,-5.0233877E-1,-7.279043E-1,-1.4664929E-1,3.3235005E-1,-9.824575E-1,6.795593E-1,5.899323E-2,-9.6833235E-1,-3.8396356E-1],"categories":[0,2,3,5,7,8,10,11,12,13,0,2,3,5,7,8,10,11,12,13,0,2,3,4,5,6,7,8,9,10,11,12,13,5,12,13,0,3,4,18,19,24,25,31,35,38,39,40,43,47,1,3,6,10,13,16,17,19,20,21,23,25,26,31,34,35,36,37,38,40,43,44,3,7,19,30,36,43,45,47,0,1,3,6,10,12,13,14,16,17,19,20,21,22,23,25,26,27,29,30,31,32,33,34,35,36,37,38,39,40,42,43,44,45,47,1,3,6,10,17,18,21,22,23,24,26,28,30,31,33,34,37,38,40,41,45,6,9,19,22,30,31,32,34,38,40,42,43,45,47,0,2,3,5,6,7,8,9,10,11,12,13,0,2,3,4,5,6,7,8,9,10,11,12,13,0,1,3,4,6,8,12,13,14,15,16,17,18,20,21,22,23,24,26,27,28,29,31,32,33,34,35,36,38,40,41,44,45,47,0,1,2,6,7,8,12,14,16,18,20,31,32,33,35,37,38,39,42,43,44,47,4,5,15,17,18,19,20,21,24,25,26,28,31,34,35,40,42,43,46,47,1,3,6,13,19,23,26,33,35,37,39,41,42,45,47,0,1,2,4,5,7,8,9,10,11,12,13,14,15,16,18,21,22,23,24,25,26,27,28,29,30,31,32,33,36,37,38,39,41,42,43,44,45,46,47,1,3,4,7,10,13,14,17,19,20,21,24,25,27,31,32,33,37,38,40,44,47,0,1,2,7,10,15,17,18,19,23,28,34,35,37,38,41,47,0,1,3,4,5,8,10,14,16,17,18,19,20,21,22,23,25,29,30,31,32,34,35,39,40,42,43,46,1,4,9,0,1,2,4,5,6,7,8,9,10,11,12,13,14,15,17,18,19,20,21,22,23,24,25,27,28,30,32,33,35,37,38,39,40,41,42,45,47],"categories_nodes":[2,3,4,6,7,9,12,19,22,28,31,34,35,36,37,38,42,43,44,49,51,60],"categories_segments":[0,10,20,33,36,50,72,80,115,136,150,162,175,209,231,251,266,306,328,345,373,376],"categories_sizes":[10,10,13,3,14,22,8,35,21,14,12,13,34,22,20,15,40,22,17,28,3,38],"default_left":[0,1,0,1,1,0,0,1,1,1,0,1,1,0,1,0,0,0,0,1,0,0,1,0,0,1,1,0,1,0,0,1,0,0,1,1,1,1,1,0,0,0,1,1,1,0,0,1,0,1,0,1,0,0,0,1,0,0,1,1,1,0,0,0,0,0,0,0,0,0,0,0,0,0,0,0,0,0,0,0,0,0,0,0,0,0,0,0,0,0,0,0,0,0,0,0,0,0,0,0,0,0,0,0,0,0,0,0,0,0,0,0,0,0,0,0,0,0,0,0,0,0,0,0,0,0,0],"id":10,"left_children":[1,3,5,7,9,11,13,15,17,19,21,23,25,27,29,31,33,35,37,39,41,43,45,47,49,51,53,55,57,59,61,63,65,67,69,71,73,75,77,79,81,83,85,87,89,91,93,95,97,99,101,103,105,107,109,111,113,115,117,119,121,123,125,-1,-1,-1,-1,-1,-1,-1,-1,-1,-1,-1,-1,-1,-1,-1,-1,-1,-1,-1,-1,-1,-1,-1,-1,-1,-1,-1,-1,-1,-1,-1,-1,-1,-1,-1,-1,-1,-1,-1,-1,-1,-1,-1,-1,-1,-1,-1,-1,-1,-1,-1,-1,-1,-1,-1,-1,-1,-1,-1,-1,-1,-1,-1,-1],"loss_changes":[8.526972E5,3.2769197E5,4.280557E5,1.7766295E5,5.6976125E4,1.3659717E5,1.9500475E5,5.185953E4,7.46289E4,1.5688969E4,3.2211031E4,9.460069E4,3.3622516E4,1.3424916E5,6.2579312E4,2.3440625E4,1.5167535E4,8.4113055E4,7.253455E4,4.9223438E3,6.698297E3,2.69255E4,2.1855375E4,7.187367E4,7.869452E4,7.527607E3,8.286953E3,9.745834E4,1.9195031E4,4.7337375E4,7.507592E4,1.4209406E4,1.8280611E4,1.8700566E4,1.5985054E4,3.0061402E4,2.7038172E4,1.5404695E4,5.406177E4,1.082625E3,5.2860938E3,6.346922E3,7.1012715E3,1.5510453E4,1.6151432E4,6.9862188E3,1.2768801E4,2.9697566E4,1.3251523E4,1.36583125E4,4.940339E4,6.1197617E3,4.900364E3,6.1537188E3,5.8824146E3,5.8715344E4,2.3806734E4,1.0515549E4,4.307125E3,3.9763312E4,1.3865625E4,1.1786561E4,1.7579344E4,0E0,0E0,0E0,0E0,0E0,0E0,0E0,0E0,0E0,0E0,0E0,0E0,0E0,0E0,0E0,0E0,0E0,0E0,0E0,0E0,0E0,0E0,0E0,0E0,0E0,0E0,0E0,0E0,0E0,0E0,0E0,0E0,0E0,0E0,0E0,0E0,0E0,0E0,0E0,0E0,0E0,0E0,0E0,0E0,0E0,0E0,0E0,0E0,0E0,0E0,0E0,0E0,0E0,0E0,0E0,0E0,0E0,0E0,0E0,0E0,0E0,0E0,0E0,0E0],"parents":[2147483647,0,0,1,1,2,2,3,3,4,4,5,5,6,6,7,7,8,8,9,9,10,10,11,11,12,12,13,13,14,14,15,15,16,16,17,17,18,18,19,19,20,20,21,21,22,22,23,23,24,24,25,25,26,26,27,27,28,28,29,29,30,30,31,31,32,32,33,33,34,34,35,35,36,36,37,37,38,38,39,39,40,40,41,41,42,42,43,43,44,44,45,45,46,46,47,47,48,48,49,49,50,50,51,51,52,52,53,53,54,54,55,55,56,56,57,57,58,58,59,59,60,60,61,61,62,62],"right_children":[2,4,6,8,10,12,14,16,18,20,22,24,26,28,30,32,34,36,38,40,42,44,46,48,50,52,54,56,58,60,62,64,66,68,70,72,74,76,78,80,82,84,86,88,90,92,94,96,98,100,102,104,106,108,110,112,114,116,118,120,122,124,126,-1,-1,-1,-1,-1,-1,-1,-1,-1,-1,-1,-1,-1,-1,-1,-1,-1,-1,-1,-1,-1,-1,-1,-1,-1,-1,-1,-1,-1,-1,-1,-1,-1,-1,-1,-1,-1,-1,-1,-1,-1,-1,-1,-1,-1,-1,-1,-1,-1,-1,-1,-1,-1,-1,-1,-1,-1,-1,-1,-1,-1,-1,-1,-1],"split_conditions":[2.01E0,6.576E1,NaN,NaN,NaN,1E0,NaN,NaN,1.25E-1,NaN,8.735E1,1E-1,NaN,1E0,1.2E4,9.9E-1,1E-1,5.4E0,5.175E0,NaN,1.2E0,1.2E0,NaN,7.36E0,9.475E0,4.347826E3,4.626E1,1E2,NaN,5E0,2.45E1,NaN,1E0,2.23E0,NaN,NaN,NaN,NaN,NaN,3E1,1E0,2.67075E2,NaN,NaN,NaN,4E0,5E0,6.06E0,2E0,NaN,3.75E-1,NaN,2E0,1.9725E1,2E0,6.576E1,5.55E0,2.58E1,5.222E1,5E-2,NaN,1E1,6.25E-1,4.68914E-1,2.8244978E-1,1.9810577E-1,-5.9448767E-1,2.57443E-1,-4.739616E-1,3.0270326E-1,4.593664E-3,2.3363698E-1,-1.7536993E-1,-1.4939885E-1,-7.944157E-1,4.1502005E-1,-1.0189277E-2,5.7224963E-2,-2.2280957E-1,9.2872715E-1,6.793951E-1,6.917156E-1,2.0598888E-1,5.5915964E-1,-6.7039615E-1,3.9672613E-1,-2.784868E-1,4.613765E-1,2.3471351E-1,2.169522E-1,-1.7068604E-1,4.117334E-1,6.5146446E-1,3.0164896E-2,4.3561515E-1,7.211939E-2,-5.1676947E-1,-5.7991326E-1,-2.0238815E-1,4.5735043E-1,1.7767692E-1,-1.6334696E-1,1.942706E-1,2.9544997E-1,-1.0250678E0,-4.0203297E-1,3.9260916E-2,-6.257657E-1,-1.0091705E0,4.0036294E-1,-4.5074254E-1,-1.9986553E-1,6.5520994E-2,-3.3397242E-1,-6.12029E-1,-9.504786E-1,-2.8069374E-1,-8.4442264E-1,-5.0233877E-1,-7.279043E-1,-1.4664929E-1,3.3235005E-1,-9.824575E-1,6.795593E-1,5.899323E-2,-9.6833235E-1,-3.8396356E-1],"split_indices":[15,16,1,1,1,6,1,9,7,9,16,7,9,6,21,15,7,14,14,9,15,15,9,14,14,21,16,7,9,14,14,1,6,14,1,9,9,9,9,14,5,14,9,9,9,18,18,15,13,9,7,1,18,14,18,16,14,16,16,7,9,18,7,0,0,0,0,0,0,0,0,0,0,0,0,0,0,0,0,0,0,0,0,0,0,0,0,0,0,0,0,0,0,0,0,0,0,0,0,0,0,0,0,0,0,0,0,0,0,0,0,0,0,0,0,0,0,0,0,0,0,0,0,0,0,0,0],"split_type":[0,0,1,1,1,0,1,1,0,1,0,0,1,0,0,0,0,0,0,1,0,0,1,0,0,0,0,0,1,0,0,1,0,0,1,1,1,1,1,0,0,0,1,1,1,0,0,0,0,1,0,1,0,0,0,0,0,0,0,0,1,0,0,0,0,0,0,0,0,0,0,0,0,0,0,0,0,0,0,0,0,0,0,0,0,0,0,0,0,0,0,0,0,0,0,0,0,0,0,0,0,0,0,0,0,0,0,0,0,0,0,0,0,0,0,0,0,0,0,0,0,0,0,0,0,0,0],"sum_hessian":[4.1126E4,1.9973E4,2.1153E4,1.4093E4,5.88E3,8.093E3,1.306E4,5.173E3,8.92E3,1.345E3,4.535E3,7.399E3,6.94E2,1.062E4,2.44E3,3.699E3,1.474E3,2.276E3,6.644E3,1.019E3,3.26E2,2.758E3,1.777E3,2.717E3,4.682E3,2.63E2,4.31E2,9.605E3,1.015E3,1.872E3,5.68E2,2.928E3,7.71E2,2.44E2,1.23E3,1.683E3,5.93E2,1.033E3,5.611E3,4.21E2,5.98E2,2.31E2,9.5E1,2.022E3,7.36E2,1.24E3,5.37E2,2.033E3,6.84E2,1.922E3,2.76E3,2.4E1,2.39E2,3.66E2,6.5E1,7.457E3,2.148E3,2.81E2,7.34E2,9.15E2,9.57E2,1.98E2,3.7E2,1.821E3,1.107E3,7.25E2,4.6E1,8.3E1,1.61E2,4.77E2,7.53E2,3.73E2,1.31E3,1.42E2,4.51E2,8.68E2,1.65E2,4.059E3,1.552E3,3E2,1.21E2,5.53E2,4.5E1,2.28E2,3E0,5.6E1,3.9E1,1.077E3,9.45E2,4.58E2,2.78E2,2.99E2,9.41E2,2.05E2,3.32E2,1.887E3,1.46E2,4.42E2,2.42E2,1.562E3,3.6E2,9.67E2,1.793E3,5E0,1.9E1,4.7E1,1.92E2,2.24E2,1.42E2,1.3E1,5.2E1,5.669E3,1.788E3,1.299E3,8.49E2,4.3E1,2.38E2,6.37E2,9.7E1,6.36E2,2.79E2,1.1E1,9.46E2,9E1,1.08E2,1.4E2,2.3E2],"tree_param":{"num_deleted":"0","num_feature":"22","num_nodes":"127","size_leaf_vector":"1"}},{"base_weights":[-1.52654555E-2,-9.726572E0,3.1323597E0,-4.307844E0,-1.2938608E1,7.108372E0,-8.955818E-1,1.5808706E-1,-7.1758323E0,-1.0506564E1,-1.9432503E1,9.576602E0,2.8999927E0,-3.0698922E0,4.2943034E0,4.5526624E0,-4.4544125E0,-2.3579488E0,-9.808133E0,-8.929816E0,-2.0714594E1,-2.167683E1,-1.5235328E1,5.897895E0,1.2088526E1,-7.59099E-1,7.1891623E0,1.2271029E0,-5.387453E0,7.99258E0,1.4615031E0,8.511979E0,-2.8857822E0,-2.0415125E0,-1.1751821E1,4.7072496E0,-4.458261E0,-7.7758617E0,-1.4453092E1,-1.3385485E1,-6.1114745E0,-2.3195602E1,9.025548E0,-1.8727018E1,-2.6812185E1,-6.393238E0,-1.802374E1,8.164152E0,2.4527133E0,1.3511026E1,7.033083E0,3.3581746E0,-5.8155684E0,1.0318337E1,3.7279844E0,9.508738E0,-2.9205588E-1,-3.5119455E0,-1.3365792E1,1.782816E1,6.7981386E0,3.7712004E0,-2.2928722E0,4.8693272E-1,-2.0610183E-2,2.0143506E-1,-3.0611908E-1,-2.575315E-1,5.659042E-2,-5.8456707E-1,4.0883224E-2,-4.8908138E-1,2.7133664E-1,-2.5426975E-1,5.0919946E-2,-6.893739E-1,-2.4687432E-1,-6.86148E-1,-8.1054874E-2,-2.6516744E-1,-6.0658723E-1,-7.0944645E-2,-3.5895103E-1,-5.8912337E-1,-1.0264455E0,6.6467214E-1,-2.643668E-1,-9.016576E-1,-5.4322493E-1,-8.419826E-1,-1.1677563E0,3.043756E-1,-3.8823488E-1,-8.663992E-1,-4.221834E-1,6.3786346E-1,2.5744337E-1,1.7585228E-1,-1.967713E-1,4.7444066E-1,7.1824145E-1,-1.2642147E-1,3.6694527E-1,3.0022305E-1,2.490971E-2,-4.919334E-1,-8.258979E-2,4.7518536E-1,9.258825E-2,3.4052676E-1,4.3448992E-2,5.6725276E-1,2.3559333E-1,7.157815E-2,-1.921697E-1,2.5588429E-2,-2.604328E-1,-2.7756163E-1,-8.2440627E-1,2.6980126E-1,8.4383744E-1,2.0674658E-1,4.200837E-1,3.078031E-1,3.3906147E-2,-3.6769185E-2,-3.1903598E-1],"categories":[0,4,17,23,24,29,31,32,33,35,37,38,39,43,44,47,0,2,5,7,8,10,11,12,13,0,2,3,5,8,10,11,12,13,4,8,13,15,16,17,18,19,20,21,30,31,33,34,35,41,42,43,44,3,6,7,15,16,19,20,21,31,32,33,34,35,37,40,43,44,0,3,7,10,14,15,16,17,19,20,28,30,34,36,38,43,44,1,3,8,9,11,14,18,19,27,30,34,41,42,45,5,10,12,13,1,2,5,13,15,18,19,20,23,24,26,28,33,34,35,37,38,40,42,43,44,47,4,6,7,9,13,14,15,16,17,19,21,22,26,29,31,32,33,36,39,40,42,43,44,3,10,15,19,20,36,38,43,44,1,2,3,5,6,7,9,11,12,14,17,18,19,20,21,22,23,27,28,29,30,31,32,33,36,37,38,39,43,2,3,5,7,8,9,19,31,32,37,38,42,43,44,19,30,33,34,35,1,11,18,22,23,27,30,31,35,42,47,0,1,2,4,5,7,8,9,10,11,12,13,14,16,17,18,19,21,22,23,24,25,26,27,28,29,30,33,36,38,39,40,41,42,43,45,46,2,3,4,6,7,8,9,12,13,14,15,16,17,18,19,20,21,23,25,26,27,28,30,31,32,34,36,37,38,40,42,45,5,1,2,3,4,5,6,7,8,9,11,12,13,14,15,16,17,18,19,20,21,22,23,24,26,28,29,30,31,32,33,34,36,37,38,39,40,41,42,43,44,45,46,1,2,3,5,8,10,11,16,17,21,22,23,24,25,27,28,30,31,33,37,38,40,41,45,46,47,0,2,3,4,5,7,8,10,13,14,16,17,20,21,23,24,25,26,29,30,31,32,33,34,35,36,37,38,39,41,43,44,47,2,3,6,7,12,14,23,25,27,28,29,32,36,37,38,39,40,0,2,5,6,7,9,11,12,14,22,24,26,27,28,29,36,37,38,45,12,37,40,0,1,2,3,4,5,6,7,8,9,10,11,12,13,14,15,16,17,18,19,31,33,41,42,0,3,4,7,8,10,14,15,16,18,20,21,22,23,24,25,27,29,30,31,32,33,34,35,36,37,38,39,40,42,43,44,45,46,47,3,4,5,6,8,10,11,15,16,17,21,22,23,24,25,26,27,28,29,31,33,36,37,38,43,45,0,1,2,3,4,5,8,9,10,11,12,13,14,15,17,18,19,22,23,24,25,26,27,28,29,30,32,36,37,38,39,40,41,42,45,46,0,2,3,5,7,8,10,11,12,13,0,2,3,4,5,6,7,8,9,10,11,12,13,2,6,8,9,13,14,15,16,18,19,20,21,31,32,34,35,36,37,38,39,40,41,43,1,3,4,6,8,9,12,18,19,20,24,25,27,30,31,34,35,36,37,38,39,43,6,7,19,21,26,29,36,42,44],"categories_nodes":[1,2,3,4,5,7,8,9,13,14,16,17,18,21,25,26,27,28,29,30,31,40,41,42,45,47,48,51,53,54,57,58,62],"categories_segments":[0,16,25,34,53,70,87,101,105,127,150,159,188,202,207,218,255,287,288,330,356,389,406,425,428,452,487,513,549,559,572,595,617],"categories_sizes":[16,9,9,19,17,17,14,4,22,23,9,29,14,5,11,37,32,1,42,26,33,17,19,3,24,35,26,36,10,13,23,22,9],"default_left":[1,1,1,1,1,1,1,1,1,1,0,0,0,1,1,0,1,1,1,1,1,1,0,0,0,1,1,1,1,1,1,1,0,1,1,0,1,0,0,0,1,1,1,1,0,1,1,1,1,1,0,1,1,1,1,0,0,1,1,0,0,0,1,0,0,0,0,0,0,0,0,0,0,0,0,0,0,0,0,0,0,0,0,0,0,0,0,0,0,0,0,0,0,0,0,0,0,0,0,0,0,0,0,0,0,0,0,0,0,0,0,0,0,0,0,0,0,0,0,0,0,0,0,0,0,0,0],"id":11,"left_children":[1,3,5,7,9,11,13,15,17,19,21,23,25,27,29,31,33,35,37,39,41,43,45,47,49,51,53,55,57,59,61,63,65,67,69,71,73,75,77,79,81,83,85,87,89,91,93,95,97,99,101,103,105,