{"learner":{"attributes":{"scikit_learn":"{\"_estimator_type\": \"regressor\"}"},"feature_names":["height","mainPosition","positionGroup","foot","transfer_age_grouped","isLoan","wasLoan","marketvalue_closest","foreign_transfer","from_competition_competition_area","from_competition_competition_level","fromTeam_marketValue","to_competition_competition_area","to_competition_competition_level","toTeam_marketValue","percentage_played_before","was_joker","scorer_before_grouped","clean_sheets_before_grouped"],"feature_types":["float","c","c","c","c","i","i","float","int","c","float","float","c","float","float","float","c","c","c"],"gradient_booster":{"model":{"gbtree_model_param":{"num_parallel_tree":"1","num_trees":"278"},"iteration_indptr":[0,1,2,3,4,5,6,7,8,9,10,11,12,13,14,15,16,17,18,19,20,21,22,23,24,25,26,27,28,29,30,31,32,33,34,35,36,37,38,39,40,41,42,43,44,45,46,47,48,49,50,51,52,53,54,55,56,57,58,59,60,61,62,63,64,65,66,67,68,69,70,71,72,73,74,75,76,77,78,79,80,81,82,83,84,85,86,87,88,89,90,91,92,93,94,95,96,97,98,99,100,101,102,103,104,105,106,107,108,109,110,111,112,113,114,115,116,117,118,119,120,121,122,123,124,125,126,127,128,129,130,131,132,133,134,135,136,137,138,139,140,141,142,143,144,145,146,147,148,149,150,151,152,153,154,155,156,157,158,159,160,161,162,163,164,165,166,167,168,169,170,171,172,173,174,175,176,177,178,179,180,181,182,183,184,185,186,187,188,189,190,191,192,193,194,195,196,197,198,199,200,201,202,203,204,205,206,207,208,209,210,211,212,213,214,215,216,217,218,219,220,221,222,223,224,225,226,227,228,229,230,231,232,233,234,235,236,237,238,239,240,241,242,243,244,245,246,247,248,249,250,251,252,253,254,255,256,257,258,259,260,261,262,263,264,265,266,267,268,269,270,271,272,273,274,275,276,277,278],"tree_info":[0,0,0,0,0,0,0,0,0,0,0,0,0,0,0,0,0,0,0,0,0,0,0,0,0,0,0,0,0,0,0,0,0,0,0,0,0,0,0,0,0,0,0,0,0,0,0,0,0,0,0,0,0,0,0,0,0,0,0,0,0,0,0,0,0,0,0,0,0,0,0,0,0,0,0,0,0,0,0,0,0,0,0,0,0,0,0,0,0,0,0,0,0,0,0,0,0,0,0,0,0,0,0,0,0,0,0,0,0,0,0,0,0,0,0,0,0,0,0,0,0,0,0,0,0,0,0,0,0,0,0,0,0,0,0,0,0,0,0,0,0,0,0,0,0,0,0,0,0,0,0,0,0,0,0,0,0,0,0,0,0,0,0,0,0,0,0,0,0,0,0,0,0,0,0,0,0,0,0,0,0,0,0,0,0,0,0,0,0,0,0,0,0,0,0,0,0,0,0,0,0,0,0,0,0,0,0,0,0,0,0,0,0,0,0,0,0,0,0,0,0,0,0,0,0,0,0,0,0,0,0,0,0,0,0,0,0,0,0,0,0,0,0,0,0,0,0,0,0,0,0,0,0,0,0,0,0,0,0,0,0,0,0,0,0,0,0,0,0,0,0,0,0,0,0,0,0,0],"trees":[{"base_weights":[-6.2236026E-2,3.6831331E0,-5.922842E0,4.664891E0,-1.0580068E1,-4.7961855E0,-2.161995E1,7.4163145E-1,2.5846028E-1,-6.363331E-1,-1.5536215E0,-2.1023896E-1,-1.0648959E0,-2.5960748E0,-1.6298549E0],"categories":[0,1,5],"categories_nodes":[3],"categories_segments":[0],"categories_sizes":[3],"default_left":[0,0,0,0,0,0,0,0,0,0,0,0,0,0,0],"id":0,"left_children":[1,3,5,7,9,11,13,-1,-1,-1,-1,-1,-1,-1,-1],"loss_changes":[3.10579E5,1.2090556E5,9.738656E4,4.941747E4,1.2316402E4,8.54244E4,8.816219E3,0E0,0E0,0E0,0E0,0E0,0E0,0E0,0E0],"parents":[2147483647,0,0,1,1,2,2,3,3,4,4,5,5,6,6],"right_children":[2,4,6,8,10,12,14,-1,-1,-1,-1,-1,-1,-1,-1],"split_conditions":[8.00001E0,1E0,1E0,NaN,6.49E1,2.3E1,1.75E-1,7.4163145E-1,2.5846028E-1,-6.363331E-1,-1.5536215E0,-2.1023896E-1,-1.0648959E0,-2.5960748E0,-1.6298549E0],"split_indices":[10,6,6,18,14,7,7,0,0,0,0,0,0,0,0],"split_type":[0,0,0,1,0,0,0,0,0,0,0,0,0,0,0],"sum_hessian":[1.4147E4,8.631E3,5.516E3,8.076E3,5.55E2,5.148E3,3.68E2,3.067E3,5.009E3,3.35E2,2.2E2,3.678E3,1.47E3,1.57E2,2.11E2],"tree_param":{"num_deleted":"0","num_feature":"19","num_nodes":"15","size_leaf_vector":"1"}},{"base_weights":[-2.3889048E-1,3.3993938E0,-1.1402441E1,8.0609E0,1.0235131E0,-4.4237533E0,-1.5351124E1,1.0630358E0,4.6428856E-1,4.5604077E-1,-2.6344237E-1,2.3951508E-2,-7.467577E-1,-1.0917051E0,-2.1416602E0],"categories":[0,1,3,4,6,7,8,9,13,14,15,16,17,18,19,20,21,27,30,31,32,33,35,36,39,41,42,43,46,0,3,16,17,18,22,23,27,29,33,38,39,40,43,0,3,4,5,12,16,20,24,27,29,31,39,43,0,1,9,15,16,18,21,22,23,25,29,33,35,36,37,39,41,42,43,1,2,9,14,16,19,27,31,33,34,37,41,4,5,8,13,16,17,18,19,20,22,28,29,30,32,33,34,35,36,37,39,42,43],"categories_nodes":[0,1,2,3,4,5,6],"categories_segments":[0,2,29,43,56,75,87],"categories_sizes":[2,27,14,13,19,12,22],"default_left":[0,1,1,1,1,1,1,0,0,0,0,0,0,0,0],"id":1,"left_children":[1,3,5,7,9,11,13,-1,-1,-1,-1,-1,-1,-1,-1],"loss_changes":[5.699076E5,1.1716209E5,9.491556E4,3.5547094E4,1.0105771E5,2.0198248E4,6.078528E4,0E0,0E0,0E0,0E0,0E0,0E0,0E0,0E0],"parents":[2147483647,0,0,1,1,2,2,3,3,4,4,5,5,6,6],"right_children":[2,4,6,8,10,12,14,-1,-1,-1,-1,-1,-1,-1,-1],"split_conditions":[NaN,NaN,NaN,NaN,NaN,NaN,NaN,1.0630358E0,4.6428856E-1,4.5604077E-1,-2.6344237E-1,2.3951508E-2,-7.467577E-1,-1.0917051E0,-2.1416602E0],"split_indices":[4,12,9,9,9,12,12,0,0,0,0,0,0,0,0],"split_type":[1,1,1,1,1,1,1,0,0,0,0,0,0,0,0],"sum_hessian":[1.4029E4,1.0581E4,3.448E3,3.571E3,7.01E3,1.247E3,2.201E3,1.785E3,1.786E3,3.512E3,3.498E3,5.3E2,7.17E2,1.442E3,7.59E2],"tree_param":{"num_deleted":"0","num_feature":"19","num_nodes":"15","size_leaf_vector":"1"}},{"base_weights":[1.3733758E-1,3.5624533E0,-1.0299098E1,7.218954E0,1.0604489E0,-8.033069E0,-1.8491829E1,6.126473E-1,1.7221612E0,-3.701106E-1,3.0356088E-1,-1.070397E0,-3.0248773E-1,-7.566897E-1,-2.035499E0],"categories":[0,1,4,6,7,8,9,13,14,15,16,18,19,20,21,30,31,32,33,35,36,38,39,41,43,46,5,7,15,16,17,18,19,20,29,30,32,33,34,36,42,43,0],"categories_nodes":[0,1,2,6],"categories_segments":[0,2,26,42],"categories_sizes":[2,24,16,1],"default_left":[0,1,1,1,0,0,0,0,0,0,0,0,0,0,0],"id":2,"left_children":[1,3,5,7,9,11,13,-1,-1,-1,-1,-1,-1,-1,-1],"loss_changes":[4.988162E5,9.609164E4,6.3783844E4,3.5055203E4,6.641678E4,4.2611062E4,2.3161281E4,0E0,0E0,0E0,0E0,0E0,0E0,0E0,0E0],"parents":[2147483647,0,0,1,1,2,2,3,3,4,4,5,5,6,6],"right_children":[2,4,6,8,10,12,14,-1,-1,-1,-1,-1,-1,-1,-1],"split_conditions":[NaN,NaN,NaN,3.6E0,1.145E0,4.85E0,NaN,6.126473E-1,1.7221612E0,-3.701106E-1,3.0356088E-1,-1.070397E0,-3.0248773E-1,-7.566897E-1,-2.035499E0],"split_indices":[4,12,12,7,11,11,18,0,0,0,0,0,0,0,0],"split_type":[1,1,1,0,0,0,1,0,0,0,0,0,0,0,0],"sum_hessian":[1.3953E4,1.0506E4,3.447E3,4.267E3,6.239E3,2.702E3,7.45E2,3.994E3,2.73E2,1.88E3,4.359E3,1.613E3,1.089E3,1.66E2,5.79E2],"tree_param":{"num_deleted":"0","num_feature":"19","num_nodes":"15","size_leaf_vector":"1"}},{"base_weights":[7.389189E-3,2.9777555E0,-9.133446E0,3.6946642E0,-9.982988E0,-5.665199E0,-1.3975795E1,7.3567575E-1,1.5844126E-1,-5.5234087E-1,-1.4932275E0,-8.183369E-1,-8.475921E-2,-7.128913E-2,-1.4911828E0],"categories":[0,1,0,5,6,9,13,15,16,17,18,19,20,22,26,28,29,30,31,32,33,34,36,37,41,42,43,3,4,6,7,8,9,13,14,15,16,17,18,19,20,27,28,30,31,32,35,36,37,38,39,41,42,43,46,9,15,16,19,20,29,33,39,42,0,1],"categories_nodes":[0,2,3,4,6],"categories_segments":[0,2,27,55,64],"categories_sizes":[2,25,28,9,2],"default_left":[0,0,1,1,1,0,0,0,0,0,0,0,0,0,0],"id":3,"left_children":[1,3,5,7,9,11,13,-1,-1,-1,-1,-1,-1,-1,-1],"loss_changes":[3.8360697E5,9.910437E4,5.805472E4,8.312781E4,1.3253449E4,2.8603953E4,3.3572344E4,0E0,0E0,0E0,0E0,0E0,0E0,0E0,0E0],"parents":[2147483647,0,0,1,1,2,2,3,3,4,4,5,5,6,6],"right_children":[2,4,6,8,10,12,14,-1,-1,-1,-1,-1,-1,-1,-1],"split_conditions":[NaN,1E0,NaN,NaN,NaN,6.1E0,NaN,7.3567575E-1,1.5844126E-1,-5.5234087E-1,-1.4932275E0,-8.183369E-1,-8.475921E-2,-7.128913E-2,-1.4911828E0],"split_indices":[4,6,12,12,12,11,18,0,0,0,0,0,0,0,0],"split_type":[1,0,1,1,1,0,1,0,0,0,0,0,0,0,0],"sum_hessian":[1.4127E4,1.0663E4,3.464E3,1.0105E4,5.58E2,2.02E3,1.444E3,3.354E3,6.751E3,3.26E2,2.32E2,1.244E3,7.76E2,1.7E2,1.274E3],"tree_param":{"num_deleted":"0","num_feature":"19","num_nodes":"15","size_leaf_vector":"1"}},{"base_weights":[-1.4889734E-2,2.7259467E0,-8.315912E0,5.374902E0,1.2354969E-1,-1.0555669E1,-1.4189987E0,9.6946293E-1,3.7038615E-1,4.1487256E-1,-2.1955913E-1,-6.3677734E-1,-1.507361E0,8.82613E-2,-9.4673485E-1],"categories":[0,1,6,0,1,2,6,3,4,5,6,7,8,9,12,13,14,15,16,17,18,19,20,21,27,28,29,30,31,32,33,36,37,38,39,41,42,43,46,0,3,4,6,7,8,9,13,14,15,16,18,19,20,28,30,31,32,33,34,35,36,37,39,41,42,43,46,0,5,9,16,17,18,19,20,22,26,27,28,29,30,32,33,34,35,36,37,38,39,41,42,43,6,16,19,30,31,32,40,43],"categories_nodes":[0,1,3,4,5,6],"categories_segments":[0,3,7,39,67,92],"categories_sizes":[3,4,32,28,25,8],"default_left":[0,1,0,1,1,1,1,0,0,0,0,0,0,0,0],"id":4,"left_children":[1,3,5,7,9,11,13,-1,-1,-1,-1,-1,-1,-1,-1],"loss_changes":[3.202475E5,7.292437E4,5.392233E4,3.724686E4,5.545109E4,5.3953188E4,1.7322283E4,0E0,0E0,0E0,0E0,0E0,0E0,0E0,0E0],"parents":[2147483647,0,0,1,1,2,2,3,3,4,4,5,5,6,6],"right_children":[2,4,6,8,10,12,14,-1,-1,-1,-1,-1,-1,-1,-1],"split_conditions":[NaN,NaN,1E0,NaN,NaN,NaN,NaN,9.6946293E-1,3.7038615E-1,4.1487256E-1,-2.1955913E-1,-6.3677734E-1,-1.507361E0,8.82613E-2,-9.4673485E-1],"split_indices":[4,4,5,12,12,12,12,0,0,0,0,0,0,0,0],"split_type":[1,1,0,1,1,1,1,0,0,0,0,0,0,0,0],"sum_hessian":[1.4073E4,1.058E4,3.493E3,5.242E3,5.338E3,2.636E3,8.57E2,1.214E3,4.028E3,1.946E3,3.392E3,1.537E3,1.099E3,6.73E2,1.84E2],"tree_param":{"num_deleted":"0","num_feature":"19","num_nodes":"15","size_leaf_vector":"1"}},{"base_weights":[1.4553343E-1,2.59122E0,-7.3701525E0,4.943176E0,2.699576E-1,-9.3039055E0,-1.2070767E0,7.262783E-1,2.229144E-1,-3.646962E-1,2.0844154E-1,-4.5672792E-1,-1.0322891E0,1.4964525E-1,-5.0776285E-1],"categories":[0,1,0,1,2,6,0,4,5],"categories_nodes":[0,1,5,6],"categories_segments":[0,2,6,7],"categories_sizes":[2,4,1,2],"default_left":[0,1,0,0,0,0,0,0,0,0,0,0,0,0,0],"id":5,"left_children":[1,3,5,7,9,11,13,-1,-1,-1,-1,-1,-1,-1,-1],"loss_changes":[2.581477E5,5.783742E4,4.105003E4,3.7054375E4,4.2402223E4,1.86035E4,9.5619E3,0E0,0E0,0E0,0E0,0E0,0E0,0E0,0E0],"parents":[2147483647,0,0,1,1,2,2,3,3,4,4,5,5,6,6],"right_children":[2,4,6,8,10,12,14,-1,-1,-1,-1,-1,-1,-1,-1],"split_conditions":[NaN,NaN,1E0,9.475E0,1E-2,NaN,NaN,7.262783E-1,2.229144E-1,-3.646962E-1,2.0844154E-1,-4.5672792E-1,-1.0322891E0,1.4964525E-1,-5.0776285E-1],"split_indices":[4,4,5,14,11,18,18,0,0,0,0,0,0,0,0],"split_type":[1,1,0,0,0,1,1,0,0,0,0,0,0,0,0],"sum_hessian":[1.4043E4,1.0596E4,3.447E3,5.262E3,5.334E3,2.623E3,8.24E2,2.565E3,2.697E3,1.701E3,3.633E3,6.88E2,1.935E3,4.93E2,3.31E2],"tree_param":{"num_deleted":"0","num_feature":"19","num_nodes":"15","size_leaf_vector":"1"}},{"base_weights":[7.6624624E-2,2.353396E0,-6.902131E0,2.5137076E-1,5.829151E0,-1.8968391E0,-9.76397E0,3.4567082E-1,-1.8264207E-1,8.1057894E-1,3.4561685E-1,4.5455804E-1,-3.014387E-1,-1.0275674E0,2.5667188E-1],"categories":[0,1,3,14,16,17,18,19,22,23,27,28,29,33,35,38,43,1,3,6,12,15,16,17,18,27,29,31,32,36,39,43,0,1,3,5,6,7],"categories_nodes":[0,2,3,5],"categories_segments":[0,2,17,32],"categories_sizes":[2,15,15,6],"default_left":[0,1,1,1,0,0,1,0,0,0,0,0,0,0,0],"id":6,"left_children":[1,3,5,7,9,11,13,-1,-1,-1,-1,-1,-1,-1,-1],"loss_changes":[2.2362483E5,7.752019E4,4.953736E4,4.896203E4,2.37065E4,1.0849514E4,2.970525E4,0E0,0E0,0E0,0E0,0E0,0E0,0E0,0E0],"parents":[2147483647,0,0,1,1,2,2,3,3,4,4,5,5,6,6],"right_children":[2,4,6,8,10,12,14,-1,-1,-1,-1,-1,-1,-1,-1],"split_conditions":[NaN,4.611E1,NaN,NaN,1.03E1,NaN,5.483E1,3.4567082E-1,-1.8264207E-1,8.1057894E-1,3.4561685E-1,4.5455804E-1,-3.014387E-1,-1.0275674E0,2.5667188E-1],"split_indices":[4,15,9,9,14,17,15,0,0,0,0,0,0,0,0],"split_type":[1,0,1,1,0,1,0,0,0,0,0,0,0,0,0],"sum_hessian":[1.4073E4,1.0612E4,3.461E3,6.614E3,3.998E3,1.26E3,2.201E3,2.585E3,4.029E3,1.776E3,2.222E3,2.02E2,1.058E3,2.026E3,1.75E2],"tree_param":{"num_deleted":"0","num_feature":"19","num_nodes":"15","size_leaf_vector":"1"}},{"base_weights":[2.6061445E-2,2.1045558E0,-6.3796883E0,3.5853244E-2,5.6034865E0,-1.2114213E0,-9.3893795E0,7.65896E-2,-1.2462844E0,1.1671807E0,3.723547E-1,1.3742718E-1,-4.6508542E-1,-3.6132228E-1,-1.2060361E0],"categories":[0,1,6,3,14,15,16,17,22,23,25,26,27,29,33,34,35,38,40,43,1,2,3,4,5,6,7,8,9,12,13,14,15,16,17,19,20,21,23,27,29,30,31,32,35,36,38,39,41,42,43,46,0,7,9,14,19,31,35,41,0,5,6,7,8,9,11,13,14,16,17,18,19,20,22,28,29,30,31,32,33,34,35,36,37,39,40,42,43],"categories_nodes":[0,2,4,5,6],"categories_segments":[0,3,20,52,60],"categories_sizes":[3,17,32,8,29],"default_left":[0,1,1,0,1,1,1,0,0,0,0,0,0,0,0],"id":7,"left_children":[1,3,5,7,9,11,13,-1,-1,-1,-1,-1,-1,-1,-1],"loss_changes":[1.8614803E5,7.639705E4,5.3232312E4,6.756569E4,4.398304E4,1.2433961E4,4.01775E4,0E0,0E0,0E0,0E0,0E0,0E0,0E0,0E0],"parents":[2147483647,0,0,1,1,2,2,3,3,4,4,5,5,6,6],"right_children":[2,4,6,8,10,12,14,-1,-1,-1,-1,-1,-1,-1,-1],"split_conditions":[NaN,4.611E1,NaN,1E0,NaN,NaN,NaN,7.65896E-2,-1.2462844E0,1.1671807E0,3.723547E-1,1.3742718E-1,-4.6508542E-1,-3.6132228E-1,-1.2060361E0],"split_indices":[4,15,9,6,12,12,12,0,0,0,0,0,0,0,0],"split_type":[1,0,1,0,1,1,1,0,0,0,0,0,0,0,0],"sum_hessian":[1.398E4,1.0556E4,3.424E3,6.635E3,3.921E3,1.261E3,2.163E3,6.269E3,3.66E2,7.81E2,3.14E3,7.33E2,5.28E2,8.11E2,1.352E3],"tree_param":{"num_deleted":"0","num_feature":"19","num_nodes":"15","size_leaf_vector":"1"}},{"base_weights":[-4.0609572E-2,-2.0825276E0,4.157008E0,1.3913583E0,-4.5910172E0,9.505477E0,2.3009536E0,6.3868576E-1,-1.9541673E-2,3.7197217E-2,-6.6428035E-1,1.1834209E0,6.268643E-1,3.006531E-1,-4.806479E-1],"categories":[1,3,16,17,18,27,29,31,39,43,1,2,5,6,7,8,9,12,13,14,15,16,17,19,20,21,27,29,30,31,32,35,36,38,39,41,43,46,1,2,3,5,7,8,9,13,14,15,16,19,20,21,24,25,26,27,29,31,33,35,36,37,39,40,41,43,44,46,3,6,7,8,9,13,14,16,18,19,20,26,27,28,29,30,31,32,33,34,35,36,37,38,39,40,41,42,43,46,0,1,2,3,5,6,7,9,10,12,15,16,19,20,22,25,28,29,30,31,32,33,35,36,37,38,40,41,0,4,9,10,15,16,17,20,21,22,23,33,35,37,39,41],"categories_nodes":[1,2,3,4,5,6],"categories_segments":[0,10,38,68,98,126],"categories_sizes":[10,28,30,30,28,16],"default_left":[1,1,1,1,1,1,1,0,0,0,0,0,0,0,0],"id":8,"left_children":[1,3,5,7,9,11,13,-1,-1,-1,-1,-1,-1,-1,-1],"loss_changes":[1.21061945E5,8.282709E4,4.582553E4,3.4071305E4,6.655321E4,1.0119539E4,2.2075805E4,0E0,0E0,0E0,0E0,0E0,0E0,0E0,0E0],"parents":[2147483647,0,0,1,1,2,2,3,3,4,4,5,5,6,6],"right_children":[2,4,6,8,10,12,14,-1,-1,-1,-1,-1,-1,-1,-1],"split_conditions":[4.654E1,NaN,NaN,NaN,NaN,NaN,NaN,6.3868576E-1,-1.9541673E-2,3.7197217E-2,-6.6428035E-1,1.1834209E0,6.268643E-1,3.006531E-1,-4.806479E-1],"split_indices":[15,9,12,12,12,9,9,0,0,0,0,0,0,0,0],"split_type":[0,1,1,1,1,1,1,0,0,0,0,0,0,0,0],"sum_hessian":[1.4123E4,9.502E3,4.621E3,3.984E3,5.518E3,1.189E3,3.432E3,9.16E2,3.068E3,1.803E3,3.715E3,5.83E2,6.06E2,3.07E3,3.62E2],"tree_param":{"num_deleted":"0","num_feature":"19","num_nodes":"15","size_leaf_vector":"1"}},{"base_weights":[2.9025812E-2,4.174401E0,-2.4269857E0,6.5800476E0,1.9070967E0,7.0991606E-1,-5.7114005E0,3.990426E-1,1.0865445E0,-3.5001102E-1,4.588107E-1,5.1695746E-1,-6.221987E-2,-6.7419857E-1,8.800698E-2],"categories":[0,1,2,6,0,4,16,22,23,27,29,31,32,35,39,43],"categories_nodes":[0,2],"categories_segments":[0,4],"categories_sizes":[4,12],"default_left":[0,0,1,1,1,0,1,0,0,0,0,0,0,0,0],"id":9,"left_children":[1,3,5,7,9,11,13,-1,-1,-1,-1,-1,-1,-1,-1],"loss_changes":[1.4409816E5,2.8684508E4,9.158081E4,2.9467516E4,4.4611152E4,2.949682E4,4.04815E4,0E0,0E0,0E0,0E0,0E0,0E0,0E0,0E0],"parents":[2147483647,0,0,1,1,2,2,3,3,4,4,5,5,6,6],"right_children":[2,4,6,8,10,12,14,-1,-1,-1,-1,-1,-1,-1,-1],"split_conditions":[NaN,9.475E0,NaN,2.75E-1,6E-1,4.75E0,3.417E1,3.990426E-1,1.0865445E0,-3.5001102E-1,4.588107E-1,5.1695746E-1,-6.221987E-2,-6.7419857E-1,8.800698E-2],"split_indices":[4,14,9,7,7,14,15,0,0,0,0,0,0,0,0],"split_type":[1,0,1,0,0,0,0,0,0,0,0,0,0,0,0],"sum_hessian":[1.4151E4,5.265E3,8.886E3,2.553E3,2.712E3,4.545E3,4.341E3,1.721E3,8.32E2,9.32E2,1.78E3,1.016E3,3.529E3,3.584E3,7.57E2],"tree_param":{"num_deleted":"0","num_feature":"19","num_nodes":"15","size_leaf_vector":"1"}},{"base_weights":[-6.525941E-2,6.2494653E-1,-9.999432E0,2.8503551E0,-2.0699875E0,-5.0982466E0,-1.3155156E1,4.1252396E-1,7.380133E-2,1.7704256E-1,-3.6887696E-1,-2.8027079E-1,-1.3950748E0,-1.0610976E0,-1.7817906E0],"categories":[1,16,20,27,29,31,33,35,43,5,8,18,20,28,36,38,39,43,0],"categories_nodes":[1,2,5],"categories_segments":[0,9,18],"categories_sizes":[9,9,1],"default_left":[0,1,1,0,0,1,0,0,0,0,0,0,0,0,0],"id":10,"left_children":[1,3,5,7,9,11,13,-1,-1,-1,-1,-1,-1,-1,-1],"loss_changes":[9.6465945E4,7.8879125E4,1.401482E4,2.240941E4,4.2708656E4,7.3196035E3,5.835703E3,0E0,0E0,0E0,0E0,0E0,0E0,0E0,0E0],"parents":[2147483647,0,0,1,1,2,2,3,3,4,4,5,5,6,6],"right_children":[2,4,6,8,10,12,14,-1,-1,-1,-1,-1,-1,-1,-1],"split_conditions":[1E0,NaN,NaN,1.6025E1,3.575E0,NaN,6.31E1,4.1252396E-1,7.380133E-2,1.7704256E-1,-3.6887696E-1,-2.8027079E-1,-1.3950748E0,-1.0610976E0,-1.7817906E0],"split_indices":[6,9,9,14,14,18,14,0,0,0,0,0,0,0,0],"split_type":[0,1,1,0,0,1,0,0,0,0,0,0,0,0,0],"sum_hessian":[1.4063E4,1.315E4,9.13E2,7.203E3,5.947E3,3.59E2,5.54E2,4.173E3,3.03E3,1.881E3,4.066E3,2.95E2,6.4E1,4.14E2,1.4E2],"tree_param":{"num_deleted":"0","num_feature":"19","num_nodes":"15","size_leaf_vector":"1"}},{"base_weights":[-9.011042E-2,1.5810819E0,-5.153886E0,6.358029E0,6.9644433E-1,-1.3038756E0,-7.9052935E0,2.0248148E0,5.3896844E-1,-5.1612183E-2,4.1682044E-1,2.4308705E-1,-2.877249E-1,-1.005392E0,-3.2088578E-1],"categories":[0,1,1,2,3,4,6,7,8,9,12,13,14,15,16,17,18,19,20,21,27,29,30,31,32,33,34,35,36,37,38,39,40,41,42,43,46,0,4,5,6,7,8,9,13,14,16,17,18,19,20,22,28,29,30,31,32,33,34,36,37,41,42,43,0,1,2,3,4,5,6,7,8,9,10,11,12,13,14,15,16,17,18,19,20,21,22,23,25,26,27,28,29,30,31,32,33,34,35,36,37,38,39,40,41,42,43,44,45,46,1,2,11,15,26,27,35,38,39,40,44],"categories_nodes":[0,1,2,3,5],"categories_segments":[0,2,37,64,110],"categories_sizes":[2,35,27,46,11],"default_left":[0,1,1,1,1,1,1,0,0,0,0,0,0,0,0],"id":11,"left_children":[1,3,5,7,9,11,13,-1,-1,-1,-1,-1,-1,-1,-1],"loss_changes":[1.18917586E5,4.4616457E4,3.689967E4,1.6401469E4,4.0975562E4,9.761785E3,2.476725E4,0E0,0E0,0E0,0E0,0E0,0E0,0E0,0E0],"parents":[2147483647,0,0,1,1,2,2,3,3,4,4,5,5,6,6],"right_children":[2,4,6,8,10,12,14,-1,-1,-1,-1,-1,-1,-1,-1],"split_conditions":[NaN,NaN,NaN,NaN,6.379E1,NaN,6.85E0,2.0248148E0,5.3896844E-1,-5.1612183E-2,4.1682044E-1,2.4308705E-1,-2.877249E-1,-1.005392E0,-3.2088578E-1],"split_indices":[4,12,12,12,15,12,15,0,0,0,0,0,0,0,0],"split_type":[1,1,1,1,0,1,0,0,0,0,0,0,0,0,0],"sum_hessian":[1.4049E4,1.0563E4,3.486E3,1.649E3,8.914E3,1.454E3,2.032E3,6.9E1,1.58E3,6.676E3,2.238E3,4.49E2,1.005E3,1.27E3,7.62E2],"tree_param":{"num_deleted":"0","num_feature":"19","num_nodes":"15","size_leaf_vector":"1"}},{"base_weights":[-2.3275837E-2,1.5315338E0,-4.716961E0,6.641189E-1,6.340598E0,-3.385665E0,-1.0583724E1,2.257379E-1,-1.8087067E-1,1.0798249E0,4.2864326E-1,-4.4801998E-1,1.7023331E-1,1.19735844E-1,-1.1247437E0],"categories":[0,1,6,7,16,17,19,20,22,28,29,30,32,33,34,42,43,6,7,9,13,16,17,19,20,31,32,33,34,35,36,39,41,46,2,3,4,5,6,7,9,11,12,13,14,15,16,17,19,22,24,25,28,30,31,32,35,36,37,38,39,41,43,44,46,0,1],"categories_nodes":[0,2,3,4,6],"categories_segments":[0,3,17,34,65],"categories_sizes":[3,14,17,31,2],"default_left":[0,1,1,1,1,1,0,0,0,0,0,0,0,0,0],"id":12,"left_children":[1,3,5,7,9,11,13,-1,-1,-1,-1,-1,-1,-1,-1],"loss_changes":[1.0273313E5,4.4079555E4,2.7282086E4,3.960575E4,1.4734898E4,1.9888098E4,9.899195E3,0E0,0E0,0E0,0E0,0E0,0E0,0E0,0E0],"parents":[2147483647,0,0,1,1,2,2,3,3,4,4,5,5,6,6],"right_children":[2,4,6,8,10,12,14,-1,-1,-1,-1,-1,-1,-1,-1],"split_conditions":[NaN,7.667E1,NaN,NaN,NaN,4.438E1,NaN,2.257379E-1,-1.8087067E-1,1.0798249E0,4.2864326E-1,-4.4801998E-1,1.7023331E-1,1.19735844E-1,-1.1247437E0],"split_indices":[4,15,12,12,12,15,18,0,0,0,0,0,0,0,0],"split_type":[1,0,1,1,1,0,1,0,0,0,0,0,0,0,0],"sum_hessian":[1.4074E4,1.0572E4,3.502E3,8.958E3,1.614E3,2.856E3,6.46E2,5.372E3,3.586E3,4.25E2,1.189E3,2.269E3,5.87E2,6.3E1,5.83E2],"tree_param":{"num_deleted":"0","num_feature":"19","num_nodes":"15","size_leaf_vector":"1"}},{"base_weights":[1.121102E-2,-4.001693E0,1.1923401E0,-2.2140634E0,-1.5623735E1,6.5920177E0,1.1373289E-1,5.6586605E-1,-3.2101825E-1,-1.2906158E0,-2.567153E0,5.523821E-1,2.3044763E0,1.0197168E-1,-3.0565044E-1],"categories":[0,7,13,16,20,26,30,32,34,35,36,37,38,42,43,1,2,3,4,6,7,8,9,12,13,14,15,16,17,18,19,20,27,29,30,31,32,33,35,36,37,39,41,42,43,46,0,1,2,3,4,5,6,7,8,9,11,12,13,14,15,16,17,18,19,20,21,22,25,26,27,28,29,30,31,32,33,34,35,36,37,38,39,40,41,42,43,44,46,34,42,7,8,15,16,19,20,39,46],"categories_nodes":[1,2,3,4,6],"categories_segments":[0,15,46,89,91],"categories_sizes":[15,31,43,2,8],"default_left":[1,1,1,1,1,0,1,0,0,0,0,0,0,0,0],"id":13,"left_children":[1,3,5,7,9,11,13,-1,-1,-1,-1,-1,-1,-1,-1],"loss_changes":[6.65141E4,6.62078E4,6.313602E4,2.6592258E4,9.276352E3,2.417771E4,2.9046346E4,0E0,0E0,0E0,0E0,0E0,0E0,0E0,0E0],"parents":[2147483647,0,0,1,1,2,2,3,3,4,4,5,5,6,6],"right_children":[2,4,6,8,10,12,14,-1,-1,-1,-1,-1,-1,-1,-1],"split_conditions":[7.5E-2,NaN,NaN,NaN,NaN,4.2E0,NaN,5.6586605E-1,-3.2101825E-1,-1.2906158E0,-2.567153E0,5.523821E-1,2.3044763E0,1.0197168E-1,-3.0565044E-1],"split_indices":[7,12,12,12,12,7,12,0,0,0,0,0,0,0,0],"split_type":[0,1,1,1,1,0,1,0,0,0,0,0,0,0,0],"sum_hessian":[1.4033E4,3.19E3,1.0843E4,2.766E3,4.24E2,1.804E3,9.039E3,3.46E2,2.42E3,3.63E2,6.1E1,1.731E3,7.3E1,7.018E3,2.021E3],"tree_param":{"num_deleted":"0","num_feature":"19","num_nodes":"15","size_leaf_vector":"1"}},{"base_weights":[-2.5003085E-2,5.9184766E-1,-8.982126E0,-5.700973E-1,3.8177586E0,-1.8807695E1,-7.252883E0,-8.290371E-3,-7.935125E-1,7.8137296E-1,2.2209701E-1,-1.9945935E0,-1.2011813E0,-4.0612128E-1,-1.0460726E0],"categories":[1,4,6,7,8,9,12,13,14,15,16,17,19,20,21,27,29,30,31,32,35,38,39,40,41,42,43,46,0,1,2,3,4,5,6,7,9,39,6,9,14,18,19,20,29,32,33,39,43],"categories_nodes":[4,5,6],"categories_segments":[0,28,38],"categories_sizes":[28,10,11],"default_left":[0,1,0,0,1,1,1,0,0,0,0,0,0,0,0],"id":14,"left_children":[1,3,5,7,9,11,13,-1,-1,-1,-1,-1,-1,-1,-1],"loss_changes":[7.7864086E4,4.9414918E4,1.5213055E4,3.646744E4,2.2733918E4,1.4868594E3,8.601715E3,0E0,0E0,0E0,0E0,0E0,0E0,0E0,0E0],"parents":[2147483647,0,0,1,1,2,2,3,3,4,4,5,5,6,6],"right_children":[2,4,6,8,10,12,14,-1,-1,-1,-1,-1,-1,-1,-1],"split_conditions":[1E0,5.591E1,1.611E1,2.04E2,NaN,NaN,NaN,-8.290371E-3,-7.935125E-1,7.8137296E-1,2.2209701E-1,-1.9945935E0,-1.2011813E0,-4.0612128E-1,-1.0460726E0],"split_indices":[6,15,15,0,12,12,12,0,0,0,0,0,0,0,0],"split_type":[0,0,0,0,1,1,1,0,0,0,0,0,0,0,0],"sum_hessian":[1.4086E4,1.3179E4,9.07E2,9.689E3,3.49E3,1.34E2,7.73E2,9.126E3,5.63E2,8.7E2,2.62E3,9.6E1,3.8E1,4.35E2,3.38E2],"tree_param":{"num_deleted":"0","num_feature":"19","num_nodes":"15","size_leaf_vector":"1"}},{"base_weights":[-6.818006E-4,2.909633E0,-1.7372386E0,1.9657487E-1,4.4262457E0,-3.4539545E0,7.967681E-1,7.9398714E-2,-9.589759E-1,3.0843103E-1,7.2514343E-1,-2.567066E-1,-1.1281992E0,2.1529648E-2,6.568507E-1],"categories":[0,1,2,6],"categories_nodes":[0],"categories_segments":[0],"categories_sizes":[4],"default_left":[0,0,1,0,0,0,0,0,0,0,0,0,0,0,0],"id":15,"left_children":[1,3,5,7,9,11,13,-1,-1,-1,-1,-1,-1,-1,-1],"loss_changes":[7.160052E4,2.1768266E4,3.861413E4,1.2550694E4,1.2772484E4,3.323875E4,1.2500151E4,0E0,0E0,0E0,0E0,0E0,0E0,0E0,0E0],"parents":[2147483647,0,0,1,1,2,2,3,3,4,4,5,5,6,6],"right_children":[2,4,6,8,10,12,14,-1,-1,-1,-1,-1,-1,-1,-1],"split_conditions":[NaN,5.914E1,2.394E1,1E0,1.86E1,1E0,1.998E2,7.9398714E-2,-9.589759E-1,3.0843103E-1,7.2514343E-1,-2.567066E-1,-1.1281992E0,2.1529648E-2,6.568507E-1],"split_indices":[4,15,15,6,11,6,11,0,0,0,0,0,0,0,0],"split_type":[1,0,0,0,0,0,0,0,0,0,0,0,0,0,0],"sum_hessian":[1.4166E4,5.293E3,8.873E3,1.899E3,3.394E3,5.29E3,3.583E3,1.789E3,1.1E2,2.492E3,9.02E2,4.863E3,4.27E2,3.28E3,3.03E2],"tree_param":{"num_deleted":"0","num_feature":"19","num_nodes":"15","size_leaf_vector":"1"}},{"base_weights":[-2.2748216E-4,2.86737E0,-1.7183414E0,8.661665E0,2.1444485E0,1.4761972E0,-3.3206992E0,1.2015984E0,6.1767536E-1,1.1918342E-1,6.468832E-1,2.3151714E-1,-5.707569E-1,-2.7332941E-2,-5.938546E-1],"categories":[0,1,2,2,3,4,5,6,7,8,9,12,13,14,15,16,17,18,19,20,21,22,25,26,27,28,29,30,31,32,33,34,35,36,38,39,41,42,43,44,0,2,3,6,7,8,9,13,14,15,16,17,18,19,20,28,29,30,31,32,33,34,35,36,37,39,41,42,43,46,0,1,2,3,6,0,1,4,10,14,16,17,20,23,27,29,31,32,33,35,37,41,43],"categories_nodes":[0,1,2,3,6],"categories_segments":[0,3,40,70,75],"categories_sizes":[3,37,30,5,18],"default_left":[0,1,1,1,1,0,1,0,0,0,0,0,0,0,0],"id":16,"left_children":[1,3,5,7,9,11,13,-1,-1,-1,-1,-1,-1,-1,-1],"loss_changes":[6.980522E4,2.218327E4,4.536807E4,4.9245625E3,1.9567102E4,2.146759E4,5.27025E4,0E0,0E0,0E0,0E0,0E0,0E0,0E0,0E0],"parents":[2147483647,0,0,1,1,2,2,3,3,4,4,5,5,6,6],"right_children":[2,4,6,8,10,12,14,-1,-1,-1,-1,-1,-1,-1,-1],"split_conditions":[NaN,NaN,NaN,NaN,7.84E1,1.94E2,NaN,1.2015984E0,6.1767536E-1,1.1918342E-1,6.468832E-1,2.3151714E-1,-5.707569E-1,-2.7332941E-2,-5.938546E-1],"split_indices":[4,12,12,4,15,0,9,0,0,0,0,0,0,0,0],"split_type":[1,1,1,1,0,0,1,0,0,0,0,0,0,0,0],"sum_hessian":[1.4167E4,5.307E3,8.86E3,5.87E2,4.72E3,2.959E3,5.901E3,2.02E2,3.85E2,3.97E3,7.5E2,2.622E3,3.37E2,2.909E3,2.992E3],"tree_param":{"num_deleted":"0","num_feature":"19","num_nodes":"15","size_leaf_vector":"1"}},{"base_weights":[1.4927378E-1,6.497482E-1,-6.966402E0,-1.5514702E0,1.9481869E0,-1.4741181E1,-4.9296865E0,-6.949287E-1,-9.0547085E-2,1.6678326E-1,1.1401856E0,-1.4868884E0,-2.8691467E-2,-2.6017992E-2,-7.070295E-1],"categories":[],"categories_nodes":[],"categories_segments":[],"categories_sizes":[],"default_left":[0,0,0,1,1,0,0,0,0,0,0,0,0,0,0],"id":17,"left_children":[1,3,5,7,9,11,13,-1,-1,-1,-1,-1,-1,-1,-1],"loss_changes":[5.0077605E4,3.756884E4,1.4499871E4,1.6769605E4,1.5626215E4,2.5657031E3,8.624107E3,0E0,0E0,0E0,0E0,0E0,0E0,0E0,0E0],"parents":[2147483647,0,0,1,1,2,2,3,3,4,4,5,5,6,6],"right_children":[2,4,6,8,10,12,14,-1,-1,-1,-1,-1,-1,-1,-1],"split_conditions":[1E0,1.19E0,2.514E1,1.64E2,9.65E1,1.95E2,2E0,-6.949287E-1,-9.0547085E-2,1.6678326E-1,1.1401856E0,-1.4868884E0,-2.8691467E-2,-2.6017992E-2,-7.070295E-1],"split_indices":[6,11,15,0,15,0,10,0,0,0,0,0,0,0,0],"split_type":[0,0,0,0,0,0,0,0,0,0,0,0,0,0,0],"sum_hessian":[1.4065E4,1.3142E4,9.23E2,4.875E3,8.267E3,1.9E2,7.33E2,4.54E2,4.421E3,8.117E3,1.5E2,1.78E2,1.2E1,2.59E2,4.74E2],"tree_param":{"num_deleted":"0","num_feature":"19","num_nodes":"15","size_leaf_vector":"1"}},{"base_weights":[-3.0989682E-2,1.070922E0,-3.4238722E0,1.9387037E0,-1.9702835E0,3.0821626E0,-4.385022E0,3.99402E-1,6.711979E-2,-3.695878E-1,8.1193954E-2,3.774778E-1,-1.5231521E0,-5.4240763E-1,-1.1746986E-2],"categories":[0,1,7,13,16,19,20,31,35,39,43,46,0,1,2,3,4,5,6,7,8,9,11,14,15,16,17,18,19,20,22,26,27,28,29,30,31,32,33,34,35,36,37,38,39,40,41,42,43,44,46,0,1,4,12,13,16,17,20,22,24,29,31,32,35,37,39,40,41,43,3,4],"categories_nodes":[0,1,2,3,5],"categories_segments":[0,2,12,51,70],"categories_sizes":[2,10,39,19,2],"default_left":[1,1,1,1,0,1,0,0,0,0,0,0,0,0,0],"id":18,"left_children":[1,3,5,7,9,11,13,-1,-1,-1,-1,-1,-1,-1,-1],"loss_changes":[5.257998E4,2.801516E4,2.1578719E4,2.3111463E4,1.2866587E4,7.6928667E3,1.7124844E4,0E0,0E0,0E0,0E0,0E0,0E0,0E0,0E0],"parents":[2147483647,0,0,1,1,2,2,3,3,4,4,5,5,6,6],"right_children":[2,4,6,8,10,12,14,-1,-1,-1,-1,-1,-1,-1,-1],"split_conditions":[NaN,NaN,NaN,NaN,2.075E1,NaN,1E0,3.99402E-1,6.711979E-2,-3.695878E-1,8.1193954E-2,3.774778E-1,-1.5231521E0,-5.4240763E-1,-1.1746986E-2],"split_indices":[4,12,12,9,11,1,5,0,0,0,0,0,0,0,0],"split_type":[1,1,1,1,0,1,0,0,0,0,0,0,0,0,0],"sum_hessian":[1.406E4,1.0613E4,3.447E3,8.258E3,2.355E3,4.43E2,3.004E3,2.896E3,5.362E3,1.4E3,9.55E2,4.24E2,1.9E1,2.285E3,7.19E2],"tree_param":{"num_deleted":"0","num_feature":"19","num_nodes":"15","size_leaf_vector":"1"}},{"base_weights":[-2.4734253E-2,4.1273084E-1,-6.418806E0,-3.063552E0,1.2474523E0,-2.0122974E0,-1.0351916E1,-1.660572E-1,-1.4794136E0,3.5937572E-1,7.2476324E-3,-7.7586865E-1,7.570495E-2,-1.6000117E0,-6.95908E-1],"categories":[7,9,12,15,18,19,20,27,29,32,33,36,39,43,0,13,16,18,20,30,32,34,35,36,37,38,43,2,3,6,7,8,9,13,14,15,16,17,19,20,27,30,31,32,33,35,36,39,41,42,43,46],"categories_nodes":[2,3,4],"categories_segments":[0,14,27],"categories_sizes":[14,13,25],"default_left":[0,1,1,1,1,1,0,0,0,0,0,0,0,0,0],"id":19,"left_children":[1,3,5,7,9,11,13,-1,-1,-1,-1,-1,-1,-1,-1],"loss_changes":[3.9399414E4,3.823444E4,1.5574895E4,4.189285E4,3.165693E4,7.4412783E3,9.157293E3,0E0,0E0,0E0,0E0,0E0,0E0,0E0,0E0],"parents":[2147483647,0,0,1,1,2,2,3,3,4,4,5,5,6,6],"right_children":[2,4,6,8,10,12,14,-1,-1,-1,-1,-1,-1,-1,-1],"split_conditions":[1E0,5E-2,NaN,NaN,NaN,1.5E-1,3.635E1,-1.660572E-1,-1.4794136E0,3.5937572E-1,7.2476324E-3,-7.7586865E-1,7.570495E-2,-1.6000117E0,-6.95908E-1],"split_indices":[6,7,12,12,12,7,15,0,0,0,0,0,0,0,0],"split_type":[0,0,1,1,1,0,0,0,0,0,0,0,0,0,0],"sum_hessian":[1.4077E4,1.3176E4,9.01E2,2.55E3,1.0626E4,4.26E2,4.75E2,2.31E3,2.4E2,3.347E3,7.279E3,1.33E2,2.93E2,1.48E2,3.27E2],"tree_param":{"num_deleted":"0","num_feature":"19","num_nodes":"15","size_leaf_vector":"1"}},{"base_weights":[-1.1674655E-1,2.1643393E0,-1.4705081E0,1.8521237E-1,3.7718349E0,2.0802705E0,-2.6347876E0,2.2996302E-1,-3.0647805E-1,2.2129971E-1,6.3043517E-1,9.0408875E-3,5.713659E-1,-6.1043274E-1,-6.5131284E-2],"categories":[0,1,2,6],"categories_nodes":[0],"categories_segments":[0],"categories_sizes":[4],"default_left":[0,0,0,0,1,1,1,0,0,0,0,0,0,0,0],"id":20,"left_children":[1,3,5,7,9,11,13,-1,-1,-1,-1,-1,-1,-1,-1],"loss_changes":[4.351785E4,1.6683617E4,3.657325E4,1.8047875E4,1.1938648E4,1.7100508E4,4.9365504E4,0E0,0E0,0E0,0E0,0E0,0E0,0E0,0E0],"parents":[2147483647,0,0,1,1,2,2,3,3,4,4,5,5,6,6],"right_children":[2,4,6,8,10,12,14,-1,-1,-1,-1,-1,-1,-1,-1],"split_conditions":[NaN,7.045E1,3.625E0,1.56E1,6.25E-1,1.667E1,1.75E-1,2.2996302E-1,-3.0647805E-1,2.2129971E-1,6.3043517E-1,9.0408875E-3,5.713659E-1,-6.1043274E-1,-6.5131284E-2],"split_indices":[4,15,14,14,7,15,7,0,0,0,0,0,0,0,0],"split_type":[1,0,0,0,0,0,0,0,0,0,0,0,0,0,0],"sum_hessian":[1.4091E4,5.247E3,8.844E3,2.353E3,2.894E3,2.183E3,6.661E3,1.422E3,9.31E2,1.933E3,9.61E2,1.454E3,7.29E2,2.253E3,4.408E3],"tree_param":{"num_deleted":"0","num_feature":"19","num_nodes":"15","size_leaf_vector":"1"}},{"base_weights":[3.770447E-2,9.9515355E-1,-2.859447E0,2.8573914E0,-4.4842264E-1,-4.068904E0,9.607803E-1,1.5879714E0,2.4901152E-1,-7.712245E-4,-7.0313877E-1,-2.0333336E-1,-7.8602445E-1,6.540905E-1,-1.4386141E-1],"categories":[0,1,6,4,7,9,14,15,16,18,19,20,28,30,31,32,34,35,36,38,39,41,43,46,0,1,2,3,4,5,6,7,8,9,10,11,12,13,14,15,16,17,18,19,20,21,22,23,25,26,27,28,29,30,31,32,33,34,35,36,37,38,39,40,41,42,43,44,45,46,0,4,5,9,13,16,17,19,20,22,26,27,28,29,30,32,33,35,42,0,1,2,3,4,5,6,7,8,10,11,13,14,15,16,17,18,19,20,22,23,24,25,26,28,30,31,32,33,34,35,36,37,39,40,41,42,43,44,45,46],"categories_nodes":[0,1,3,5,6],"categories_segments":[0,3,24,70,89],"categories_sizes":[3,21,46,19,41],"default_left":[0,1,0,1,0,1,1,0,0,0,0,0,0,0,0],"id":21,"left_children":[1,3,5,7,9,11,13,-1,-1,-1,-1,-1,-1,-1,-1],"loss_changes":[3.9189336E4,2.8560754E4,1.6226217E4,1.4706145E4,1.8342334E4,2.1617336E4,1.2457689E4,0E0,0E0,0E0,0E0,0E0,0E0,0E0,0E0],"parents":[2147483647,0,0,1,1,2,2,3,3,4,4,5,5,6,6],"right_children":[2,4,6,8,10,12,14,-1,-1,-1,-1,-1,-1,-1,-1],"split_conditions":[NaN,NaN,1E0,NaN,1E0,NaN,NaN,1.5879714E0,2.4901152E-1,-7.712245E-4,-7.0313877E-1,-2.0333336E-1,-7.8602445E-1,6.540905E-1,-1.4386141E-1],"split_indices":[4,12,5,12,6,12,12,0,0,0,0,0,0,0,0],"split_type":[1,1,0,1,0,1,1,0,0,0,0,0,0,0,0],"sum_hessian":[1.4128E4,1.062E4,3.508E3,4.638E3,5.982E3,2.665E3,8.43E2,7.4E1,4.564E3,5.628E3,3.54E2,1.833E3,8.32E2,2.48E2,5.95E2],"tree_param":{"num_deleted":"0","num_feature":"19","num_nodes":"15","size_leaf_vector":"1"}},{"base_weights":[3.697016E-2,-1.5475736E0,1.6670891E0,-1.0351368E-1,-9.398642E0,9.6737585E0,8.737871E-1,6.821536E-2,-4.755735E-1,-7.5810903E-1,-1.7065935E0,7.668155E-1,2.0922892E0,1.3126485E-1,-5.3465676E-1],"categories":[0,7,8,15,16,18,19,20,30,33,34,35,36,39,41,42,46,1,2,6,8,9,10,11,12,14,15,16,17,19,20,22,23,24,25,27,28,29,30,31,32,33,35,36,37,38,39,40,41,42,43,44,45,46,19,33,34],"categories_nodes":[1,2,4],"categories_segments":[0,17,54],"categories_sizes":[17,37,3],"default_left":[1,1,1,0,1,0,0,0,0,0,0,0,0,0,0],"id":22,"left_children":[1,3,5,7,9,11,13,-1,-1,-1,-1,-1,-1,-1,-1],"loss_changes":[3.641025E4,8.0999E4,4.4097914E4,2.4451768E4,1.3144805E4,1.2014809E4,2.1068326E4,0E0,0E0,0E0,0E0,0E0,0E0,0E0,0E0],"parents":[2147483647,0,0,1,1,2,2,3,3,4,4,5,5,6,6],"right_children":[2,4,6,8,10,12,14,-1,-1,-1,-1,-1,-1,-1,-1],"split_conditions":[2.75E-1,NaN,NaN,1.93E2,NaN,2.25E0,1E0,6.821536E-2,-4.755735E-1,-7.5810903E-1,-1.7065935E0,7.668155E-1,2.0922892E0,1.3126485E-1,-5.3465676E-1],"split_indices":[7,12,12,0,12,7,6,0,0,0,0,0,0,0,0],"split_type":[0,1,1,0,1,0,0,0,0,0,0,0,0,0,0],"sum_hessian":[1.4094E4,7.146E3,6.948E3,6.037E3,1.109E3,6.25E2,6.323E3,5.171E3,8.66E2,9.56E2,1.53E2,5.56E2,6.9E1,5.864E3,4.59E2],"tree_param":{"num_deleted":"0","num_feature":"19","num_nodes":"15","size_leaf_vector":"1"}},{"base_weights":[-1.5399219E-1,1.359656E0,-1.482222E0,4.8852083E-1,5.3190904E0,-2.3928282E0,1.1745461E0,-9.811442E-2,2.0261359E-1,1.1269505E0,3.81439E-1,-6.281221E-2,-3.8656345E-1,-4.4436744E-1,2.388222E-1],"categories":[6,7,8,9,14,16,17,18,19,20,30,31,32,35,37,39,41,42,43,46,1,2,3,4,6,7,8,9,11,12,14,15,16,17,18,19,20,21,23,24,25,26,27,28,29,30,31,32,35,36,37,38,39,40,41,42,43,44,46],"categories_nodes":[0,4],"categories_segments":[0,20],"categories_sizes":[20,39],"default_left":[1,1,0,0,1,0,1,0,0,0,0,0,0,0,0],"id":23,"left_children":[1,3,5,7,9,11,13,-1,-1,-1,-1,-1,-1,-1,-1],"loss_changes":[2.828772E4,2.2658484E4,1.8138893E4,1.3557455E4,9.982852E3,1.627176E4,1.5100336E4,0E0,0E0,0E0,0E0,0E0,0E0,0E0,0E0],"parents":[2147483647,0,0,1,1,2,2,3,3,4,4,5,5,6,6],"right_children":[2,4,6,8,10,12,14,-1,-1,-1,-1,-1,-1,-1,-1],"split_conditions":[NaN,6.715E1,3E0,1E0,NaN,2E0,1.76E2,-9.811442E-2,2.0261359E-1,1.1269505E0,3.81439E-1,-6.281221E-2,-3.8656345E-1,-4.4436744E-1,2.388222E-1],"split_indices":[12,15,13,8,12,10,0,0,0,0,0,0,0,0,0],"split_type":[1,0,0,0,1,0,0,0,0,0,0,0,0,0,0],"sum_hessian":[1.4068E4,6.574E3,7.494E3,5.39E3,1.184E3,5.582E3,1.912E3,2.801E3,2.589E3,1.93E2,9.91E2,2.757E3,2.825E3,3.56E2,1.556E3],"tree_param":{"num_deleted":"0","num_feature":"19","num_nodes":"15","size_leaf_vector":"1"}},{"base_weights":[-6.548884E-2,1.6472586E0,-1.6087902E0,-5.738269E-1,4.4819884E0,-5.1905084E0,2.0814407E0,5.4005396E-2,-8.2504916E-1,5.356253E-1,-1.20893404E-1,-3.033218E-1,-9.4878244E-1,5.0827444E-1,-4.095223E-2],"categories":[0,1,4,7,13,16,18,19,30,32,36,37,38,4,15,16,17,19,20,25,30,32,33,34,35,39,42,45,46,6,8,9,19,20,21,22,29,33,34,41,42,46,0,3,5,8,9,10,11,12,13,14,16,17,19,21,22,23,24,25,26,28,30,31,38,39,43,45,46],"categories_nodes":[3,4,5,6],"categories_segments":[0,13,29,42],"categories_sizes":[13,16,13,27],"default_left":[0,1,1,1,1,1,1,0,0,0,0,0,0,0,0],"id":24,"left_children":[1,3,5,7,9,11,13,-1,-1,-1,-1,-1,-1,-1,-1],"loss_changes":[3.7241137E4,4.2053867E4,9.798726E4,3.4854406E4,1.9790418E4,3.6018977E4,3.0138512E4,0E0,0E0,0E0,0E0,0E0,0E0,0E0,0E0],"parents":[2147483647,0,0,1,1,2,2,3,3,4,4,5,5,6,6],"right_children":[2,4,6,8,10,12,14,-1,-1,-1,-1,-1,-1,-1,-1],"split_conditions":[8.35E0,1.5E-1,6.5E-1,NaN,NaN,NaN,NaN,5.4005396E-2,-8.2504916E-1,5.356253E-1,-1.20893404E-1,-3.033218E-1,-9.4878244E-1,5.0827444E-1,-4.095223E-2],"split_indices":[14,7,7,12,12,12,12,0,0,0,0,0,0,0,0],"split_type":[0,0,0,1,1,1,1,0,0,0,0,0,0,0,0],"sum_hessian":[1.4087E4,6.676E3,7.411E3,3.743E3,2.933E3,3.761E3,3.65E3,3.282E3,4.61E2,2.438E3,4.95E2,2.664E3,1.097E3,1.583E3,2.067E3],"tree_param":{"num_deleted":"0","num_feature":"19","num_nodes":"15","size_leaf_vector":"1"}},{"base_weights":[-1.4758738E-2,1.8344477E0,-1.0062759E0,6.889955E0,8.6665934E-1,5.668229E-1,-3.2747416E0,5.716201E-1,1.8405082E0,1.3848573E-1,-5.6760746E-1,1.370515E0,3.2204866E-2,-4.6464986E-1,8.836713E-2],"categories":[0,1,4,9,13,15,16,17,22,23,24,27,29,31,33,35,37,39,41,43,1,2,3,4,5,6,7,8,9,10,12,14,15,16,17,19,20,21,24,26,27,28,29,30,31,33,35,37,39,41,43,46,2,6,7,8,9,12,13,16,19,20,28,29,30,31,32,33,34,35,38,39,41,42,43,0,1,2,3,4,5,6,7,8,9,10,11,12,13,14,15,16,17,18,19,20,21,22,23,25,26,27,28,29,30,31,32,33,34,35,36,37,38,39,40,41,42,43,44,45,46],"categories_nodes":[0,1,2,5],"categories_segments":[0,20,52,75],"categories_sizes":[20,32,23,46],"default_left":[1,1,1,1,0,1,1,0,0,0,0,0,0,0,0],"id":25,"left_children":[1,3,5,7,9,11,13,-1,-1,-1,-1,-1,-1,-1,-1],"loss_changes":[2.5884998E4,2.4076896E4,3.2811824E4,8.310195E3,1.6864953E4,1.707058E4,2.5813414E4,0E0,0E0,0E0,0E0,0E0,0E0,0E0,0E0],"parents":[2147483647,0,0,1,1,2,2,3,3,4,4,5,5,6,6],"right_children":[2,4,6,8,10,12,14,-1,-1,-1,-1,-1,-1,-1,-1],"split_conditions":[NaN,NaN,NaN,7.5E0,1E0,NaN,6E-1,5.716201E-1,1.8405082E0,1.3848573E-1,-5.6760746E-1,1.370515E0,3.2204866E-2,-4.6464986E-1,8.836713E-2],"split_indices":[9,12,12,7,6,12,7,0,0,0,0,0,0,0,0],"split_type":[1,1,1,0,0,1,0,0,0,0,0,0,0,0,0],"sum_hessian":[1.4117E4,4.926E3,9.191E3,7.9E2,4.136E3,5.427E3,3.764E3,7.41E2,4.9E1,3.807E3,3.29E2,8.6E1,5.341E3,2.714E3,1.05E3],"tree_param":{"num_deleted":"0","num_feature":"19","num_nodes":"15","size_leaf_vector":"1"}},{"base_weights":[1.9982021E-2,1.832648E0,-1.4009687E0,5.495352E-1,6.067308E0,-4.1639514E0,1.3940536E0,2.3735012E-1,-1.7949578E-1,6.442431E-1,-2.3171651E-1,-2.1533804E-1,-7.868867E-1,4.7493938E-1,-6.509934E-2],"categories":[0,4,7,9,10,12,14,29,40],"categories_nodes":[4],"categories_segments":[0],"categories_sizes":[9],"default_left":[0,1,1,0,1,0,0,0,0,0,0,0,0,0,0],"id":26,"left_children":[1,3,5,7,9,11,13,-1,-1,-1,-1,-1,-1,-1,-1],"loss_changes":[3.6208027E4,3.3545258E4,6.086047E4,2.266762E4,8.967734E3,3.098246E4,2.9506754E4,0E0,0E0,0E0,0E0,0E0,0E0,0E0,0E0],"parents":[2147483647,0,0,1,1,2,2,3,3,4,4,5,5,6,6],"right_children":[2,4,6,8,10,12,14,-1,-1,-1,-1,-1,-1,-1,-1],"split_conditions":[7.55E0,2.5E-1,5.75E-1,3.325E0,NaN,1.97E1,3.0525E1,2.3735012E-1,-1.7949578E-1,6.442431E-1,-2.3171651E-1,-2.1533804E-1,-7.868867E-1,4.7493938E-1,-6.509934E-2],"split_indices":[14,7,7,14,9,14,14,0,0,0,0,0,0,0,0],"split_type":[0,0,0,0,1,0,0,0,0,0,0,0,0,0,0],"sum_hessian":[1.4055E4,6.177E3,7.878E3,4.742E3,1.435E3,3.962E3,3.916E3,2.635E3,2.107E3,1.322E3,1.13E2,2.721E3,1.241E3,1.43E3,2.486E3],"tree_param":{"num_deleted":"0","num_feature":"19","num_nodes":"15","size_leaf_vector":"1"}},{"base_weights":[1.2029672E-2,1.1849813E0,-1.546727E0,3.574049E-2,2.8111944E0,3.3610108E-1,-3.7443235E0,4.3362144E-1,-4.2956233E-2,5.785607E-1,1.9235615E-1,7.142231E-1,-3.4750108E-2,-9.319318E-2,-4.9715084E-1],"categories":[0,1,2,3,6,0,1,2,3,7,1,2],"categories_nodes":[3,5,6],"categories_segments":[0,5,10],"categories_sizes":[5,5,2],"default_left":[0,1,0,0,0,0,1,0,0,0,0,0,0,0,0],"id":27,"left_children":[1,3,5,7,9,11,13,-1,-1,-1,-1,-1,-1,-1,-1],"loss_changes":[2.5926697E4,1.5116452E4,2.5201777E4,1.0547662E4,8.585451E3,1.661874E4,1.1628441E4,0E0,0E0,0E0,0E0,0E0,0E0,0E0,0E0],"parents":[2147483647,0,0,1,1,2,2,3,3,4,4,5,5,6,6],"right_children":[2,4,6,8,10,12,14,-1,-1,-1,-1,-1,-1,-1,-1],"split_conditions":[1.165E1,2.02E1,2E0,NaN,1.92E0,NaN,NaN,4.3362144E-1,-4.2956233E-2,5.785607E-1,1.9235615E-1,7.142231E-1,-3.4750108E-2,-9.319318E-2,-4.9715084E-1],"split_indices":[14,15,10,4,14,17,4,0,0,0,0,0,0,0,0],"split_type":[0,0,0,1,0,1,1,0,0,0,0,0,0,0,0],"sum_hessian":[1.4179E4,8.092E3,6.087E3,4.743E3,3.349E3,3.278E3,2.809E3,4.61E2,4.282E3,6.4E2,2.709E3,2.91E2,2.987E3,9.91E2,1.818E3],"tree_param":{"num_deleted":"0","num_feature":"19","num_nodes":"15","size_leaf_vector":"1"}},{"base_weights":[6.381614E-2,2.034438E0,-8.719682E-1,4.233556E0,3.748655E-1,5.2327365E-1,-3.2243886E0,1.5203643E0,3.6530945E-1,1.33917965E-2,1.7393411E0,1.2462555E0,3.0673843E-2,-4.491712E-1,-3.5380524E-2],"categories":[0,1,4,9,10,13,14,15,16,20,22,23,24,26,27,29,31,33,35,37,39,41,43,2,3,4,5,8,9,10,14,15,17,19,20,21,22,24,25,26,29,30,31,39,43,46,4,6,7,8,9,12,13,16,18,19,20,28,30,31,32,33,34,35,39,41,42,0,1,2,3,4,5,6,7,8,9,10,11,12,13,14,15,16,17,18,19,20,21,22,24,25,26,27,28,29,30,31,32,33,35,36,37,38,39,40,41,42,43,44,45,46,0,1,2,3,4,5,6,7,8,9,10,11,12,13,14,15,16,17,18,19,20,21,22,23,25,26,27,28,29,30,31,32,33,34,35,36,37,38,39,40,41,42,43,44,45,46],"categories_nodes":[0,1,2,3,5],"categories_segments":[0,23,46,67,112],"categories_sizes":[23,23,21,45,46],"default_left":[1,1,1,1,1,1,1,0,0,0,0,0,0,0,0],"id":28,"left_children":[1,3,5,7,9,11,13,-1,-1,-1,-1,-1,-1,-1,-1],"loss_changes":[2.5977242E4,1.6539152E4,3.1351475E4,8.596762E3,1.0805053E4,1.5062222E4,1.5348176E4,0E0,0E0,0E0,0E0,0E0,0E0,0E0,0E0],"parents":[2147483647,0,0,1,1,2,2,3,3,4,4,5,5,6,6],"right_children":[2,4,6,8,10,12,14,-1,-1,-1,-1,-1,-1,-1,-1],"split_conditions":[NaN,NaN,NaN,NaN,3.6E1,NaN,4.75E-1,1.5203643E0,3.6530945E-1,1.33917965E-2,1.7393411E0,1.2462555E0,3.0673843E-2,-4.491712E-1,-3.5380524E-2],"split_indices":[9,12,12,12,7,12,7,0,0,0,0,0,0,0,0],"split_type":[1,1,1,1,0,1,0,0,0,0,0,0,0,0,0],"sum_hessian":[1.4083E4,4.535E3,9.548E3,1.949E3,2.586E3,5.993E3,3.555E3,5.9E1,1.89E3,2.554E3,3.2E1,9.2E1,5.901E3,2.32E3,1.235E3],"tree_param":{"num_deleted":"0","num_feature":"19","num_nodes":"15","size_leaf_vector":"1"}},{"base_weights":[-1.4414813E-1,-1.2800822E0,1.0421327E0,-3.594716E-1,-9.025876E0,6.572923E0,2.8718728E-1,3.3203015E-1,-9.468499E-2,-6.8252015E-1,-1.5152236E0,1.0029619E-2,7.2805345E-1,1.4781384E-1,-1.7082727E-1],"categories":[0,7,15,16,18,19,20,30,33,34,39,42,46,1,2,5,6,8,9,10,11,12,14,15,16,17,19,20,21,22,23,24,25,27,28,29,30,31,32,33,35,37,38,39,41,42,43,44,45,46,0,1,2,3,4,5,6,7,8,9,12,13,14,15,16,17,18,19,20,22,26,27,28,29,30,31,32,33,34,35,36,37,38,39,40,41,42,43,44,46,19,33,34,9,14,19,20,39,46],"categories_nodes":[1,2,3,4,6],"categories_segments":[0,13,50,90,93],"categories_sizes":[13,37,40,3,6],"default_left":[1,1,1,1,1,0,1,0,0,0,0,0,0,0,0],"id":29,"left_children":[1,3,5,7,9,11,13,-1,-1,-1,-1,-1,-1,-1,-1],"loss_changes":[1.9053525E4,5.1481934E4,2.8850736E4,1.5956146E4,9.554758E3,5.9339336E3,1.6188833E4,0E0,0E0,0E0,0E0,0E0,0E0,0E0,0E0],"parents":[2147483647,0,0,1,1,2,2,3,3,4,4,5,5,6,6],"right_children":[2,4,6,8,10,12,14,-1,-1,-1,-1,-1,-1,-1,-1],"split_conditions":[2.75E-1,NaN,NaN,NaN,NaN,3.116E1,NaN,3.3203015E-1,-9.468499E-2,-6.8252015E-1,-1.5152236E0,1.0029619E-2,7.2805345E-1,1.4781384E-1,-1.7082727E-1],"split_indices":[7,12,12,12,12,15,12,0,0,0,0,0,0,0,0],"split_type":[0,1,1,1,1,0,1,0,0,0,0,0,0,0,0],"sum_hessian":[1.4137E4,7.223E3,6.914E3,6.457E3,7.66E2,8.29E2,6.085E3,9.16E2,5.541E3,6.09E2,1.57E2,1.22E2,7.07E2,3.783E3,2.302E3],"tree_param":{"num_deleted":"0","num_feature":"19","num_nodes":"15","size_leaf_vector":"1"}},{"base_weights":[8.584104E-2,8.7657857E-1,-2.228134E0,-5.562904E-1,3.609316E0,-6.000867E0,1.6798904E0,5.9893943E-2,-5.136276E-1,6.8104744E-1,1.948515E-1,-3.5425836E-1,-9.413111E-1,8.50307E-1,2.879141E-2],"categories":[0,3,7,15,16,18,19,20,27,30,32,34,35,36,39,42,43,46,1,5,6,8,9,10,11,12,14,15,16,17,19,20,21,23,24,25,28,29,31,32,33,35,37,38,39,40,41,42,45,46,9,12,15,18,19,33,34,36,41,43,0,2,3,4,5,6,7,9,10,11,12,13,14,16,17,18,19,20,21,22,23,24,25,26,27,28,29,30,31,32,35,36,37,38,39,40,42,43,45,46],"categories_nodes":[3,4,5,6],"categories_segments":[0,18,50,60],"categories_sizes":[18,32,10,40],"default_left":[0,1,1,1,1,1,1,0,0,0,0,0,0,0,0],"id":30,"left_children":[1,3,5,7,9,11,13,-1,-1,-1,-1,-1,-1,-1,-1],"loss_changes":[2.6016898E4,4.1517105E4,5.3410812E4,4.02111E4,2.02215E4,1.6319453E4,1.7823156E4,0E0,0E0,0E0,0E0,0E0,0E0,0E0,0E0],"parents":[2147483647,0,0,1,1,2,2,3,3,4,4,5,5,6,6],"right_children":[2,4,6,8,10,12,14,-1,-1,-1,-1,-1,-1,-1,-1],"split_conditions":[2.5275E1,3E-1,1.6E0,NaN,NaN,NaN,NaN,5.9893943E-2,-5.136276E-1,6.8104744E-1,1.948515E-1,-3.5425836E-1,-9.413111E-1,8.50307E-1,2.879141E-2],"split_indices":[14,7,7,12,12,12,12,0,0,0,0,0,0,0,0],"split_type":[0,0,0,1,1,1,1,0,0,0,0,0,0,0,0],"sum_hessian":[1.4219E4,1.0599E4,3.62E3,6.953E3,3.646E3,1.842E3,1.778E3,5.588E3,1.365E3,1.102E3,2.544E3,1.171E3,6.71E2,2.81E2,1.497E3],"tree_param":{"num_deleted":"0","num_feature":"19","num_nodes":"15","size_leaf_vector":"1"}},{"base_weights":[-3.6750555E-2,1.0810096E0,-1.5442142E0,1.9547356E-2,4.4580746E0,-4.7553077E0,8.222169E-1,1.7508787E-1,-1.8982811E-1,5.5794626E-1,2.3662557E-1,-3.6292413E-1,-8.677281E-1,3.6030748E-1,-1.598417E-1],"categories":[],"categories_nodes":[],"categories_segments":[],"categories_sizes":[],"default_left":[0,1,1,0,0,0,0,0,0,0,0,0,0,0,0],"id":31,"left_children":[1,3,5,7,9,11,13,-1,-1,-1,-1,-1,-1,-1,-1],"loss_changes":[2.3682121E4,2.8910836E4,4.5494715E4,2.2711297E4,5.3686914E3,1.0272824E4,2.5777596E4,0E0,0E0,0E0,0E0,0E0,0E0,0E0,0E0],"parents":[2147483647,0,0,1,1,2,2,3,3,4,4,5,5,6,6],"right_children":[2,4,6,8,10,12,14,-1,-1,-1,-1,-1,-1,-1,-1],"split_conditions":[1.165E1,3E-1,6.5E-1,3.9E0,1E0,4.03E1,4.685E1,1.7508787E-1,-1.8982811E-1,5.5794626E-1,2.3662557E-1,-3.6292413E-1,-8.677281E-1,3.6030748E-1,-1.598417E-1],"split_indices":[14,7,7,14,8,14,14,0,0,0,0,0,0,0,0],"split_type":[0,0,0,0,0,0,0,0,0,0,0,0,0,0,0],"sum_hessian":[1.4052E4,8.068E3,5.984E3,6.14E3,1.928E3,2.539E3,3.445E3,3.226E3,2.914E3,1.113E3,8.15E2,2.1E3,4.39E2,1.575E3,1.87E3],"tree_param":{"num_deleted":"0","num_feature":"19","num_nodes":"15","size_leaf_vector":"1"}},{"base_weights":[3.1803507E-2,3.513659E-1,-4.6275544E0,2.3515236E0,-4.2722422E-1,-9.792172E0,-3.2444706E0,3.5601708E-1,3.77414E-2,7.808248E-2,-2.3254949E-1,-1.2222518E0,-4.8600355E-1,-3.809328E-2,-7.528548E-1],"categories":[0,1,4,6,10,12,13,15,16,17,18,21,22,23,24,26,29,31,32,33,35,37,38,41,43],"categories_nodes":[1],"categories_segments":[0],"categories_sizes":[25],"default_left":[0,1,0,0,0,0,0,0,0,0,0,0,0,0,0],"id":32,"left_children":[1,3,5,7,9,11,13,-1,-1,-1,-1,-1,-1,-1,-1],"loss_changes":[2.0972646E4,2.0547605E4,6.3864844E3,1.0134762E4,2.4083104E4,2.631789E3,9.524281E3,0E0,0E0,0E0,0E0,0E0,0E0,0E0,0E0],"parents":[2147483647,0,0,1,1,2,2,3,3,4,4,5,5,6,6],"right_children":[2,4,6,8,10,12,14,-1,-1,-1,-1,-1,-1,-1,-1],"split_conditions":[1E0,NaN,1.4E-1,2.3175E1,1.0075E1,9.525E0,5.6625E1,3.5601708E-1,3.77414E-2,7.808248E-2,-2.3254949E-1,-1.2222518E0,-4.8600355E-1,-3.809328E-2,-7.528548E-1],"split_indices":[6,9,7,14,14,14,14,0,0,0,0,0,0,0,0],"split_type":[0,1,0,0,0,0,0,0,0,0,0,0,0,0,0],"sum_hessian":[1.4092E4,1.3189E4,9.03E2,3.696E3,9.493E3,1.89E2,7.14E2,2.148E3,1.548E3,5.869E3,3.624E3,1.12E2,7.7E1,4.46E2,2.68E2],"tree_param":{"num_deleted":"0","num_feature":"19","num_nodes":"15","size_leaf_vector":"1"}},{"base_weights":[3.2665227E-2,-2.9718804E-1,5.065586E0,7.773492E-1,-1.6676968E0,7.01121E0,-3.840152E0,-1.2691614E-1,2.1783993E-1,-3.325122E-1,1.8071073E-1,1.4143859E0,5.601847E-1,1.287353E-1,-1.0599502E0],"categories":[0,1,2,3,4,9,12,15,29,35,40,41,0,1,2,3,4,5,6,8,9,10,12,13,14,15,16,17,19,20,21,22,23,24,25,26,27,28,29,30,32,33,34,35,36,37,38,39,40,41,42,43],"categories_nodes":[2,5],"categories_segments":[0,12],"categories_sizes":[12,40],"default_left":[1,0,1,1,1,1,0,0,0,0,0,0,0,0,0],"id":33,"left_children":[1,3,5,7,9,11,13,-1,-1,-1,-1,-1,-1,-1,-1],"loss_changes":[2.3426902E4,1.9494658E4,1.5076457E4,2.3894734E4,3.8303844E4,6.0551094E3,6.0015376E3,0E0,0E0,0E0,0E0,0E0,0E0,0E0,0E0],"parents":[2147483647,0,0,1,1,2,2,3,3,4,4,5,5,6,6],"right_children":[2,4,6,8,10,12,14,-1,-1,-1,-1,-1,-1,-1,-1],"split_conditions":[8.747E1,1.075E1,NaN,1E-1,1.4E0,NaN,2.6075E1,-1.2691614E-1,2.1783993E-1,-3.325122E-1,1.8071073E-1,1.4143859E0,5.601847E-1,1.287353E-1,-1.0599502E0],"split_indices":[15,14,9,7,7,9,14,0,0,0,0,0,0,0,0],"split_type":[0,0,1,0,0,1,0,0,0,0,0,0,0,0,0],"sum_hessian":[1.4101E4,1.3234E4,8.67E2,7.417E3,5.817E3,7.12E2,1.55E2,3.101E3,4.316E3,3.84E3,1.977E3,8.5E1,6.27E2,9.1E1,6.4E1],"tree_param":{"num_deleted":"0","num_feature":"19","num_nodes":"15","size_leaf_vector":"1"}},{"base_weights":[-7.9288825E-2,2.3883782E-1,-5.0368924E0,2.7346513E0,-3.9087543E-1,-2.799851E0,-1.000778E1,1.1721532E0,1.269694E-1,1.2431366E-1,-1.4041643E-1,6.927162E-2,-5.0367635E-1,1.753452E0,-1.0632087E0],"categories":[12,14,17,18,24,26,29,32,34,38,0,1,2,3,4,5,6,7,8,9,11,14,15,16,17,18,19,20,22,23,26,27,28,30,31,32,33,34,35,36,37,38,39,41,42,43,44,46,0,1,2,6,1,0,1,2,3,5,6],"categories_nodes":[2,3,4,5,6],"categories_segments":[0,10,48,52,53],"categories_sizes":[10,38,4,1,6],"default_left":[0,0,1,1,0,0,0,0,0,0,0,0,0,0,0],"id":34,"left_children":[1,3,5,7,9,11,13,-1,-1,-1,-1,-1,-1,-1,-1],"loss_changes":[2.2231273E4,2.081199E4,9.385627E3,3.5795777E4,1.96361E4,5.239731E3,9.273395E3,0E0,0E0,0E0,0E0,0E0,0E0,0E0,0E0],"parents":[2147483647,0,0,1,1,2,2,3,3,4,4,5,5,6,6],"right_children":[2,4,6,8,10,12,14,-1,-1,-1,-1,-1,-1,-1,-1],"split_conditions":[1.96E2,3.325E0,NaN,NaN,NaN,NaN,NaN,1.1721532E0,1.269694E-1,1.2431366E-1,-1.4041643E-1,6.927162E-2,-5.0367635E-1,1.753452E0,-1.0632087E0],"split_indices":[0,14,12,12,4,3,4,0,0,0,0,0,0,0,0],"split_type":[0,0,1,1,1,1,1,0,0,0,0,0,0,0,0],"sum_hessian":[1.4085E4,1.3236E4,8.49E2,2.667E3,1.0569E4,5.87E2,2.62E2,3.36E2,2.331E3,4.126E3,6.443E3,2.44E2,3.43E2,1E1,2.52E2],"tree_param":{"num_deleted":"0","num_feature":"19","num_nodes":"15","size_leaf_vector":"1"}},{"base_weights":[-2.9848328E-2,-2.1257758E0,5.8994377E-1,-1.090464E0,-5.9008946E0,1.854202E0,-1.0751494E0,9.901629E-2,-2.9715326E-1,-3.1160146E-1,-7.798152E-1,1.00268796E-1,4.6027592E-1,-4.309053E-1,1.3328893E-1],"categories":[0,1],"categories_nodes":[4],"categories_segments":[0],"categories_sizes":[2],"default_left":[1,0,0,0,1,0,0,0,0,0,0,0,0,0,0],"id":35,"left_children":[1,3,5,7,9,11,13,-1,-1,-1,-1,-1,-1,-1,-1],"loss_changes":[1.8189812E4,1.2463916E4,2.274581E4,1.0971818E4,4.1173633E3,1.46604E4,4.0186547E4,0E0,0E0,0E0,0E0,0E0,0E0,0E0,0E0],"parents":[2147483647,0,0,1,1,2,2,3,3,4,4,5,5,6,6],"right_children":[2,4,6,8,10,12,14,-1,-1,-1,-1,-1,-1,-1,-1],"split_conditions":[7.5E-2,1.92E2,1.56E1,3.625E0,NaN,4.25E-1,8.25E-1,9.901629E-2,-2.9715326E-1,-3.1160146E-1,-7.798152E-1,1.00268796E-1,4.6027592E-1,-4.309053E-1,1.3328893E-1],"split_indices":[7,0,14,14,4,7,7,0,0,0,0,0,0,0,0],"split_type":[0,0,0,0,1,0,0,0,0,0,0,0,0,0,0],"sum_hessian":[1.3997E4,3.195E3,1.0802E4,2.509E3,6.86E2,6.141E3,4.661E3,1.227E3,1.282E3,3.25E2,3.61E2,4.856E3,1.285E3,1.943E3,2.718E3],"tree_param":{"num_deleted":"0","num_feature":"19","num_nodes":"15","size_leaf_vector":"1"}},{"base_weights":[1.0434922E-1,-1.5364374E-1,4.1338763E0,1.0633826E0,-8.998251E-1,5.5685997E0,-3.4871845E0,5.000502E-1,2.9874459E-2,-3.365714E-1,-2.9143825E-2,9.3372804E-1,3.4448504E-1,-7.4770376E-2,-1.548798E0],"categories":[3,9,13,14,15,16,17,19,20,22,25,26,28,29,31,32,33,34,35,36,37,39,40,41,42,43,46,3,7,16,30,40,41,42,1,2,3,5,7],"categories_nodes":[1,2,5],"categories_segments":[0,27,34],"categories_sizes":[27,7,5],"default_left":[1,1,1,0,0,1,0,0,0,0,0,0,0,0,0],"id":36,"left_children":[1,3,5,7,9,11,13,-1,-1,-1,-1,-1,-1,-1,-1],"loss_changes":[1.4581385E4,1.1961346E4,9.254056E3,1.5758445E4,1.2814996E4,5.813592E3,4.584117E3,0E0,0E0,0E0,0E0,0E0,0E0,0E0,0E0],"parents":[2147483647,0,0,1,1,2,2,3,3,4,4,5,5,6,6],"right_children":[2,4,6,8,10,12,14,-1,-1,-1,-1,-1,-1,-1,-1],"split_conditions":[8.747E1,NaN,NaN,2.36E0,3.019E1,NaN,9.841E1,5.000502E-1,2.9874459E-2,-3.365714E-1,-2.9143825E-2,9.3372804E-1,3.4448504E-1,-7.4770376E-2,-1.548798E0],"split_indices":[15,12,12,14,15,17,15,0,0,0,0,0,0,0,0],"split_type":[0,1,1,0,0,1,0,0,0,0,0,0,0,0,0],"sum_hessian":[1.4013E4,1.317E4,8.43E2,5.004E3,8.166E3,7.1E2,1.33E2,7.53E2,4.251E3,1.489E3,6.677E3,2.19E2,4.91E2,1.11E2,2.2E1],"tree_param":{"num_deleted":"0","num_feature":"19","num_nodes":"15","size_leaf_vector":"1"}},{"base_weights":[-1.0226844E-1,-3.2851574E-1,6.1585574E0,1.8780375E-1,-5.0470195E0,1.1683633E1,2.5615735E0,-5.322422E-2,2.9199332E-1,-3.718331E-1,-1.5975262E0,8.676614E-1,1.6447902E0,-1.187254E-1,9.5534956E-1],"categories":[],"categories_nodes":[],"categories_segments":[],"categories_sizes":[],"default_left":[1,0,0,1,0,0,0,0,0,0,0,0,0,0,0],"id":37,"left_children":[1,3,5,7,9,11,13,-1,-1,-1,-1,-1,-1,-1,-1],"loss_changes":[1.9942947E4,3.31486E4,9.685275E3,2.6593875E4,1.7674594E4,2.528998E3,8.615744E3,0E0,0E0,0E0,0E0,0E0,0E0,0E0,0E0],"parents":[2147483647,0,0,1,1,2,2,3,3,4,4,5,5,6,6],"right_children":[2,4,6,8,10,12,14,-1,-1,-1,-1,-1,-1,-1,-1],"split_conditions":[8.5E0,6.31E1,2.373E2,6E-1,3.46625E2,1.6E1,2.4E1,-5.322422E-2,2.9199332E-1,-3.718331E-1,-1.5975262E0,8.676614E-1,1.6447902E0,-1.187254E-1,9.5534956E-1],"split_indices":[7,14,14,7,14,7,7,0,0,0,0,0,0,0,0],"split_type":[0,0,0,0,0,0,0,0,0,0,0,0,0,0,0],"sum_hessian":[1.4089E4,1.3599E4,4.9E2,1.2258E4,1.341E3,1.92E2,2.98E2,9.736E3,2.522E3,1.226E3,1.15E2,1.35E2,5.7E1,1.98E2,1E2],"tree_param":{"num_deleted":"0","num_feature":"19","num_nodes":"15","size_leaf_vector":"1"}},{"base_weights":[9.347818E-2,1.6727138E0,-6.718497E-1,7.1797557E0,8.020041E-1,9.706726E-1,-1.5727344E0,1.2559496E-1,9.188267E-1,3.3532885E-1,-7.076182E-2,5.0801116E-1,-4.551114E-3,-1.2536038E-2,-3.3092377E-1],"categories":[0,1,3,4,5,7,9,10,11,13,14,15,16,17,18,19,20,22,23,26,27,28,29,30,32,33,34,35,36,37,38,39,40,41,42,43,44,46,0,1,3,4,5,9,10,13,15,16,17,20,21,22,23,24,26,29,30,31,33,35,37,38,39,41,43,0,2,4,5,6,9,14,16,17,18,19,20,22,24,25,27,28,29,30,31,32,36,39,42,43,2,3,5,6,7,9,10,11,12,14,16,17,19,20,21,22,23,24,25,26,27,28,29,30,31,35,37,39,41,43,45,46,6,9,12,13,14,15,19,20,22,25,29,34,37,39,42],"categories_nodes":[1,2,4,5,6],"categories_segments":[0,38,65,90,122],"categories_sizes":[38,27,25,32,15],"default_left":[0,1,1,1,1,1,1,0,0,0,0,0,0,0,0],"id":38,"left_children":[1,3,5,7,9,11,13,-1,-1,-1,-1,-1,-1,-1,-1],"loss_changes":[1.7019264E4,2.201307E4,1.4034067E4,9.190807E3,1.6841242E4,1.5034189E4,1.6923018E4,0E0,0E0,0E0,0E0,0E0,0E0,0E0,0E0],"parents":[2147483647,0,0,1,1,2,2,3,3,4,4,5,5,6,6],"right_children":[2,4,6,8,10,12,14,-1,-1,-1,-1,-1,-1,-1,-1],"split_conditions":[5.225E0,NaN,NaN,1.75E2,NaN,NaN,NaN,1.2559496E-1,9.188267E-1,3.3532885E-1,-7.076182E-2,5.0801116E-1,-4.551114E-3,-1.2536038E-2,-3.3092377E-1],"split_indices":[14,12,9,0,9,12,12,0,0,0,0,0,0,0,0],"split_type":[0,1,1,0,1,1,1,0,0,0,0,0,0,0,0],"sum_hessian":[1.4077E4,4.596E3,9.481E3,6.26E2,3.97E3,3.357E3,6.124E3,1.89E2,4.37E2,1.435E3,2.535E3,6.32E2,2.725E3,3.5E3,2.624E3],"tree_param":{"num_deleted":"0","num_feature":"19","num_nodes":"15","size_leaf_vector":"1"}},{"base_weights":[8.6707085E-2,-1.0493058E-1,5.464471E0,3.4371406E-1,-4.8740587E0,1.0241744E1,1.872581E0,1.6166462E-3,4.9541235E-1,-7.242549E-1,-1.4105316E-1,8.2958335E-1,2.0047462E0,1.1123303E0,-1.7031416E-1],"categories":[1,2,5],"categories_nodes":[2],"categories_segments":[0],"categories_sizes":[3],"default_left":[1,0,1,1,1,0,0,0,0,0,0,0,0,0,0],"id":39,"left_children":[1,3,5,7,9,11,13,-1,-1,-1,-1,-1,-1,-1,-1],"loss_changes":[1.45561045E4,2.9163635E4,8.283966E3,1.9850715E4,1.0947422E4,3.1015684E3,1.0152089E4,0E0,0E0,0E0,0E0,0E0,0E0,0E0,0E0],"parents":[2147483647,0,0,1,1,2,2,3,3,4,4,5,5,6,6],"right_children":[2,4,6,8,10,12,14,-1,-1,-1,-1,-1,-1,-1,-1],"split_conditions":[8.5E0,7.02E1,NaN,1.6E0,3E0,1.89E2,1.6095E2,1.6166462E-3,4.9541235E-1,-7.242549E-1,-1.4105316E-1,8.2958335E-1,2.0047462E0,1.1123303E0,-1.7031416E-1],"split_indices":[7,14,18,7,7,0,14,0,0,0,0,0,0,0,0],"split_type":[0,0,1,0,0,0,0,0,0,0,0,0,0,0,0],"sum_hessian":[1.4107E4,1.3622E4,4.85E2,1.2451E4,1.171E3,2.07E2,2.78E2,1.1672E4,7.79E2,6.43E2,5.28E2,1.84E2,2.3E1,7.5E1,2.03E2],"tree_param":{"num_deleted":"0","num_feature":"19","num_nodes":"15","size_leaf_vector":"1"}},{"base_weights":[-6.7954674E-2,1.5726303E0,-6.847894E-1,1.1096127E0,6.4561715E0,-1.303914E-1,-3.7395945E0,1.3668032E-1,-1.20772E0,1.1807879E0,3.997225E-1,-6.8705946E-2,4.7745413E-1,-6.039387E-1,8.790007E-2],"categories":[0,1,4,7,9,10,13,14,15,16,17,20,21,22,23,24,25,26,27,29,31,32,33,35,37,38,39,41,42,43],"categories_nodes":[0],"categories_segments":[0],"categories_sizes":[30],"default_left":[1,1,0,0,0,1,0,0,0,0,0,0,0,0,0],"id":40,"left_children":[1,3,5,7,9,11,13,-1,-1,-1,-1,-1,-1,-1,-1],"loss_changes":[1.4190277E4,8.632664E3,1.7252234E4,1.6123283E4,4.3453174E3,2.6515787E4,1.9258271E4,0E0,0E0,0E0,0E0,0E0,0E0,0E0,0E0],"parents":[2147483647,0,0,1,1,2,2,3,3,4,4,5,5,6,6],"right_children":[2,4,6,8,10,12,14,-1,-1,-1,-1,-1,-1,-1,-1],"split_conditions":[NaN,1E1,3.0525E1,3.46625E2,1.7605E2,6E-1,2.4E0,1.3668032E-1,-1.20772E0,1.1807879E0,3.997225E-1,-6.8705946E-2,4.7745413E-1,-6.039387E-1,8.790007E-2],"split_indices":[9,7,14,14,14,7,7,0,0,0,0,0,0,0,0],"split_type":[1,0,0,0,0,0,0,0,0,0,0,0,0,0,0],"sum_hessian":[1.4023E4,3.83E3,1.0193E4,3.5E3,3.3E2,8.629E3,1.564E3,3.419E3,8.1E1,8.8E1,2.42E2,7.74E3,8.89E2,1E3,5.64E2],"tree_param":{"num_deleted":"0","num_feature":"19","num_nodes":"15","size_leaf_vector":"1"}},{"base_weights":[1.3197494E-1,1.8024075E0,-5.4453564E-1,3.273157E0,-1.9168285E-1,-2.3072621E-1,-4.5052857E0,1.9095965E-1,4.855628E-1,-2.3288704E-1,3.4502777E-1,1.09292336E-1,-1.1838124E-1,9.249227E-1,-4.988E-1],"categories":[0,1,4,6,7,9,10,12,13,15,16,17,18,20,21,22,23,29,30,31,32,33,35,37,39,41,42,43,0,1,2,3,5,6],"categories_nodes":[0,6],"categories_segments":[0,28],"categories_sizes":[28,6],"default_left":[1,0,0,0,1,0,1,0,0,0,0,0,0,0,0],"id":41,"left_children":[1,3,5,7,9,11,13,-1,-1,-1,-1,-1,-1,-1,-1],"loss_changes":[1.5809849E4,1.1837882E4,1.2356786E4,5.3747715E3,1.4873112E4,1.3006012E4,7.9357793E3,0E0,0E0,0E0,0E0,0E0,0E0,0E0,0E0],"parents":[2147483647,0,0,1,1,2,2,3,3,4,4,5,5,6,6],"right_children":[2,4,6,8,10,12,14,-1,-1,-1,-1,-1,-1,-1,-1],"split_conditions":[NaN,2.3175E1,1.96E2,1.86E1,3.2E0,6.275E0,NaN,1.9095965E-1,4.855628E-1,-2.3288704E-1,3.4502777E-1,1.09292336E-1,-1.1838124E-1,9.249227E-1,-4.988E-1],"split_indices":[9,14,0,11,7,14,4,0,0,0,0,0,0,0,0],"split_type":[1,0,0,0,0,0,1,0,0,0,0,0,0,0,0],"sum_hessian":[1.3985E4,4.032E3,9.953E3,2.321E3,1.711E3,9.224E3,7.29E2,1.384E3,9.37E2,1.076E3,6.35E2,3.909E3,5.315E3,3.6E1,6.93E2],"tree_param":{"num_deleted":"0","num_feature":"19","num_nodes":"15","size_leaf_vector":"1"}},{"base_weights":[1.560224E-1,1.6689295E0,-3.2508573E-1,9.9505955E-1,5.8212585E0,-5.3379136E-1,4.042019E0,2.0120111E-1,-5.1186495E-2,3.9047664E-1,9.2220974E-1,-1.2659712E-1,4.821256E-2,4.8955497E-1,-2.5751516E-1],"categories":[0,1,9,10,13,16,17,18,20,22,23,24,26,28,29,31,32,33,35,36,37,39,40,41,42,43,0,1,4,5,0,1,2,3,4,5,6,7,8,9,11,12,14,15,16,17,19,21,22,23,29,36],"categories_nodes":[0,3,6],"categories_segments":[0,26,30],"categories_sizes":[26,4,22],"default_left":[1,0,1,1,0,0,1,0,0,0,0,0,0,0,0],"id":42,"left_children":[1,3,5,7,9,11,13,-1,-1,-1,-1,-1,-1,-1,-1],"loss_changes":[1.0301778E4,9.529371E3,9.774111E3,5.0978486E3,3.0840137E3,8.570959E3,3.736984E3,0E0,0E0,0E0,0E0,0E0,0E0,0E0,0E0],"parents":[2147483647,0,0,1,1,2,2,3,3,4,4,5,5,6,6],"right_children":[2,4,6,8,10,12,14,-1,-1,-1,-1,-1,-1,-1,-1],"split_conditions":[NaN,3E0,8.901E1,NaN,8.715E1,2E0,NaN,2.0120111E-1,-5.1186495E-2,3.9047664E-1,9.2220974E-1,-1.2659712E-1,4.821256E-2,4.8955497E-1,-2.5751516E-1],"split_indices":[9,13,15,18,15,13,9,0,0,0,0,0,0,0,0],"split_type":[1,0,0,1,0,0,1,0,0,0,0,0,0,0,0],"sum_hessian":[1.4146E4,3.414E3,1.0732E4,2.939E3,4.75E2,1.0244E4,4.88E2,1.695E3,1.244E3,3.33E2,1.42E2,5.791E3,4.453E3,4.19E2,6.9E1],"tree_param":{"num_deleted":"0","num_feature":"19","num_nodes":"15","size_leaf_vector":"1"}},{"base_weights":[-1.0350736E-1,8.3747256E-1,-9.9805856E-1,4.289876E-1,4.6615667E0,-1.5587077E0,1.4616491E0,8.5694957E-1,2.9178929E-2,1.2642163E0,3.7144196E-1,3.6250085E-1,-1.730222E-1,-1.22279495E-1,4.241308E-1],"categories":[3,9,14,15,16,17,19,20,22,27,29,31,35,39,40,42,0,1,2,3,4,5,6,7,8,9,10,11,12,13,14,15,16,17,18,19,20,21,22,23,25,26,27,28,29,30,31,32,33,34,35,36,37,38,39,40,41,42,43,44,45,46,0,1,2,3,6,7,0,1,2,3,5],"categories_nodes":[0,3,4,5],"categories_segments":[0,16,62,68],"categories_sizes":[16,46,6,5],"default_left":[1,0,0,1,0,0,0,0,0,0,0,0,0,0,0],"id":43,"left_children":[1,3,5,7,9,11,13,-1,-1,-1,-1,-1,-1,-1,-1],"loss_changes":[1.1775782E4,1.0629901E4,9.894372E3,6.3935845E3,4.126215E3,8.405014E3,1.1055711E4,0E0,0E0,0E0,0E0,0E0,0E0,0E0,0E0],"parents":[2147483647,0,0,1,1,2,2,3,3,4,4,5,5,6,6],"right_children":[2,4,6,8,10,12,14,-1,-1,-1,-1,-1,-1,-1,-1],"split_conditions":[NaN,6.1975E1,4E0,NaN,NaN,NaN,1.45E0,8.5694957E-1,2.9178929E-2,1.2642163E0,3.7144196E-1,3.6250085E-1,-1.730222E-1,-1.22279495E-1,4.241308E-1],"split_indices":[12,11,13,12,17,17,11,0,0,0,0,0,0,0,0],"split_type":[1,0,0,1,1,1,0,0,0,0,0,0,0,0,0],"sum_hessian":[1.3987E4,6.815E3,7.172E3,6.159E3,6.56E2,5.842E3,1.33E3,8.4E1,6.075E3,5E1,6.06E2,2.75E2,5.567E3,6.95E2,6.35E2],"tree_param":{"num_deleted":"0","num_feature":"19","num_nodes":"15","size_leaf_vector":"1"}},{"base_weights":[-1.3604269E-2,2.266524E0,-3.5909647E-1,5.885878E0,-4.9382767E-1,-1.2509945E-1,-3.730971E0,1.3550232E-1,7.2402054E-1,-3.1615067E-1,1.9906583E-1,1.8423405E-1,-6.8634644E-2,-2.1611296E-1,-1.4615715E0],"categories":[0,1,2,3,5,8,9,10,13,15,17,19,20,21,22,25,27,28,29,30,31,35,36,37,38,39,41,42,44,46,10,12,17,18,34,38],"categories_nodes":[0,1,6],"categories_segments":[0,4,30],"categories_sizes":[4,26,6],"default_left":[0,1,0,0,0,0,1,0,0,0,0,0,0,0,0],"id":44,"left_children":[1,3,5,7,9,11,13,-1,-1,-1,-1,-1,-1,-1,-1],"loss_changes":[1.1076603E4,1.850186E4,9.628071E3,6.2240195E3,7.754104E3,1.4165657E4,1.3343116E4,0E0,0E0,0E0,0E0,0E0,0E0,0E0,0E0],"parents":[2147483647,0,0,1,1,2,2,3,3,4,4,5,5,6,6],"right_children":[2,4,6,8,10,12,14,-1,-1,-1,-1,-1,-1,-1,-1],"split_conditions":[NaN,NaN,1.96E2,5.286E1,7.201E1,3.7E0,NaN,1.3550232E-1,7.2402054E-1,-3.1615067E-1,1.9906583E-1,1.8423405E-1,-6.8634644E-2,-2.1611296E-1,-1.4615715E0],"split_indices":[4,12,0,15,15,14,12,0,0,0,0,0,0,0,0],"split_type":[1,1,0,0,0,0,1,0,0,0,0,0,0,0,0],"sum_hessian":[1.4066E4,1.849E3,1.2217E4,8E2,1.049E3,1.1426E4,7.91E2,2.27E2,5.73E2,5.01E2,5.48E2,2.564E3,8.862E3,7.05E2,8.6E1],"tree_param":{"num_deleted":"0","num_feature":"19","num_nodes":"15","size_leaf_vector":"1"}},{"base_weights":[-1.0759555E-2,1.9522345E-1,-3.6169522E0,1.4018177E0,-5.976198E-1,3.1398563E0,-5.763128E0,6.5842426E-1,6.986396E-2,-3.1764846E-2,-7.2980934E-1,9.9587226E-1,1.3071811E-1,-4.1031316E-1,-1.1976136E0],"categories":[2,3,4,7,8,9,14,16,17,19,20,28,29,30,31,32,36,37,39,41,42,43,46,0,2,4,5,6,7,9,10,12,13,14,15,16,17,18,19,20,21,22,23,25,26,27,29,30,31,32,33,34,35,36,37,38,39,40,41,42,43,45,0,1,9,14,23,35,37,41,1,2,3,4,10,17,18,27,34,38],"categories_nodes":[1,2,4,5,6],"categories_segments":[0,23,62,70,74],"categories_sizes":[23,39,8,4,6],"default_left":[0,1,1,0,1,1,1,0,0,0,0,0,0,0,0],"id":45,"left_children":[1,3,5,7,9,11,13,-1,-1,-1,-1,-1,-1,-1,-1],"loss_changes":[1.0474997E4,1.2751436E4,1.1075954E4,1.9455467E4,1.4962969E4,2.3368848E3,5.59942E3,0E0,0E0,0E0,0E0,0E0,0E0,0E0,0E0],"parents":[2147483647,0,0,1,1,2,2,3,3,4,4,5,5,6,6],"right_children":[2,4,6,8,10,12,14,-1,-1,-1,-1,-1,-1,-1,-1],"split_conditions":[1.97E2,NaN,NaN,2.085E0,NaN,NaN,NaN,6.5842426E-1,6.986396E-2,-3.1764846E-2,-7.2980934E-1,9.9587226E-1,1.3071811E-1,-4.1031316E-1,-1.1976136E0],"split_indices":[0,12,12,14,9,1,12,0,0,0,0,0,0,0,0],"split_type":[0,1,1,0,1,1,1,0,0,0,0,0,0,0,0],"sum_hessian":[1.4086E4,1.3325E4,7.61E2,5.285E3,8.04E3,1.83E2,5.78E2,5.64E2,4.721E3,7.755E3,2.85E2,3.4E1,1.49E2,4.8E2,9.8E1],"tree_param":{"num_deleted":"0","num_feature":"19","num_nodes":"15","size_leaf_vector":"1"}},{"base_weights":[-8.464153E-2,-3.244781E-1,3.6108015E0,-1.1915596E0,7.890509E-1,2.1168356E0,7.9472075E0,-4.9649686E-2,-3.283287E-1,4.2908773E-1,3.2458182E-2,5.030426E-1,-3.626866E-2,5.881482E-1,1.8530236E0],"categories":[1,8,9,10,11,16,22,24,26,28,31,36,37,38,41,0,1,3,4,6,7,8,9,11,12,13,14,15,16,17,18,19,20,21,22,23,24,25,27,29,30,31,32,33,34,36,39,40,41,42,43,0,1,2,3,4,5,6,7,8,9,10,12,14,15,16,17,18,19,20,21,22,23,25,26,27,28,29,30,31,32,33,34,35,37,38,39,40,41,42],"categories_nodes":[3,4,5],"categories_segments":[0,15,51],"categories_sizes":[15,36,39],"default_left":[1,0,0,1,1,1,0,0,0,0,0,0,0,0,0],"id":46,"left_children":[1,3,5,7,9,11,13,-1,-1,-1,-1,-1,-1,-1,-1],"loss_changes":[1.2536923E4,1.2837775E4,5.5374033E3,1.1332031E4,9.699037E3,5.1464424E3,4.2462695E3,0E0,0E0,0E0,0E0,0E0,0E0,0E0,0E0],"parents":[2147483647,0,0,1,1,2,2,3,3,4,4,5,5,6,6],"right_children":[2,4,6,8,10,12,14,-1,-1,-1,-1,-1,-1,-1,-1],"split_conditions":[5E0,2E0,4.101E2,NaN,NaN,NaN,3.8E1,-4.9649686E-2,-3.283287E-1,4.2908773E-1,3.2458182E-2,5.030426E-1,-3.626866E-2,5.881482E-1,1.8530236E0],"split_indices":[7,13,11,9,9,9,7,0,0,0,0,0,0,0,0],"split_type":[0,0,0,1,1,1,0,0,0,0,0,0,0,0,0],"sum_hessian":[1.4154E4,1.3293E4,8.61E2,7.475E3,5.818E3,6.42E2,2.19E2,5.78E3,1.695E3,6.19E2,5.199E3,2.82E2,3.6E2,1.92E2,2.7E1],"tree_param":{"num_deleted":"0","num_feature":"19","num_nodes":"15","size_leaf_vector":"1"}},{"base_weights":[-5.1348805E-2,4.846692E-3,-1.3191235E1,-3.4052467E-1,1.9209903E0,-1.6155825E1,-3.6401838E-1,1.8189311E-2,-3.0671817E-1,3.4004718E-1,8.902127E-2,-1.6750686E0,-9.074419E-1],"categories":[0,0,1,3,4,5,8,9,10,12,13,14,15,16,17,18,19,20,21,22,23,25,26,27,28,29,30,31,32,33,34,35,37,38,40,41,42,43],"categories_nodes":[0,4],"categories_segments":[0,1],"categories_sizes":[1,37],"default_left":[1,0,0,0,1,0,0,0,0,0,0,0,0],"id":47,"left_children":[1,3,5,7,9,11,-1,-1,-1,-1,-1,-1,-1],"loss_changes":[1.0403839E4,9.25511E3,1.5410596E3,1.8271648E4,3.47904E3,1.9922949E2,0E0,0E0,0E0,0E0,0E0,0E0,0E0],"parents":[2147483647,0,0,1,1,2,2,3,3,4,4,5,5],"right_children":[2,4,6,8,10,12,-1,-1,-1,-1,-1,-1,-1],"split_conditions":[NaN,6.11E1,7.5E-2,2.99E1,NaN,9.475E0,-3.6401838E-1,1.8189311E-2,-3.0671817E-1,3.4004718E-1,8.902127E-2,-1.6750686E0,-9.074419E-1],"split_indices":[4,11,11,14,9,14,0,0,0,0,0,0,0],"split_type":[1,0,0,0,1,0,0,0,0,0,0,0,0],"sum_hessian":[1.4035E4,1.3976E4,5.9E1,1.1841E4,2.135E3,4.4E1,1.5E1,1.0002E4,1.839E3,7.89E2,1.346E3,3.4E1,1E1],"tree_param":{"num_deleted":"0","num_feature":"19","num_nodes":"13","size_leaf_vector":"1"}},{"base_weights":[-5.641284E-2,-1.4470009E0,5.689975E-1,1.3797355E0,-2.6624134E0,1.9116364E0,-9.248646E-1,-3.9185834E-1,2.4502787E-1,3.469369E-1,-3.0350694E-1,5.716485E-1,1.3786955E-1,-3.178673E-1,8.532472E-2],"categories":[0,1,2,3,4,5,6,7,9,10,12,13,14,15,16,17,19,20,21,22,24,27,28,30,31,32,33,34,35,36,37,38,39,40,41,42,43,0,1,2,4,6,7,8,9,10,11,12,13,14,15,16,17,18,20,21,22,23,24,26,28,29,31,33,36,37,40,41,42,43],"categories_nodes":[4,5],"categories_segments":[0,37],"categories_sizes":[37,33],"default_left":[1,0,0,0,1,1,0,0,0,0,0,0,0,0,0],"id":48,"left_children":[1,3,5,7,9,11,13,-1,-1,-1,-1,-1,-1,-1,-1],"loss_changes":[1.2213008E4,1.4976651E4,1.942609E4,8.718565E3,1.0426094E4,9.569553E3,2.0333572E4,0E0,0E0,0E0,0E0,0E0,0E0,0E0,0E0],"parents":[2147483647,0,0,1,1,2,2,3,3,4,4,5,5,6,6],"right_children":[2,4,6,8,10,12,14,-1,-1,-1,-1,-1,-1,-1,-1],"split_conditions":[1.25E-1,1.92E0,1.57E1,1E-2,NaN,NaN,1E0,-3.9185834E-1,2.4502787E-1,3.469369E-1,-3.0350694E-1,5.716485E-1,1.3786955E-1,-3.178673E-1,8.532472E-2],"split_indices":[7,14,14,14,9,9,7,0,0,0,0,0,0,0,0],"split_type":[0,0,0,0,1,1,0,0,0,0,0,0,0,0,0],"sum_hessian":[1.4038E4,4.356E3,9.682E3,1.309E3,3.047E3,5.1E3,4.582E3,2.34E2,1.075E3,2.39E2,2.808E3,5.07E2,4.593E3,1.966E3,2.616E3],"tree_param":{"num_deleted":"0","num_feature":"19","num_nodes":"15","size_leaf_vector":"1"}},{"base_weights":[-6.4682014E-2,7.893378E-1,-1.1320621E0,-9.7392267E-1,1.5795331E0,-6.8627E-1,-6.6931806E0,1.3607243E-1,-3.709749E-1,4.170438E-1,8.9469634E-2,-1.0621735E-1,2.6050752E-1,-2.4004051E-1,-9.5686096E-1],"categories":[3,6,8,9,14,15,16,19,20,25,28,29,34,35,39,43,46,1,2,16,23,27,29,30,31,33,35,37,38,0,1,2,4,5,7,13,18,22,26,30,31,32,36,37,38,40,41,2,3,4,6,7,8,9,12,14,15,16,17,18,19,20,21,23,24,25,27,28,29,30,31,32,33,34,35,37,39,40,41,42,43,44,45,46,3,9,16,19,20,34,39],"categories_nodes":[0,2,3,4,6],"categories_segments":[0,17,29,47,84],"categories_sizes":[17,12,18,37,7],"default_left":[1,1,1,1,1,1,1,0,0,0,0,0,0,0,0],"id":49,"left_children":[1,3,5,7,9,11,13,-1,-1,-1,-1,-1,-1,-1,-1],"loss_changes":[1.2864998E4,1.0924197E4,1.5527159E4,1.7199123E4,9.685399E3,8.672649E3,6.5219297E3,0E0,0E0,0E0,0E0,0E0,0E0,0E0,0E0],"parents":[2147483647,0,0,1,1,2,2,3,3,4,4,5,5,6,6],"right_children":[2,4,6,8,10,12,14,-1,-1,-1,-1,-1,-1,-1,-1],"split_conditions":[NaN,1.25E-1,NaN,NaN,NaN,3.2E0,NaN,1.3607243E-1,-3.709749E-1,4.170438E-1,8.9469634E-2,-1.0621735E-1,2.6050752E-1,-2.4004051E-1,-9.5686096E-1],"split_indices":[12,7,9,12,12,7,12,0,0,0,0,0,0,0,0],"split_type":[1,0,1,1,1,0,1,0,0,0,0,0,0,0,0],"sum_hessian":[1.411E4,7.837E3,6.273E3,2.424E3,5.413E3,5.809E3,4.64E2,1.332E3,1.092E3,9.93E2,4.42E3,5.158E3,6.51E2,2.1E2,2.54E2],"tree_param":{"num_deleted":"0","num_feature":"19","num_nodes":"15","size_leaf_vector":"1"}},{"base_weights":[-1.8668972E-1,6.5995717E0,-2.771023E-1,-1.6432644E-1,1.2380528E1,-2.1807832E-1,-1.2430298E1,-7.225552E-1,8.476711E-1,1.6921629E0,3.4537193E-1,-5.144732E-2,1.4879887E-1,-4.7489256E-1,-1.7622298E0],"categories":[0,1,2,3,4,5,6,7,8,9,11,12,13,14,15,16,17,18,19,20,21,22,23,25,26,27,28,29,30,31,32,33,34,35,36,37,38,39,40,41,42,43,44,45,46,4,0,0,3,5,6,1],"categories_nodes":[0,2,3,4,6],"categories_segments":[0,45,46,47,51],"categories_sizes":[45,1,1,4,1],"default_left":[1,0,1,1,1,0,0,0,0,0,0,0,0,0,0],"id":50,"left_children":[1,3,5,7,9,11,13,-1,-1,-1,-1,-1,-1,-1,-1],"loss_changes":[8.634718E3,7.2725166E3,9.942425E3,5.9090063E3,4.654501E3,8.043735E3,2.900878E3,0E0,0E0,0E0,0E0,0E0,0E0,0E0,0E0],"parents":[2147483647,0,0,1,1,2,2,3,3,4,4,5,5,6,6],"right_children":[2,4,6,8,10,12,14,-1,-1,-1,-1,-1,-1,-1,-1],"split_conditions":[NaN,1E0,NaN,NaN,NaN,1E0,NaN,-7.225552E-1,8.476711E-1,1.6921629E0,3.4537193E-1,-5.144732E-2,1.4879887E-1,-4.7489256E-1,-1.7622298E0],"split_indices":[12,8,1,16,4,5,4,0,0,0,0,0,0,0,0],"split_type":[1,0,1,1,1,0,1,0,0,0,0,0,0,0,0],"sum_hessian":[1.41E4,1.84E2,1.3916E4,8.5E1,9.9E1,1.385E4,6.6E1,4.7E1,3.8E1,6E1,3.9E1,1.1723E4,2.127E3,3.1E1,3.5E1],"tree_param":{"num_deleted":"0","num_feature":"19","num_nodes":"15","size_leaf_vector":"1"}},{"base_weights":[6.9191046E-2,-1.2786683E-1,3.3707478E0,-2.385026E-2,-5.584933E0,5.698844E0,-2.6025343E0,1.0276859E-2,-3.5289213E-1,2.6036045E-1,-9.369946E-1,7.8653544E-1,2.2721346E-1,1.9986646E-1,-8.0064636E-1],"categories":[0,1,2,3,4,6,9,12,15,16,17,19,20,21,22,23,25,27,29,30,34,38,41,0,9,16,20,21,22,31,42,0,1,3,1,2,5,7],"categories_nodes":[2,3,4,5],"categories_segments":[0,23,31,34],"categories_sizes":[23,8,3,4],"default_left":[1,0,1,1,0,1,0,0,0,0,0,0,0,0,0],"id":51,"left_children":[1,3,5,7,9,11,13,-1,-1,-1,-1,-1,-1,-1,-1],"loss_changes":[9.171227E3,7.5256455E3,1.1065782E4,6.3950786E3,8.940243E3,4.85975E3,6.179694E3,0E0,0E0,0E0,0E0,0E0,0E0,0E0,0E0],"parents":[2147483647,0,0,1,1,2,2,3,3,4,4,5,5,6,6],"right_children":[2,4,6,8,10,12,14,-1,-1,-1,-1,-1,-1,-1,-1],"split_conditions":[8.822E1,3.635E2,NaN,NaN,NaN,NaN,2.13E1,1.0276859E-2,-3.5289213E-1,2.6036045E-1,-9.369946E-1,7.8653544E-1,2.2721346E-1,1.9986646E-1,-8.0064636E-1],"split_indices":[15,14,9,9,17,17,14,0,0,0,0,0,0,0,0],"split_type":[0,0,1,1,1,1,0,0,0,0,0,0,0,0,0],"sum_hessian":[1.408E4,1.3287E4,7.93E2,1.304E4,2.47E2,5.71E2,2.22E2,1.259E4,4.5E2,8.4E1,1.63E2,3.18E2,2.53E2,1.23E2,9.9E1],"tree_param":{"num_deleted":"0","num_feature":"19","num_nodes":"15","size_leaf_vector":"1"}},{"base_weights":[-9.524437E-2,3.241719E-1,-1.8924384E0,6.5618634E-1,-2.1761107E0,4.8433638E-1,-2.9857106E0,2.4250765E-1,4.6259793E-3,-7.517248E-2,-6.797119E-1,1.9646509E-1,-2.4492943E-1,-2.1340354E-1,-7.582088E-1],"categories":[11,15,16,19,20,30,32,38,39,46,0,1,4,9,10,15,16,19,20,21,22,29,31,37,41,42,0,1,2,4,0,1,7,9,14,29,31,34,37,41,42,0,1,2,3,4,5,6,7,8,9,11,12,15,16,17,20,21,22,23,25,26,29,30,31,32,33,34,36,2,5,11,13,24,27,28,30,33,35],"categories_nodes":[0,1,2,3,4,5,6],"categories_segments":[0,10,26,30,32,41,69],"categories_sizes":[10,16,4,2,9,28,10],"default_left":[1,1,1,0,1,1,1,0,0,0,0,0,0,0,0],"id":52,"left_children":[1,3,5,7,9,11,13,-1,-1,-1,-1,-1,-1,-1,-1],"loss_changes":[1.0607881E4,9.46367E3,6.9286533E3,1.1629566E4,9.201637E3,4.095064E3,6.667167E3,0E0,0E0,0E0,0E0,0E0,0E0,0E0,0E0],"parents":[2147483647,0,0,1,1,2,2,3,3,4,4,5,5,6,6],"right_children":[2,4,6,8,10,12,14,-1,-1,-1,-1,-1,-1,-1,-1],"split_conditions":[NaN,NaN,NaN,NaN,NaN,NaN,NaN,2.4250765E-1,4.6259793E-3,-7.517248E-2,-6.797119E-1,1.9646509E-1,-2.4492943E-1,-2.1340354E-1,-7.582088E-1],"split_indices":[12,9,4,18,12,9,9,0,0,0,0,0,0,0,0],"split_type":[1,1,1,1,1,1,1,0,0,0,0,0,0,0,0],"sum_hessian":[1.4065E4,1.1403E4,2.662E3,1.0068E4,1.335E3,8.38E2,1.824E3,2.434E3,7.634E3,1.047E3,2.88E2,5.53E2,2.85E2,1.593E3,2.31E2],"tree_param":{"num_deleted":"0","num_feature":"19","num_nodes":"15","size_leaf_vector":"1"}},{"base_weights":[1.9622657E-1,6.2241E-1,-1.0922352E0,5.7486262E-2,1.4635643E0,-3.2065868E-1,-4.5100513E0,4.937098E-2,-2.3713337E-1,4.3148065E-1,1.01165295E-1,-4.601758E-3,-9.337633E-1,-5.439861E-1,-1.7008765E-3],"categories":[0,1,6,3,13,16,17,19,20,22,23,25,27,28,29,34,35,37,38,39,40,1,5,10,12,16,20,22,28,31,37,39,41,0,1,2,3,4,6,7,8,9,10,11,12,13,15,16,17,18,19,20,21,22,23,25,27,29,30,31,32,33,34,35,36,39,40,41,42,43,3,4],"categories_nodes":[0,2,3,4,5],"categories_segments":[0,3,21,33,70],"categories_sizes":[3,18,12,37,2],"default_left":[0,0,1,1,1,1,0,0,0,0,0,0,0,0,0],"id":53,"left_children":[1,3,5,7,9,11,13,-1,-1,-1,-1,-1,-1,-1,-1],"loss_changes":[7.7369355E3,5.028069E3,9.216572E3,7.5167783E3,5.181921E3,7.383245E3,3.542249E3,0E0,0E0,0E0,0E0,0E0,0E0,0E0,0E0],"parents":[2147483647,0,0,1,1,2,2,3,3,4,4,5,5,6,6],"right_children":[2,4,6,8,10,12,14,-1,-1,-1,-1,-1,-1,-1,-1],"split_conditions":[NaN,2E0,NaN,NaN,NaN,NaN,4E0,4.937098E-2,-2.3713337E-1,4.3148065E-1,1.01165295E-1,-4.601758E-3,-9.337633E-1,-5.439861E-1,-1.7008765E-3],"split_indices":[4,13,9,9,9,1,13,0,0,0,0,0,0,0,0],"split_type":[1,0,1,1,1,1,0,0,0,0,0,0,0,0,0],"sum_hessian":[1.409E4,1.059E4,3.5E3,6.338E3,4.252E3,2.857E3,6.43E2,5.368E3,9.7E2,4.81E2,3.771E3,2.779E3,7.8E1,5.04E2,1.39E2],"tree_param":{"num_deleted":"0","num_feature":"19","num_nodes":"15","size_leaf_vector":"1"}},{"base_weights":[2.4784762E-1,-1.1368825E0,7.102568E-1,2.4069622E0,-2.3108072E0,-2.3185682E-1,1.7341381E0,1.0893153E0,1.489616E-1,-3.315757E-1,1.6669129E-1,3.9696936E-2,-4.3697143E-1,7.6686853E-1,1.1831213E-1],"categories":[3,7,8,9,11,12,14,15,18,19,20,22,23,25,27,29,31,32,33,34,35,36,37,39,40,44,0,3,7,16,19,20,30,32,33,34,39,41,42,46,0,1,2,4,5,6,8,9,10,11,12,14,15,16,17,18,19,20,22,23,24,25,26,27,28,29,30,31,32,33,35,37,38,39,40,41,42,43,44,45,46],"categories_nodes":[1,5,6],"categories_segments":[0,26,40],"categories_sizes":[26,14,41],"default_left":[0,1,1,0,0,1,1,0,0,0,0,0,0,0,0],"id":54,"left_children":[1,3,5,7,9,11,13,-1,-1,-1,-1,-1,-1,-1,-1],"loss_changes":[8.977981E3,1.4603439E4,1.0146846E4,6.5677812E3,1.2763438E4,1.5617947E4,1.5524411E4,0E0,0E0,0E0,0E0,0E0,0E0,0E0,0E0],"parents":[2147483647,0,0,1,1,2,2,3,3,4,4,5,5,6,6],"right_children":[2,4,6,8,10,12,14,-1,-1,-1,-1,-1,-1,-1,-1],"split_conditions":[4.356E1,NaN,2.75E-1,1.92E0,1E0,NaN,NaN,1.0893153E0,1.489616E-1,-3.315757E-1,1.6669129E-1,3.9696936E-2,-4.3697143E-1,7.6686853E-1,1.1831213E-1],"split_indices":[15,12,7,14,5,12,12,0,0,0,0,0,0,0,0],"split_type":[0,1,0,0,0,1,1,0,0,0,0,0,0,0,0],"sum_hessian":[1.4021E4,3.508E3,1.0513E4,8.72E2,2.636E3,5.474E3,5.039E3,7.2E1,8E2,2.041E3,5.95E2,4.766E3,7.08E2,3.56E2,4.683E3],"tree_param":{"num_deleted":"0","num_feature":"19","num_nodes":"15","size_leaf_vector":"1"}},{"base_weights":[1.5315363E-1,4.626038E-1,-1.943704E0,4.234659E-3,2.1054258E0,2.404273E0,-3.5931697E0,5.9316564E-2,-1.2965609E-1,4.3904874E-1,8.740785E-2,8.729696E-1,9.258469E-2,-4.5672613E-1,3.2454193E-1],"categories":[0,3,4,5,6,9,10,11,12,13,14,16,17,18,19,20,21,22,23,24,25,26,27,28,29,31,35,36,42,43,44,2,5,6,7,8,9,10,12,13,14,16,17,18,19,21,22,23,24,25,26,28,30,31,34,35,39,40,42,45,46,0,2,3,4,5,6,8,9,10,11,12,13,14,15,16,17,18,19,20,21,22,23,24,25,26,27,28,29,30,31,32,33,35,36,37,38,39,40,42,43,44,45,46],"categories_nodes":[2,4,5],"categories_segments":[0,31,61],"categories_sizes":[31,30,43],"default_left":[0,0,1,0,1,1,0,0,0,0,0,0,0,0,0],"id":55,"left_children":[1,3,5,7,9,11,13,-1,-1,-1,-1,-1,-1,-1,-1],"loss_changes":[9.154648E3,9.256548E3,1.3021922E4,8.207134E3,7.9992764E3,4.809024E3,1.1348363E4,0E0,0E0,0E0,0E0,0E0,0E0,0E0,0E0],"parents":[2147483647,0,0,1,1,2,2,3,3,4,4,5,5,6,6],"right_children":[2,4,6,8,10,12,14,-1,-1,-1,-1,-1,-1,-1,-1],"split_conditions":[6.31E1,2.075E1,NaN,1.0075E1,NaN,NaN,4.101E2,5.9316564E-2,-1.2965609E-1,4.3904874E-1,8.740785E-2,8.729696E-1,9.258469E-2,-4.5672613E-1,3.2454193E-1],"split_indices":[14,11,12,14,12,12,11,0,0,0,0,0,0,0,0],"split_type":[0,0,1,0,1,1,0,0,0,0,0,0,0,0,0],"sum_hessian":[1.4113E4,1.23E4,1.813E3,9.619E3,2.681E3,4.98E2,1.315E3,6.622E3,2.997E3,8.53E2,1.828E3,8.5E1,4.13E2,1.12E3,1.95E2],"tree_param":{"num_deleted":"0","num_feature":"19","num_nodes":"15","size_leaf_vector":"1"}},{"base_weights":[-4.1372374E-2,7.523242E-1,-9.4859374E-1,2.6401002E0,5.250191E-2,-1.8040404E0,7.2977805E-1,1.75806E-1,5.3523105E-1,2.2690458E-2,-7.169186E-1,-1.0212339E-1,-4.456832E-1,1.2306316E-1,-3.8767794E-1],"categories":[3,9,12,13,14,15,16,19,20,22,25,26,38,39,41,43,46,0,1,4,9,10,11,12,14,15,16,17,20,21,22,23,24,25,27,29,31,36,37,38,41,43,3,4,0,3,5,6,7,13,24,26,28,29,30,32,33,35,37,39,41],"categories_nodes":[0,1,4,5],"categories_segments":[0,17,42,44],"categories_sizes":[17,25,2,17],"default_left":[1,1,0,0,1,1,0,0,0,0,0,0,0,0,0],"id":56,"left_children":[1,3,5,7,9,11,13,-1,-1,-1,-1,-1,-1,-1,-1],"loss_changes":[1.0146927E4,9.918588E3,9.447518E3,4.762046E3,7.789706E3,9.154723E3,6.0850986E3,0E0,0E0,0E0,0E0,0E0,0E0,0E0,0E0],"parents":[2147483647,0,0,1,1,2,2,3,3,4,4,5,5,6,6],"right_children":[2,4,6,8,10,12,14,-1,-1,-1,-1,-1,-1,-1,-1],"split_conditions":[NaN,NaN,3E0,2E0,NaN,NaN,1.93E2,1.75806E-1,5.3523105E-1,2.2690458E-2,-7.169186E-1,-1.0212339E-1,-4.456832E-1,1.2306316E-1,-3.8767794E-1],"split_indices":[12,9,13,13,1,9,0,0,0,0,0,0,0,0,0],"split_type":[1,1,0,0,1,1,0,0,0,0,0,0,0,0,0],"sum_hessian":[1.4089E4,7.513E3,6.576E3,2.03E3,5.483E3,4.357E3,2.219E3,1.612E3,4.18E2,5.353E3,1.3E2,3.486E3,8.71E2,1.986E3,2.33E2],"tree_param":{"num_deleted":"0","num_feature":"19","num_nodes":"15","size_leaf_vector":"1"}},{"base_weights":[4.4431062E-3,1.1524299E0,-5.53416E-1,-3.0563452E0,1.6209687E0,-1.0679648E0,9.211569E-1,-5.170218E-1,2.442944E-1,6.087903E-1,1.07428536E-1,-2.7565155E-2,-2.714762E-1,-2.4820738E-3,4.5710364E-1],"categories":[3,4,7,9,12,13,14,16,19,20,21,22,25,29,30,31,32,33,34,37,39,40,41,44,46,9,12,14,16,19,46],"categories_nodes":[0,5],"categories_segments":[0,25],"categories_sizes":[25,6],"default_left":[1,1,0,0,0,1,0,0,0,0,0,0,0,0,0],"id":57,"left_children":[1,3,5,7,9,11,13,-1,-1,-1,-1,-1,-1,-1,-1],"loss_changes":[9.016274E3,9.081588E3,7.1874473E3,6.2555195E3,9.67242E3,9.795807E3,9.068584E3,0E0,0E0,0E0,0E0,0E0,0E0,0E0,0E0],"parents":[2147483647,0,0,1,1,2,2,3,3,4,4,5,5,6,6],"right_children":[2,4,6,8,10,12,14,-1,-1,-1,-1,-1,-1,-1,-1],"split_conditions":[NaN,1.69E2,3E0,2E0,1.355E0,NaN,6.9E0,-5.170218E-1,2.442944E-1,6.087903E-1,1.07428536E-1,-2.7565155E-2,-2.714762E-1,-2.4820738E-3,4.5710364E-1],"split_indices":[12,0,13,13,14,12,14,0,0,0,0,0,0,0,0],"split_type":[1,0,0,0,0,1,0,0,0,0,0,0,0,0,0],"sum_hessian":[1.4074E4,4.604E3,9.47E3,4.6E2,4.144E3,7.022E3,2.448E3,3.23E2,1.37E2,3.8E2,3.764E3,4.904E3,2.118E3,1.97E3,4.78E2],"tree_param":{"num_deleted":"0","num_feature":"19","num_nodes":"15","size_leaf_vector":"1"}},{"base_weights":[-6.503099E-2,-3.2138735E-1,3.000407E0,-2.6597725E-2,-4.811619E0,6.8549304E0,6.8335897E-1,-6.9985405E-2,1.4166346E-1,-3.9337412E-1,-1.2363312E0,5.736708E-1,1.377397E0,-1.1918814E-1,5.9051734E-1],"categories":[],"categories_nodes":[],"categories_segments":[],"categories_sizes":[],"default_left":[1,0,0,1,0,0,0,0,0,0,0,0,0,0,0],"id":58,"left_children":[1,3,5,7,9,11,13,-1,-1,-1,-1,-1,-1,-1,-1],"loss_changes":[1.0947599E4,1.7015742E4,9.57365E3,1.3078851E4,4.201875E3,2.3299668E3,7.2707417E3,0E0,0E0,0E0,0E0,0E0,0E0,0E0,0E0],"parents":[2147483647,0,0,1,1,2,2,3,3,4,4,5,5,6,6],"right_children":[2,4,6,8,10,12,14,-1,-1,-1,-1,-1,-1,-1,-1],"split_conditions":[3.6E0,7.02E1,1.1705E2,3.75E-1,3.46625E2,1.05E1,4.101E2,-6.9985405E-2,1.4166346E-1,-3.9337412E-1,-1.2363312E0,5.736708E-1,1.377397E0,-1.1918814E-1,5.9051734E-1],"split_indices":[7,14,14,7,14,7,11,0,0,0,0,0,0,0,0],"split_type":[0,0,0,0,0,0,0,0,0,0,0,0,0,0,0],"sum_hessian":[1.3939E4,1.2865E4,1.074E3,1.2074E4,7.91E2,4.02E2,6.72E2,8.227E3,3.847E3,7.34E2,5.7E1,3.66E2,3.6E1,4.98E2,1.74E2],"tree_param":{"num_deleted":"0","num_feature":"19","num_nodes":"15","size_leaf_vector":"1"}},{"base_weights":[-2.3600128E-2,-6.797287E-1,1.1681535E0,1.5184575E0,-1.202937E0,-4.0824223E-1,2.3111424E0,1.2750123E-1,1.6900687E0,-8.8504456E-2,-4.914938E-1,1.841316E-1,-1.764174E-1,2.7913722E-1,-2.2179389E-1],"categories":[0,3,4,5,6,7,9,10,13,14,16,17,18,20,22,23,24,26,29,31,33,34,37,42,43,0,6,18,22,24,31,0,1,2,5,7,11,18,19,26,28,31,32,33,36,39,41,43,1,3,9,10,15,27,29,32,35,37,38,40,41],"categories_nodes":[1,4,5,6],"categories_segments":[0,25,31,48],"categories_sizes":[25,6,17,13],"default_left":[1,1,0,1,1,1,1,0,0,0,0,0,0,0,0],"id":59,"left_children":[1,3,5,7,9,11,13,-1,-1,-1,-1,-1,-1,-1,-1],"loss_changes":[1.0980163E4,1.0419721E4,8.988639E3,4.832162E3,7.81917E3,7.163034E3,8.541514E3,0E0,0E0,0E0,0E0,0E0,0E0,0E0,0E0],"parents":[2147483647,0,0,1,1,2,2,3,3,4,4,5,5,6,6],"right_children":[2,4,6,8,10,12,14,-1,-1,-1,-1,-1,-1,-1,-1],"split_conditions":[4.25E-1,NaN,6.337E1,9.59E1,NaN,NaN,NaN,1.2750123E-1,1.6900687E0,-8.8504456E-2,-4.914938E-1,1.841316E-1,-1.764174E-1,2.7913722E-1,-2.2179389E-1],"split_indices":[7,9,15,15,9,9,9,0,0,0,0,0,0,0,0],"split_type":[0,1,0,0,1,1,1,0,0,0,0,0,0,0,0],"sum_hessian":[1.4042E4,9.058E3,4.984E3,1.74E3,7.318E3,2.094E3,2.89E3,1.723E3,1.7E1,6.857E3,4.61E2,7.99E2,1.295E3,2.544E3,3.46E2],"tree_param":{"num_deleted":"0","num_feature":"19","num_nodes":"15","size_leaf_vector":"1"}},{"base_weights":[7.1320735E-2,1.0517985E0,-5.34445E-1,1.5573448E0,-2.9049883E0,1.7637955E-1,-1.6388146E0,7.3088646E-1,1.18714325E-1,2.7605373E-1,-4.4035354E-1,1.8103845E-1,-5.617162E-2,5.5462364E-2,-3.5591316E-1],"categories":[2,5,6,8,9,13,14,15,16,17,18,19,20,22,25,28,29,30,31,33,36,39,41,42,43,46,3,4,5,9,10,12,14,17,19,20,26,31,40,0,1,2,3,4,5,6,7,8,9,10,11,12,13,14,15,16,17,18,19,20,21,22,23,25,26,27,28,29,30,31,32,33,35,36,37,38,39,40,41,42,43,44,45,46,0,2,3,4,6,9,10,12,13,17,18,20,22,23,25,29,32,36,39,40,43,5,6,8,9,16,17,19,20,28,31,36,39,41,46],"categories_nodes":[0,1,3,5,6],"categories_segments":[0,26,39,84,105],"categories_sizes":[26,13,45,21,14],"default_left":[1,1,0,1,0,1,1,0,0,0,0,0,0,0,0],"id":60,"left_children":[1,3,5,7,9,11,13,-1,-1,-1,-1,-1,-1,-1,-1],"loss_changes":[8.39092E3,1.07943125E4,6.8570547E3,8.93668E3,6.2110327E3,7.087239E3,1.6114638E4,0E0,0E0,0E0,0E0,0E0,0E0,0E0,0E0],"parents":[2147483647,0,0,1,1,2,2,3,3,4,4,5,5,6,6],"right_children":[2,4,6,8,10,12,14,-1,-1,-1,-1,-1,-1,-1,-1],"split_conditions":[NaN,NaN,1E0,NaN,3.225E0,NaN,NaN,7.3088646E-1,1.18714325E-1,2.7605373E-1,-4.4035354E-1,1.8103845E-1,-5.617162E-2,5.5462364E-2,-3.5591316E-1],"split_indices":[12,9,8,12,14,9,12,0,0,0,0,0,0,0,0],"split_type":[1,1,0,1,0,1,1,0,0,0,0,0,0,0,0],"sum_hessian":[1.4123E4,5.395E3,8.728E3,4.785E3,6.1E2,5.309E3,3.419E3,2.24E2,4.561E3,1.4E2,4.7E2,1.632E3,3.677E3,1.667E3,1.752E3],"tree_param":{"num_deleted":"0","num_feature":"19","num_nodes":"15","size_leaf_vector":"1"}},{"base_weights":[-1.5933014E-1,-1.2755861E0,3.9861435E-1,-7.506276E-1,-7.9751277E0,3.7668111E0,-1.7087765E-1,9.575403E-1,-9.16296E-2,-5.217621E-1,-1.0248303E0,2.8882208E-1,9.0271974E-1,-3.4880143E-2,5.9793866E-1],"categories":[0,13,19,30,32,34,36,2,4,6,7,8,9,10,12,14,15,16,18,19,20,21,24,25,27,29,30,31,33,35,36,39,40,41,42,43,44,45,46,0,1,2,3,4,5,6,7,8,9,10,11,12,13,14,16,17,18,19,20,21,22,23,25,26,27,28,29,30,31,32,33,34,35,36,37,38,39,40,41,42,43,44,45,46,2,3],"categories_nodes":[1,2,3,4],"categories_segments":[0,7,39,84],"categories_sizes":[7,32,45,2],"default_left":[1,1,1,1,1,0,0,0,0,0,0,0,0,0,0],"id":61,"left_children":[1,3,5,7,9,11,13,-1,-1,-1,-1,-1,-1,-1,-1],"loss_changes":[8.782875E3,1.649765E4,1.803831E4,1.0220117E4,2.2823516E3,5.564629E3,1.0258432E4,0E0,0E0,0E0,0E0,0E0,0E0,0E0,0E0],"parents":[2147483647,0,0,1,1,2,2,3,3,4,4,5,5,6,6],"right_children":[2,4,6,8,10,12,14,-1,-1,-1,-1,-1,-1,-1,-1],"split_conditions":[1.4E-1,NaN,NaN,NaN,NaN,1E0,4E0,9.575403E-1,-9.16296E-2,-5.217621E-1,-1.0248303E0,2.8882208E-1,9.0271974E-1,-3.4880143E-2,5.9793866E-1],"split_indices":[7,12,12,12,4,7,13,0,0,0,0,0,0,0,0],"split_type":[0,1,1,1,1,0,0,0,0,0,0,0,0,0,0],"sum_hessian":[1.4096E4,4.699E3,9.397E3,4.359E3,3.4E2,1.359E3,8.038E3,8.4E1,4.275E3,1.84E2,1.56E2,1.21E3,1.49E2,7.802E3,2.36E2],"tree_param":{"num_deleted":"0","num_feature":"19","num_nodes":"15","size_leaf_vector":"1"}},{"base_weights":[1.3604397E-1,1.4177788E0,-3.0114517E-1,5.72028E0,4.4256458E-1,-1.5568131E0,9.13695E-1,3.576982E-1,9.9196863E-1,-1.8479209E-1,1.8752156E-1,-4.111379E-2,-4.1312733E-1,3.3673707E-1,9.800414E-3],"categories":[0,1,2,4,5,7,8,9,11,14,15,16,17,18,19,20,23,26,27,28,30,32,33,34,35,36,37,38,39,40,41,42,43,44,45,46,0,3,7,8,10,14,15,20,21,24,25,29,33,34,42,46,1,2,5,8,9,10,11,12,13,14,15,17,18,19,20,21,22,23,24,25,26,28,30,31,35,37,39,41,42,44,45],"categories_nodes":[1,5,6],"categories_segments":[0,36,52],"categories_sizes":[36,16,31],"default_left":[0,1,1,0,1,1,1,0,0,0,0,0,0,0,0],"id":62,"left_children":[1,3,5,7,9,11,13,-1,-1,-1,-1,-1,-1,-1,-1],"loss_changes":[7.924473E3,1.507149E4,1.607992E4,6.05116E3,1.0788623E4,1.6299847E4,1.1444881E4,0E0,0E0,0E0,0E0,0E0,0E0,0E0,0E0],"parents":[2147483647,0,0,1,1,2,2,3,3,4,4,5,5,6,6],"right_children":[2,4,6,8,10,12,14,-1,-1,-1,-1,-1,-1,-1,-1],"split_conditions":[3.9E0,NaN,4E-1,3.575E0,5E-2,NaN,NaN,3.576982E-1,9.9196863E-1,-1.8479209E-1,1.8752156E-1,-4.111379E-2,-4.1312733E-1,3.3673707E-1,9.800414E-3],"split_indices":[14,12,7,11,7,12,12,0,0,0,0,0,0,0,0],"split_type":[0,1,0,0,0,1,1,0,0,0,0,0,0,0,0],"sum_hessian":[1.4134E4,3.596E3,1.0538E4,6.63E2,2.933E3,5.183E3,5.355E3,4.72E2,1.91E2,1.146E3,1.787E3,3.702E3,1.481E3,1.256E3,4.099E3],"tree_param":{"num_deleted":"0","num_feature":"19","num_nodes":"15","size_leaf_vector":"1"}},{"base_weights":[-4.94687E-2,7.6348416E-4,-9.010978E0,7.286812E-1,-5.572377E-1,-1.4176336E1,1.3510579E0,1.13018155E-1,-8.91844E-2,-1.1531261E-1,1.1425568E-1,-1.6702586E0,-8.9910746E-1,1.6487104E0,-1.3814896E0],"categories":[4,0],"categories_nodes":[0,3],"categories_segments":[0,1],"categories_sizes":[1,1],"default_left":[1,0,0,0,0,0,0,0,0,0,0,0,0,0,0],"id":63,"left_children":[1,3,5,7,9,11,13,-1,-1,-1,-1,-1,-1,-1,-1],"loss_changes":[6.3800913E3,5.7016416E3,4.2859956E3,4.722335E3,9.238194E3,6.085342E2,7.1639663E3,0E0,0E0,0E0,0E0,0E0,0E0,0E0,0E0],"parents":[2147483647,0,0,1,1,2,2,3,3,4,4,5,5,6,6],"right_children":[2,4,6,8,10,12,14,-1,-1,-1,-1,-1,-1,-1,-1],"split_conditions":[NaN,7.55E0,1E0,NaN,5.14E1,2E0,1.7E0,1.13018155E-1,-8.91844E-2,-1.1531261E-1,1.1425568E-1,-1.6702586E0,-8.9910746E-1,1.6487104E0,-1.3814896E0],"split_indices":[1,14,8,3,11,13,14,0,0,0,0,0,0,0,0],"split_type":[1,0,0,1,0,0,0,0,0,0,0,0,0,0,0],"sum_hessian":[1.4112E4,1.4034E4,7.8E1,6.092E3,7.942E3,5.2E1,2.6E1,4.769E3,1.323E3,5.781E3,2.161E3,2.8E1,2.4E1,1.3E1,1.3E1],"tree_param":{"num_deleted":"0","num_feature":"19","num_nodes":"15","size_leaf_vector":"1"}},{"base_weights":[7.3933035E-2,-4.6673864E-1,8.398146E-1,-6.2414095E-2,-2.6131625E0,1.5008531E0,-7.4280167E-1,2.0744573E-1,-3.7467614E-2,-6.983244E-1,-1.5046914E-1,5.439669E-1,8.5017264E-2,8.00992E-2,-4.2726165E-1],"categories":[1,3,10,14,16,24,26,28,31,37,38,41,0,1,3,4,6,8,9,10,11,12,13,14,15,16,17,18,19,20,21,22,23,25,27,29,30,31,32,33,34,35,36,39,40,41,42,43,0,1,2,3,4,5,6,7,9,11,12,13,15,16,17,19,20,21,22,23,24,25,26,27,28,29,30,31,32,33,34,36,37,38,40,41,42],"categories_nodes":[1,5,6],"categories_segments":[0,12,48],"categories_sizes":[12,36,37],"default_left":[0,1,0,0,0,1,1,0,0,0,0,0,0,0,0],"id":64,"left_children":[1,3,5,7,9,11,13,-1,-1,-1,-1,-1,-1,-1,-1],"loss_changes":[5.832733E3,7.154192E3,6.1025615E3,5.2035786E3,6.3348906E3,1.0504023E4,1.0283455E4,0E0,0E0,0E0,0E0,0E0,0E0,0E0,0E0],"parents":[2147483647,0,0,1,1,2,2,3,3,4,4,5,5,6,6],"right_children":[2,4,6,8,10,12,14,-1,-1,-1,-1,-1,-1,-1,-1],"split_conditions":[2E0,NaN,1E0,2.41E0,4.85E0,NaN,NaN,2.0744573E-1,-3.7467614E-2,-6.983244E-1,-1.5046914E-1,5.439669E-1,8.5017264E-2,8.00992E-2,-4.2726165E-1],"split_indices":[13,9,8,14,11,9,9,0,0,0,0,0,0,0,0],"split_type":[0,1,0,0,0,1,1,0,0,0,0,0,0,0,0],"sum_hessian":[1.4081E4,8.252E3,5.829E3,6.946E3,1.306E3,4.113E3,1.716E3,8.93E2,6.053E3,2.3E2,1.076E3,5.11E2,3.602E3,1.207E3,5.09E2],"tree_param":{"num_deleted":"0","num_feature":"19","num_nodes":"15","size_leaf_vector":"1"}},{"base_weights":[2.5870673E-2,9.0188295E-1,-5.683951E-1,4.212071E0,3.1335893E-1,-8.2437503E-1,2.3101687E0,1.55517E0,2.686604E-1,-8.43526E-2,1.6669783E-1,-1.291432E-1,5.7386316E-2,1.3190106E-2,4.5810267E-1],"categories":[2,3,5,7,9,12,13,14,16,18,19,20,25,27,28,30,32,33,34,35,39,42,0,1,2,3,4,5,6,7,8,9,10,11,12,13,14,15,16,17,18,19,20,22,23,25,26,27,28,30,31,32,33,34,35,36,37,38,39,40,41,42,43,44,45,46],"categories_nodes":[0,3],"categories_segments":[0,22],"categories_sizes":[22,44],"default_left":[1,0,1,1,0,0,0,0,0,0,0,0,0,0,0],"id":65,"left_children":[1,3,5,7,9,11,13,-1,-1,-1,-1,-1,-1,-1,-1],"loss_changes":[7.36049E3,1.1120588E4,6.2025E3,1.437562E4,8.451724E3,5.958541E3,3.7489248E3,0E0,0E0,0E0,0E0,0E0,0E0,0E0,0E0],"parents":[2147483647,0,0,1,1,2,2,3,3,4,4,5,5,6,6],"right_children":[2,4,6,8,10,12,14,-1,-1,-1,-1,-1,-1,-1,-1],"split_conditions":[NaN,1.92E0,8.506E1,NaN,4.85E0,3E0,1.5E1,1.55517E0,2.686604E-1,-8.43526E-2,1.6669783E-1,-1.291432E-1,5.7386316E-2,1.3190106E-2,4.5810267E-1],"split_indices":[12,14,15,12,11,13,11,0,0,0,0,0,0,0,0],"split_type":[1,0,0,1,0,0,0,0,0,0,0,0,0,0,0],"sum_hessian":[1.4135E4,5.715E3,8.42E3,8.61E2,4.854E3,7.734E3,6.86E2,8.6E1,7.75E2,2.648E3,2.206E3,5.62E3,2.114E3,3.7E2,3.16E2],"tree_param":{"num_deleted":"0","num_feature":"19","num_nodes":"15","size_leaf_vector":"1"}},{"base_weights":[-2.3531163E-2,-3.1643853E-1,1.6006528E0,-2.3181057E0,1.4246343E-1,1.9569998E0,-6.6837034E0,-1.1026045E-1,-4.531263E-1,-3.0358272E-2,1.81516E-1,3.5371006E-1,1.1053655E-1,-9.9343574E-1,3.7137428E-1],"categories":[],"categories_nodes":[],"categories_segments":[],"categories_sizes":[],"default_left":[0,0,0,0,0,0,1,0,0,0,0,0,0,0,0],"id":66,"left_children":[1,3,5,7,9,11,13,-1,-1,-1,-1,-1,-1,-1,-1],"loss_changes":[6.7297383E3,1.1023255E4,6.3783965E3,6.3423047E3,8.0111416E3,2.8907783E3,3.646341E3,0E0,0E0,0E0,0E0,0E0,0E0,0E0,0E0],"parents":[2147483647,0,0,1,1,2,2,3,3,4,4,5,5,6,6],"right_children":[2,4,6,8,10,12,14,-1,-1,-1,-1,-1,-1,-1,-1],"split_conditions":[1E0,3.635E1,2.0265E2,1.67E1,2.075E1,3.453E1,6.044E1,-1.1026045E-1,-4.531263E-1,-3.0358272E-2,1.81516E-1,3.5371006E-1,1.1053655E-1,-9.9343574E-1,3.7137428E-1],"split_indices":[5,15,14,14,11,15,15,0,0,0,0,0,0,0,0],"split_type":[0,0,0,0,0,0,0,0,0,0,0,0,0,0,0],"sum_hessian":[1.4152E4,1.1992E4,2.16E3,2.237E3,9.755E3,2.072E3,8.8E1,1.525E3,7.12E2,7.735E3,2.02E3,6.36E2,1.436E3,6.5E1,2.3E1],"tree_param":{"num_deleted":"0","num_feature":"19","num_nodes":"15","size_leaf_vector":"1"}},{"base_weights":[-6.850251E-2,1.9990423E-1,-1.793558E0,1.2217242E0,-2.6888615E-1,-1.0824704E0,-5.5684075E0,-4.1617572E-1,1.3844348E-1,-5.990373E-3,-3.5817024E-1,-2.8137502E-1,4.2857073E-2,-9.9458176E-1,-2.247267E-1],"categories":[0,1,9,10,16,17,20,21,22,23,29,31,33,38,39,41,42,24,26,36,37],"categories_nodes":[0,4],"categories_segments":[0,17],"categories_sizes":[17,4],"default_left":[1,0,0,0,1,0,0,0,0,0,0,0,0,0,0],"id":67,"left_children":[1,3,5,7,9,11,13,-1,-1,-1,-1,-1,-1,-1,-1],"loss_changes":[6.5058916E3,5.822793E3,5.0526177E3,5.131524E3,6.0008774E3,4.624659E3,4.646248E3,0E0,0E0,0E0,0E0,0E0,0E0,0E0,0E0],"parents":[2147483647,0,0,1,1,2,2,3,3,4,4,5,5,6,6],"right_children":[2,4,6,8,10,12,14,-1,-1,-1,-1,-1,-1,-1,-1],"split_conditions":[NaN,2E0,3.835E1,6.25E-1,NaN,6.725E0,5.883E1,-4.1617572E-1,1.3844348E-1,-5.990373E-3,-3.5817024E-1,-2.8137502E-1,4.2857073E-2,-9.9458176E-1,-2.247267E-1],"split_indices":[9,10,14,14,9,11,15,0,0,0,0,0,0,0,0],"split_type":[1,0,0,0,1,0,0,0,0,0,0,0,0,0,0],"sum_hessian":[1.4039E4,1.2148E4,1.891E3,3.822E3,8.326E3,1.593E3,2.98E2,1.55E2,3.667E3,7.867E3,4.59E2,7.15E2,8.78E2,1.16E2,1.82E2],"tree_param":{"num_deleted":"0","num_feature":"19","num_nodes":"15","size_leaf_vector":"1"}},{"base_weights":[5.375429E-2,7.739978E-1,-5.7316697E-1,3.0668147E0,2.0105697E-1,-1.9327694E-1,-3.5558589E0,5.1143384E-1,1.7980783E-1,-1.1490651E-1,8.7920964E-2,-2.956377E-2,5.219653E-1,-2.005678E-1,-1.1179247E0],"categories":[2,9,13,14,16,19,20,25,26,27,29,30,31,36,38,39,42,0,1,3,4,9,10,11,12,15,16,19,20,22,23,24,25,28,29,30,31,34,37,38,40,41,43,0,1,5,7,11,17,20,27,29,30,32,33,37,38,41,0,2,6,7,16,19,39],"categories_nodes":[0,1,2,3,6],"categories_segments":[0,17,43,58,62],"categories_sizes":[17,26,15,4,3],"default_left":[1,1,1,0,0,1,1,0,0,0,0,0,0,0,0],"id":68,"left_children":[1,3,5,7,9,11,13,-1,-1,-1,-1,-1,-1,-1,-1],"loss_changes":[6.371315E3,8.617623E3,8.532733E3,3.5428467E3,5.4010435E3,4.514327E3,1.0027748E4,0E0,0E0,0E0,0E0,0E0,0E0,0E0,0E0],"parents":[2147483647,0,0,1,1,2,2,3,3,4,4,5,5,6,6],"right_children":[2,4,6,8,10,12,14,-1,-1,-1,-1,-1,-1,-1,-1],"split_conditions":[NaN,NaN,NaN,NaN,6.715E1,9.444E1,NaN,5.1143384E-1,1.7980783E-1,-1.1490651E-1,8.7920964E-2,-2.956377E-2,5.219653E-1,-2.005678E-1,-1.1179247E0],"split_indices":[12,9,9,17,15,15,12,0,0,0,0,0,0,0,0],"split_type":[1,1,1,1,0,0,1,0,0,0,0,0,0,0,0],"sum_hessian":[1.4107E4,6.567E3,7.54E3,1.311E3,5.256E3,6.69E3,8.5E2,4.36E2,8.75E2,1.783E3,3.473E3,6.555E3,1.35E2,7.25E2,1.25E2],"tree_param":{"num_deleted":"0","num_feature":"19","num_nodes":"15","size_leaf_vector":"1"}},{"base_weights":[-5.07177E-3,-1.7208856E-1,2.5511508E0,2.0331085E-1,-3.5533924E0,5.457919E0,3.9617166E-2,-4.601826E-2,1.7256564E-1,-1.05224006E-1,-4.4995102E-1,3.0827335E-1,9.7578776E-1,4.5068932E-1,-2.93197E-1],"categories":[1,2,3,5,7],"categories_nodes":[2],"categories_segments":[0],"categories_sizes":[5],"default_left":[1,0,1,1,1,0,0,0,0,0,0,0,0,0,0],"id":69,"left_children":[1,3,5,7,9,11,13,-1,-1,-1,-1,-1,-1,-1,-1],"loss_changes":[6.001091E3,1.6780016E4,6.2762754E3,1.3257309E4,3.8330078E3,4.183038E3,6.877325E3,0E0,0E0,0E0,0E0,0E0,0E0,0E0,0E0],"parents":[2147483647,0,0,1,1,2,2,3,3,4,4,5,5,6,6],"right_children":[2,4,6,8,10,12,14,-1,-1,-1,-1,-1,-1,-1,-1],"split_conditions":[5E0,5.13E1,NaN,4E-1,1.185E1,1.5E1,1.6095E2,-4.601826E-2,1.7256564E-1,-1.05224006E-1,-4.4995102E-1,3.0827335E-1,9.7578776E-1,4.5068932E-1,-2.93197E-1],"split_indices":[7,14,17,7,15,7,14,0,0,0,0,0,0,0,0],"split_type":[0,0,1,0,0,0,0,0,0,0,0,0,0,0,0],"sum_hessian":[1.4071E4,1.321E4,8.61E2,1.189E4,1.32E3,3.98E2,4.63E2,8.338E3,3.552E3,4.35E2,8.85E2,2.75E2,1.23E2,1.85E2,2.78E2],"tree_param":{"num_deleted":"0","num_feature":"19","num_nodes":"15","size_leaf_vector":"1"}},{"base_weights":[-4.182694E-2,-3.9151353E-1,1.7292532E0,1.4535026E-1,-2.7145507E0,7.9556956E0,9.200911E-1,-9.632737E-2,9.610087E-2,-4.528644E-1,-1.4209652E-1,1.1827611E0,5.360498E-1,-4.4583615E-2,2.7171928E-1],"categories":[],"categories_nodes":[],"categories_segments":[],"categories_sizes":[],"default_left":[1,0,0,1,0,0,0,0,0,0,0,0,0,0,0],"id":70,"left_children":[1,3,5,7,9,11,13,-1,-1,-1,-1,-1,-1,-1,-1],"loss_changes":[8.673998E3,1.4603553E4,1.159926E4,9.596324E3,5.4873125E3,2.6320586E3,5.5460347E3,0E0,0E0,0E0,0E0,0E0,0E0,0E0,0E0],"parents":[2147483647,0,0,1,1,2,2,3,3,4,4,5,5,6,6],"right_children":[2,4,6,8,10,12,14,-1,-1,-1,-1,-1,-1,-1,-1],"split_conditions":[1.4E0,1.97E1,2.3125E1,1.25E-1,4.75E-1,2.165E1,5E0,-9.632737E-2,9.610087E-2,-4.528644E-1,-1.4209652E-1,1.1827611E0,5.360498E-1,-4.4583615E-2,2.7171928E-1],"split_indices":[7,14,14,7,7,11,7,0,0,0,0,0,0,0,0],"split_type":[0,0,0,0,0,0,0,0,0,0,0,0,0,0,0],"sum_hessian":[1.401E4,1.1702E4,2.308E3,9.505E3,2.197E3,2.64E2,2.044E3,4.065E3,5.44E3,8.12E2,1.385E3,8.7E1,1.77E2,1.192E3,8.52E2],"tree_param":{"num_deleted":"0","num_feature":"19","num_nodes":"15","size_leaf_vector":"1"}},{"base_weights":[5.924546E-2,1.0378177E-1,-1.0861503E1,1.7255788E0,-1.3927719E-1,8.635643E-2,-1.3761765E1,5.157202E-1,6.4896636E-2,-7.6035485E-2,7.359585E-2,-1.6536015E0,-2.6783678E-1],"categories":[0,0,1,2,3,6,1,5,6,7,8,9,10,11,12,14,16,17,18,19,20,21,25,26,29,33,34,35,36,37,38,39,41,42,43],"categories_nodes":[0,1,3],"categories_segments":[0,1,6],"categories_sizes":[1,5,29],"default_left":[1,0,0,1,0,0,0,0,0,0,0,0,0],"id":71,"left_children":[1,3,5,7,9,-1,11,-1,-1,-1,-1,-1,-1],"loss_changes":[6.8261826E3,5.5406416E3,1.9973105E3,7.0642314E3,7.417561E3,0E0,1.7451025E3,0E0,0E0,0E0,0E0,0E0,0E0],"parents":[2147483647,0,0,1,1,2,2,3,3,4,4,6,6],"right_children":[2,4,6,8,10,-1,12,-1,-1,-1,-1,-1,-1],"split_conditions":[NaN,NaN,1.77E2,NaN,2E0,8.635643E-2,2E-1,5.157202E-1,6.4896636E-2,-7.6035485E-2,7.359585E-2,-1.6536015E0,-2.6783678E-1],"split_indices":[4,4,0,9,13,0,11,0,0,0,0,0,0],"split_type":[1,1,0,1,0,0,0,0,0,0,0,0,0],"sum_hessian":[1.4098E4,1.4042E4,5.6E1,1.831E3,1.2211E4,1.1E1,4.5E1,3.99E2,1.432E3,7.085E3,5.126E3,3.3E1,1.2E1],"tree_param":{"num_deleted":"0","num_feature":"19","num_nodes":"13","size_leaf_vector":"1"}},{"base_weights":[9.349008E-3,1.2664449E-1,-5.0422144E0,1.755605E0,-1.1596117E-1,6.587341E0,-6.8755174E0,3.1158584E-1,3.9414655E-2,-3.9106883E-2,1.288943E-1,1.1905177E0,2.1306187E-1,-1.506758E0,-5.330136E-1],"categories":[0,1,2,3,6,0,1,2,3,5,7,0,1,2,6,7,0,1,2,4,5,0],"categories_nodes":[1,2,3,5,6],"categories_segments":[0,5,11,16,21],"categories_sizes":[5,6,5,5,1],"default_left":[0,0,0,1,0,1,0,0,0,0,0,0,0,0,0],"id":72,"left_children":[1,3,5,7,9,11,13,-1,-1,-1,-1,-1,-1,-1,-1],"loss_changes":[8.3819795E3,5.4785737E3,6.8900366E3,3.6767642E3,5.277409E3,1.0681891E3,2.9841045E3,0E0,0E0,0E0,0E0,0E0,0E0,0E0,0E0],"parents":[2147483647,0,0,1,1,2,2,3,3,4,4,5,5,6,6],"right_children":[2,4,6,8,10,12,14,-1,-1,-1,-1,-1,-1,-1,-1],"split_conditions":[3.46625E2,NaN,NaN,NaN,1E0,NaN,NaN,3.1158584E-1,3.9414655E-2,-3.9106883E-2,1.288943E-1,1.1905177E0,2.1306187E-1,-1.506758E0,-5.330136E-1],"split_indices":[14,4,17,17,5,18,16,0,0,0,0,0,0,0,0],"split_type":[0,1,1,1,0,1,1,0,0,0,0,0,0,0,0],"sum_hessian":[1.4169E4,1.3849E4,3.2E2,1.796E3,1.2053E4,4.3E1,2.77E2,8.36E2,9.6E2,1.0038E4,2.015E3,1.7E1,2.6E1,3.2E1,2.45E2],"tree_param":{"num_deleted":"0","num_feature":"19","num_nodes":"15","size_leaf_vector":"1"}},{"base_weights":[-3.6446083E-2,4.663275E-1,-1.0174361E0,-7.2820485E-1,1.5849326E0,-4.049246E-1,-5.1498485E0,4.3019202E-1,-1.01271234E-1,2.2065683E-1,-2.6537249E-2,1.2521455E-1,-8.350169E-2,-5.9386104E-1,3.8097363E-2],"categories":[0,1,0,9,16,17,20,21,24,25,27,28,31,33,0,1,2,3,4,5,6,7,8,9,11,13,14,17,18,19,20,22,23,27,29,30,31,32,33,34,35,36,37,38,39,40,41,42,43,1,3,4,9,13,15,16,18,21,22,23,25,29,32,35,36,37,40,41,42,0,1,2,5,6,8,9,10,11,12,14,15,16,17,18,19,20,21,22,24,25,26,27,28,29,30,31,32,33,36,38,39,41,43],"categories_nodes":[0,2,3,4,5],"categories_segments":[0,2,14,49,69],"categories_sizes":[2,12,35,20,34],"default_left":[1,1,1,1,1,1,0,0,0,0,0,0,0,0,0],"id":73,"left_children":[1,3,5,7,9,11,13,-1,-1,-1,-1,-1,-1,-1,-1],"loss_changes":[6.9752134E3,1.2491942E4,1.2113053E4,8.0997324E3,6.7021426E3,3.4330396E3,3.852545E3,0E0,0E0,0E0,0E0,0E0,0E0,0E0,0E0],"parents":[2147483647,0,0,1,1,2,2,3,3,4,4,5,5,6,6],"right_children":[2,4,6,8,10,12,14,-1,-1,-1,-1,-1,-1,-1,-1],"split_conditions":[NaN,2.5E-1,NaN,NaN,NaN,NaN,3.845E1,4.3019202E-1,-1.01271234E-1,2.2065683E-1,-2.6537249E-2,1.2521455E-1,-8.350169E-2,-5.9386104E-1,3.8097363E-2],"split_indices":[18,7,9,9,9,9,11,0,0,0,0,0,0,0,0],"split_type":[1,0,1,1,1,1,0,0,0,0,0,0,0,0,0],"sum_hessian":[1.4137E4,9.345E3,4.792E3,4.518E3,4.827E3,4.175E3,6.17E2,2.73E2,4.245E3,3.452E3,1.375E3,9.01E2,3.274E3,5.14E2,1.03E2],"tree_param":{"num_deleted":"0","num_feature":"19","num_nodes":"15","size_leaf_vector":"1"}},{"base_weights":[-4.3675616E-2,8.45189E0,-1.00684024E-1,1.9685293E1,-2.4270346E0,4.254837E0,-2.060661E-1,5.4475665E-1,2.3071656E0,-1.0315442E0,2.758478E-1,5.714904E-1,-4.955608E-1,-2.3024173E-1,-1.2863118E-3],"categories":[0,1,2,3,4,5,6,7,8,9,10,11,12,13,14,15,16,17,18,19,20,21,22,23,25,26,27,28,29,30,31,32,33,34,35,36,37,38,39,40,41,42,43,44,45,46,0,1,2,3,4,6,15,19,44],"categories_nodes":[0,2,5],"categories_segments":[0,46,52],"categories_sizes":[46,6,3],"default_left":[1,0,0,0,0,1,1,0,0,0,0,0,0,0,0],"id":74,"left_children":[1,3,5,7,9,11,13,-1,-1,-1,-1,-1,-1,-1,-1],"loss_changes":[6.757712E3,1.1464834E4,6.373794E3,2.7581738E3,2.2228772E3,5.5585913E3,5.8069404E3,0E0,0E0,0E0,0E0,0E0,0E0,0E0,0E0],"parents":[2147483647,0,0,1,1,2,2,3,3,4,4,5,5,6,6],"right_children":[2,4,6,8,10,12,14,-1,-1,-1,-1,-1,-1,-1,-1],"split_conditions":[NaN,4.5E-1,NaN,1E0,1.84E2,NaN,1.7E2,5.4475665E-1,2.3071656E0,-1.0315442E0,2.758478E-1,5.714904E-1,-4.955608E-1,-2.3024173E-1,-1.2863118E-3],"split_indices":[12,14,4,8,0,12,0,0,0,0,0,0,0,0,0],"split_type":[1,0,1,0,0,1,0,0,0,0,0,0,0,0,0],"sum_hessian":[1.4002E4,9.2E1,1.391E4,4.5E1,4.7E1,3.27E2,1.3583E4,1.2E1,